<?xml version="1.0"?>
<opencv_storage>
<my_svm type_id="opencv-ml-svm">
  <svm_type>EPS_SVR</svm_type>
  <kernel><type>RBF</type>
    <gamma>3.4522699999999999e-003</gamma></kernel>
  <C>5.</C>
  <p>1.0000000000000001e-001</p>
  <term_criteria><epsilon>4.9999998882412910e-003</epsilon>
    <iterations>2147483647</iterations></term_criteria>
  <var_all>400</var_all>
  <var_count>400</var_count>
  <sv_total>191</sv_total>
  <support_vectors>
    <_>
      2.64070302e-001 4.98193175e-001 3.27090764e+000 2.12502122e+000
      3.68875861e-002 1.95416534e+000 3.70602965e-001 2.05271170e-001
      3.55607793e-002 1.19743478e+000 8.78385305e-001 1.09617078e+000
      9.37732995e-001 2.18611568e-001 8.54061067e-001 2.81831622e+000
      4.63383257e-001 3.45847219e-001 7.17045128e-001 1.40027237e+000
      3.48164350e-001 2.31473848e-001 2.25975871e+000 3.18827450e-001
      1.69003569e-002 1.46951568e+000 8.92840564e-001 4.35180283e+000
      7.17134118e-001 2.98599806e-002 4.21343684e-001 5.44070825e-002
      4.79154587e+000 4.23505530e-002 2.84142613e-001 1.27215362e+000
      5.33988476e-001 1.73104882e+000 2.69595861e-001 2.42729157e-001
      4.39594463e-002 1.07813048e+000 2.97916144e-001 2.05922976e-001
      2.68976784e+000 1.50749743e+000 1.28235185e+000 6.05543017e-001
      2.61867940e-001 8.97441208e-001 5.12289740e-002 3.55012476e-001
      1.54432762e+000 5.28945446e-001 7.84565866e-001 5.73101223e-001
      1.93239778e-001 2.27152675e-001 7.80790392e-003 1.92859575e-001
      7.33237043e-002 2.36582309e-001 8.42166692e-003 7.53571808e-001
      5.75518906e-001 7.15465665e-001 5.54778159e-001 4.27324653e-001
      1.70088816e+000 5.68358541e-001 3.15679103e-001 1.03395879e+000
      4.98644233e-001 2.60626346e-001 8.35841238e-001 3.81012946e-001
      5.92171997e-002 1.80058882e-001 3.88112187e-001 1.73420322e+000
      4.59360451e-001 2.58940548e-001 1.58200469e-002 2.25895405e-001
      3.63625193e+000 2.28812051e+000 7.74687342e-003 4.67449911e-002
      1.05310082e+000 2.05956459e+000 5.30103564e-001 3.12551171e-001
      6.41253889e-002 9.90292430e-001 2.16367483e+000 1.46423137e+000
      1.57938099e+000 1.16848981e+000 2.26444095e-001 6.36812925e-001
      1.39467824e+000 3.41325903e+000 1.71964899e-001 3.80708516e-001
      2.44658619e-001 1.25246882e+000 1.06009948e+000 5.27366772e-002
      3.98486806e-003 1.10142887e-001 9.68960643e-001 2.58759332e+000
      1.85876638e-001 8.18383515e-001 3.15140933e-002 3.29265334e-002
      9.20698941e-002 4.28216219e-001 3.66122797e-002 9.47558045e-001
      4.70342278e-001 5.74559510e-001 1.74580649e-001 1.11026699e-002
      1.18125372e-001 6.55370876e-002 3.44350791e+000 6.82197034e-001
      3.24465036e-001 1.64583817e-001 6.82503283e-002 6.93522334e-001
      1.15212630e-002 2.81093979e+000 1.67972639e-001 9.57758248e-001
      3.56095940e-001 7.00097457e-002 9.73367333e-001 1.82224000e+000
      6.90157175e-001 2.32592523e-001 3.30102116e-001 2.80679584e-001
      4.42423522e-001 2.08519563e-001 9.50499177e-002 1.33155477e+000
      1.00299165e-001 5.95587343e-002 1.88609794e-001 1.03621805e+000
      3.68078411e-001 9.02806878e-001 1.38028324e+000 4.55313355e-001
      1.36320484e+000 1.55813277e+000 1.41743982e+000 5.61811626e-002
      9.45302129e-001 1.00727178e-001 4.28713530e-001 2.26329565e+000
      5.77394404e-002 5.07598042e-001 2.91238993e-001 3.02523673e-001
      3.19870174e-001 9.84128594e-001 6.29500687e-001 3.07831526e-001
      2.82166034e-001 6.60588384e-001 4.16778237e-001 5.92995398e-002
      6.30101502e-001 3.29216480e-001 4.52851743e-001 8.37983489e-002
      2.04606950e-002 3.26544084e-002 2.65890568e-001 8.03318322e-001
      1.48591721e+000 2.14360490e-001 9.35365036e-002 1.04789209e+000
      1.15575182e+000 1.07711017e-001 2.29037389e-001 3.27432489e+000
      5.62413812e-001 1.03103131e-001 2.36151665e-001 8.04339256e-003
      2.67736856e-002 4.37918633e-001 1.76279962e-001 5.83577454e-001
      3.67462821e-002 8.24961662e-001 1.79952848e+000 4.16341066e-001
      3.45149565e+000 9.46147501e-001 3.07276368e+000 1.35599852e+000
      4.94420826e-001 1.65888965e-002 1.42325535e-002 1.48732793e+000
      2.07100548e-002 8.94634008e-001 5.64516857e-002 1.52643085e+000
      2.40848088e+000 2.94831228e+000 6.72205508e-001 2.04286194e+000
      1.82729840e-001 3.01742435e-001 1.97091532e+000 1.02054127e-001
      1.50462791e-001 1.33431479e-001 5.56732602e-002 6.99675158e-002
      1.83500335e-001 2.00830027e-001 1.99485987e-001 2.39566469e+000
      8.24606605e-003 2.26588100e-001 3.99060965e-001 9.31468606e-001
      2.56835788e-001 5.95483422e-001 1.35219157e-001 4.93536592e-001
      2.04281118e-002 2.01191044e+000 4.99954820e-001 1.83097959e-001
      4.67155188e-001 9.56879463e-003 1.74589670e+000 3.24539453e-001
      1.37190633e-002 3.70124243e-002 1.14358598e-002 8.57010782e-001
      9.10334364e-002 3.98248017e-001 1.72199428e+000 2.07537010e-001
      6.98110819e-001 4.01899330e-002 7.90473104e-001 7.62299076e-002
      1.42949477e-001 5.43184429e-002 6.46067977e-001 3.90616685e-001
      2.17178911e-001 6.82237521e-002 4.95008618e-001 5.23207605e-001
      2.06218433e+000 1.38543820e+000 2.57280976e-001 3.91516209e-001
      2.65851229e-001 5.78626990e-002 3.25232856e-002 1.04512669e-001
      5.00191450e-001 9.39454138e-002 4.47077960e-001 7.46128634e-002
      2.51624286e-001 1.26409167e-002 1.01334250e+000 9.34616387e-001
      3.20842028e-001 7.13622928e-001 2.29771122e-001 6.85484648e-001
      6.18570903e-003 4.12500277e-002 1.81271270e-001 4.29494321e-001
      3.76916909e+000 3.04031879e-001 9.23377275e-001 2.83794761e+000
      2.60554266e+000 7.38205194e-001 2.46737361e+000 2.82433105e+000 0.
      0. 0. 0. 0. 0. 0. 0. 0. 0. 0. 0. 0. 0. 0. 0. 0. 0. 0. 0. 0. 0. 0.
      0. 0. 0. 0. 0. 0. 0. 0. 0. 0. 0. 0. 0. 0. 0. 0. 0. 0. 0. 0. 0. 0.
      0. 0. 0. 0. 0. 0. 0. 0. 0. 0. 0. 0. 0. 0. 0. 0. 0. 0. 0. 0. 0. 0.
      0. 0. 0. 0. 0. 0. 0. 0. 0. 0. 0. 0. 0. 0. 0. 0. 0. 0. 0. 0. 0. 0.
      0. 0. 0. 0. 0. 0. 0. 0. 0. 0. 0.</_>
    <_>
      1.50522098e-001 8.58092427e-001 4.61517781e-001 1.22473943e+000
      2.01706346e-002 1.42749465e+000 2.61240304e-001 2.33008608e-001
      1.69898555e-001 1.14886153e+000 5.73776841e-001 8.76322210e-001
      7.33884037e-001 3.90070975e-001 4.82275397e-001 9.67683196e-001
      1.97953671e-001 1.22864433e-001 1.07261336e+000 4.43586975e-001
      7.39296079e-001 2.54796416e-001 6.64754629e-001 2.91893601e-001
      6.39319420e-002 1.08336258e+000 3.12010378e-001 8.87833953e-001
      6.34167254e-001 5.10492437e-002 4.11771238e-001 3.28497201e-001
      6.69631779e-001 1.94832027e-001 7.14672029e-001 2.35485509e-001
      5.59900820e-001 5.00947356e-001 3.80281001e-001 1.62104487e+000
      1.79323927e-002 1.40885627e+000 2.36184537e-001 1.49920806e-001
      1.83634746e+000 4.97944564e-001 1.54743934e+000 1.35188234e+000
      1.90314436e+000 1.13755345e+000 4.10951786e-002 1.01833868e+000
      1.13591862e+000 2.11558670e-001 5.40089071e-001 3.23895991e-001
      5.82299717e-002 2.97201037e-001 1.24256741e-002 1.82171428e+000
      5.33538103e-001 1.66750705e+000 7.71425432e-003 3.09709758e-001
      3.51368934e-001 1.13120759e+000 3.46577972e-001 4.97522563e-001
      8.73727739e-001 1.32759535e+000 1.99813533e+000 2.86528736e-001
      2.32389140e+000 1.12688291e+000 2.78241485e-001 1.04886793e-001
      1.18516043e-001 4.13148046e-001 2.52518803e-001 1.17223930e+000
      1.49570674e-001 3.23672712e-001 3.09490133e-002 1.72241360e-001
      1.94154453e+000 1.24635577e+000 2.90004928e-002 2.52362818e-001
      1.20990241e+000 2.18672705e+000 5.12737930e-001 3.93892884e-001
      6.67204633e-002 7.24833786e-001 3.79796386e-001 1.07773614e+000
      1.82874978e+000 1.84772289e+000 5.31821586e-002 4.23921734e-001
      1.71351266e+000 1.19965446e+000 9.54105556e-002 1.15807451e-001
      1.85988486e-001 1.16468930e+000 1.10226858e+000 2.70361807e-002
      1.21306377e-002 1.10566787e-001 4.84004200e-001 1.22920024e+000
      1.91515148e-001 8.37760210e-001 4.51370329e-002 4.21377495e-002
      8.64402428e-002 6.76501930e-001 7.00749690e-003 1.10571265e+000
      5.62994361e-001 7.90358663e-001 2.98896164e-001 6.05489453e-003
      1.46707863e-001 3.68581980e-001 1.33226120e+000 2.56940842e-001
      1.23575792e-001 3.80439490e-001 2.75978744e-001 7.00132072e-001
      1.81718804e-002 4.17418182e-001 2.39969835e-001 1.72468066e-001
      1.70030490e-001 6.18380904e-002 1.83881581e-001 2.38710731e-001
      3.11564654e-001 3.14755380e-001 3.81306022e-001 2.52733171e-001
      1.31697738e+000 1.49348870e-001 1.57383248e-001 1.17859912e+000
      1.72371492e-001 6.45553321e-002 1.24467611e+000 1.61426806e+000
      7.84305751e-001 1.65554166e-001 1.64630747e+000 3.48282307e-001
      3.94174278e-001 1.67629468e+000 2.16905862e-001 2.95722540e-002
      4.67488348e-001 3.74451689e-002 1.52459517e-001 5.98545909e-001
      1.31742328e-001 1.07096469e+000 1.83313143e+000 1.37769923e-001
      1.55673161e-001 5.44359446e-001 2.55488545e-001 1.96569890e-001
      3.78454953e-001 3.28339279e-001 1.38910264e-001 4.54980507e-002
      1.93026230e-001 4.45713520e-001 4.70210850e-001 5.84411509e-002
      2.25937422e-002 4.75355238e-002 6.00945950e-001 6.24260962e-001
      1.73388556e-001 3.40792954e-001 3.40028852e-001 6.95307195e-001
      2.89815724e-001 2.86437482e-001 9.76836458e-002 1.09826028e+000
      6.19096160e-001 4.80370194e-001 4.14491922e-001 1.22251250e-002
      4.19317484e-002 9.84323144e-001 1.09172189e+000 3.25955272e-001
      6.95971493e-003 3.92962456e-001 2.74287939e-001 8.49040300e-002
      1.03557062e+000 9.56503689e-001 8.88305128e-001 6.88381135e-001
      2.80290693e-001 2.98767481e-002 2.06449833e-002 1.45604002e+000
      4.19495925e-002 1.49503720e+000 4.42322940e-002 1.08430445e+000
      2.38041013e-001 1.86435461e-001 6.92668736e-001 1.61866510e+000
      2.21703887e-001 5.91754198e-001 2.51566917e-001 8.06533873e-001
      6.26082122e-001 1.86637267e-001 6.32050335e-002 4.59564663e-002
      7.24042356e-001 1.26779199e-001 3.45578104e-001 2.02518821e-001
      7.60595500e-003 6.12003863e-001 1.66714400e-001 1.70889422e-001
      1.65944827e+000 1.48313493e-001 1.43192932e-001 2.17965156e-001
      2.02098545e-002 5.59677064e-001 1.64482877e-001 3.11077684e-001
      4.74001735e-001 2.75273714e-002 9.39158499e-001 1.35032550e-001
      2.35197395e-002 6.91843703e-002 5.22230892e-003 7.73337424e-001
      1.13968223e-001 2.46666148e-001 5.90416670e-001 2.12639618e+000
      8.39977920e-001 1.97551008e-002 6.28530264e-001 4.88186590e-002
      1.99129865e-001 7.00220764e-002 6.52513862e-001 3.52908611e-001
      1.55784830e-001 1.25671878e-001 1.76766801e+000 8.46990466e-001
      2.18665767e+000 1.30146015e+000 3.09958726e-001 2.71308929e-001
      1.59841150e-001 6.48384392e-002 4.11594026e-002 1.17899001e+000
      4.45822060e-001 1.56371608e-001 3.02852780e-001 4.07371670e-002
      6.02083266e-001 6.01321738e-003 3.89813334e-001 2.51227081e-001
      6.23398244e-001 7.63615251e-001 9.51204672e-002 8.69848311e-001
      4.52817930e-003 2.09638756e-002 4.85032856e-001 4.90117610e-001
      7.99706221e-001 1.06972598e-001 1.13608670e+000 8.86276603e-001
      1.04222786e+000 4.77190524e-001 1.37846375e+000 4.41614598e-001 0.
      0. 0. 0. 0. 0. 0. 0. 0. 0. 0. 0. 0. 0. 0. 0. 0. 0. 0. 0. 0. 0. 0.
      0. 0. 0. 0. 0. 0. 0. 0. 0. 0. 0. 0. 0. 0. 0. 0. 0. 0. 0. 0. 0. 0.
      0. 0. 0. 0. 0. 0. 0. 0. 0. 0. 0. 0. 0. 0. 0. 0. 0. 0. 0. 0. 0. 0.
      0. 0. 0. 0. 0. 0. 0. 0. 0. 0. 0. 0. 0. 0. 0. 0. 0. 0. 0. 0. 0. 0.
      0. 0. 0. 0. 0. 0. 0. 0. 0. 0. 0.</_>
    <_>
      5.29556051e-002 3.59978944e-001 6.45415723e-001 6.77015960e-001
      1.36230132e-002 8.59212995e-001 7.49805629e-001 4.51721251e-002
      8.99505317e-002 5.85714459e-001 2.27583081e-001 1.36441842e-001
      2.00588489e+000 4.29861397e-001 2.94115722e-001 4.35852617e-001
      1.87803805e-001 2.53851384e-001 1.27692747e+000 2.63613880e-001
      1.59840181e-001 1.94312289e-001 5.45229912e-001 4.35599416e-001
      2.42049731e-002 1.78808558e+000 2.92192250e-001 3.26461256e-001
      6.47968203e-002 3.78908552e-002 2.83260256e-001 3.69296558e-002
      3.15830916e-001 9.46947709e-002 1.99490607e-001 1.45745039e+000
      3.47786754e-001 1.65669039e-001 2.78394967e-001 7.24883735e-001
      9.93377063e-003 2.36941531e-001 2.06579000e-001 6.97209537e-002
      5.83935976e-001 1.02390730e+000 3.70592427e+000 3.32309246e-001
      6.61284208e-001 9.06848088e-002 3.40052433e-002 1.90205812e+000
      5.97476780e-001 2.88822562e-001 2.76625931e-001 1.47587404e-001
      5.79423726e-001 4.40897077e-001 9.73555632e-003 1.77416039e+000
      9.45660949e-001 3.49783468e+000 1.17725292e-002 3.48602414e-001
      2.38184541e-001 6.99987710e-001 2.43902549e-001 2.00538307e-001
      1.91053271e+000 2.09592509e+000 6.94412708e-001 1.14665675e+000
      3.84282708e+000 1.10661364e+000 1.67365825e+000 3.95103469e-002
      4.92367446e-002 1.82580900e+000 2.72593349e-001 9.03444052e-001
      1.01401818e+000 1.13954222e+000 1.50761213e-002 2.27942169e-001
      1.15642488e+000 7.40963399e-001 1.04753897e-002 2.17830092e-001
      1.02399909e+000 6.11175418e-001 6.67450607e-001 1.73953339e-001
      1.43344909e-001 2.29221606e+000 1.40735850e-001 7.88371801e-001
      4.77073479e+000 1.02729595e+000 6.01571277e-002 1.61248341e-001
      7.17208385e-001 3.82083088e-001 8.25058967e-002 3.20596188e-001
      1.45298794e-001 3.59172761e-001 1.34656763e+000 7.15923756e-002
      4.04847134e-003 6.37764260e-002 6.70467436e-001 4.09340382e-001
      1.68046474e-001 4.76440430e-001 2.20669378e-002 2.78207026e-002
      7.53853545e-002 1.20944276e-001 6.89320965e-003 4.39457536e-001
      4.92278546e-001 3.98215383e-001 2.10022002e-001 3.73215927e-003
      4.08066809e-001 6.10788167e-002 9.42345321e-001 1.30619243e-001
      3.06823194e-001 8.41519177e-001 1.33187756e-001 2.35485792e-001
      1.84866972e-002 1.21444511e+000 6.56270608e-002 3.34660769e-001
      3.07512075e-001 3.13125029e-002 4.26292330e-001 1.04018545e+000
      2.51990199e-001 6.07240021e-001 2.38468543e-001 4.54185933e-001
      1.85339689e+000 3.00939769e-001 6.61294237e-002 3.59305173e-001
      1.77878931e-001 4.57150340e-002 3.74959052e-001 1.29715741e+000
      1.29886299e-001 3.98345321e-001 4.75912035e-001 1.08565859e-001
      2.39091992e-001 3.46978337e-001 4.62860644e-001 3.85801643e-002
      1.64352727e+000 1.40861617e-002 4.17639345e-001 1.08805381e-001
      1.16163380e-001 2.86863184e+000 5.90061843e-001 5.86961955e-002
      1.19905210e+000 8.84188563e-002 2.55000561e-001 2.58330721e-002
      2.08232120e-001 5.04585564e-001 5.86954772e-001 7.38809183e-002
      2.51784027e-001 2.14297369e-001 2.23156884e-001 3.75141837e-002
      7.65688391e-003 5.12802489e-002 3.55252147e-001 1.24848880e-001
      1.36234081e+000 3.39103431e-001 1.65307984e-001 2.15644822e-001
      9.57765654e-002 1.71348095e-001 1.01601325e-001 4.59632486e-001
      8.44724715e-001 3.97286475e-001 1.64721000e+000 9.56973061e-003
      2.91205272e-002 3.99155974e-001 1.94435871e+000 1.12590365e-001
      6.83143362e-003 1.71762988e-001 3.86605084e-001 1.74722552e-001
      3.42061937e-001 4.02169406e-001 6.76974595e-001 5.63492000e-001
      8.42980385e-001 1.43399304e-002 1.61675662e-002 1.69214940e+000
      1.55547587e-002 1.05206370e-001 5.37806116e-002 6.56236470e-001
      1.56271255e+000 1.62274218e+000 9.56319511e-001 6.38143480e-001
      1.82801828e-001 1.58121899e-001 1.35040566e-001 9.69211161e-001
      9.58405733e-001 1.76214114e-001 3.77024673e-002 4.84322757e-002
      4.52897221e-001 1.26860008e-001 2.17902374e+000 1.86852956e+000
      1.67463981e-002 3.76324326e-001 3.41342360e-001 1.05103455e-001
      1.77145159e+000 1.10959336e-001 7.18903840e-002 4.73285526e-001
      1.82735249e-002 7.88930953e-001 5.40470302e-001 1.71503812e-001
      8.51113200e-001 1.90630145e-002 2.48729765e-001 1.43545464e-001
      7.62254791e-003 4.84081246e-002 3.28822690e-003 1.06403887e+000
      8.27716887e-002 1.06625214e-001 1.24065018e+000 2.57886362e+000
      7.41002202e-001 1.59936100e-002 3.59551340e-001 1.14942245e-001
      1.60379916e-001 3.66752818e-002 3.45524520e-001 1.55980259e-001
      1.25984162e-001 6.07645661e-002 2.15816092e+000 3.90839696e-001
      1.05485594e+000 3.32449734e-001 2.91283518e-001 7.74716794e-001
      1.87310115e-001 1.20872922e-001 3.85333225e-002 1.82494020e+000
      1.76033810e-001 1.51594341e-001 1.31302699e-001 6.88216090e-002
      7.84443319e-001 1.07160686e-002 1.17891765e+000 7.26845682e-001
      4.47219759e-001 6.40332043e-001 1.77566439e-001 2.46445507e-001
      5.06309932e-003 1.40532767e-002 1.38225901e+000 4.63993818e-001
      3.16931427e-001 1.06942916e+000 2.86524248e+000 6.86089158e-001
      7.42676616e-001 1.72758922e-001 3.23110700e-001 1.02576494e+000 0.
      0. 0. 0. 0. 0. 0. 0. 0. 0. 0. 0. 0. 0. 0. 0. 0. 0. 0. 0. 0. 0. 0.
      0. 0. 0. 0. 0. 0. 0. 0. 0. 0. 0. 0. 0. 0. 0. 0. 0. 0. 0. 0. 0. 0.
      0. 0. 0. 0. 0. 0. 0. 0. 0. 0. 0. 0. 0. 0. 0. 0. 0. 0. 0. 0. 0. 0.
      0. 0. 0. 0. 0. 0. 0. 0. 0. 0. 0. 0. 0. 0. 0. 0. 0. 0. 0. 0. 0. 0.
      0. 0. 0. 0. 0. 0. 0. 0. 0. 0. 0.</_>
    <_>
      1.32062078e-001 3.24673831e-001 5.78647375e-001 9.27698195e-001
      1.74679253e-002 1.78722835e+000 6.16216779e-001 1.08177550e-001
      1.21192977e-001 1.44509184e+000 8.49430978e-001 7.51957953e-001
      1.17997670e+000 7.60377645e-001 3.05304080e-001 1.74777579e+000
      2.98299521e-001 3.32220644e-001 1.99341762e+000 6.00382447e-001
      7.16078877e-001 2.73668498e-001 8.65492940e-001 7.83054292e-001
      4.99566123e-002 8.80047500e-001 4.61560726e-001 9.92505312e-001
      3.86701673e-001 3.48903388e-002 5.08146882e-001 1.29674941e-001
      1.10935056e+000 2.41716057e-001 1.33578932e+000 1.09886909e+000
      6.50968254e-001 3.44938368e-001 4.79882360e-001 2.38235450e+000
      1.81532372e-002 1.33752811e+000 3.96603882e-001 1.69236377e-001
      6.49410367e-001 1.23366308e+000 8.77583802e-001 1.05470502e+000
      1.24290657e+000 8.09345663e-001 3.68470475e-002 5.45922399e-001
      8.77916992e-001 8.03059578e-001 6.39226198e-001 7.43476570e-001
      5.75130992e-002 3.26591104e-001 7.89531879e-003 1.35839403e+000
      2.11003780e+000 1.16146553e+000 6.92787673e-003 3.82245243e-001
      3.64497483e-001 1.10680163e+000 6.80148661e-001 7.40116596e-001
      4.81185496e-001 1.24060714e+000 2.47263145e+000 8.74678850e-001
      9.40784812e-001 8.07086229e-001 1.61821008e+000 2.69558489e-001
      9.56166536e-002 4.59795922e-001 5.67236304e-001 1.44596803e+000
      1.36098519e-001 5.40019155e-001 1.55361397e-002 1.51114240e-001
      1.55456841e+000 1.13721955e+000 1.94063522e-002 1.71770275e-001
      1.97378099e+000 2.16282129e+000 6.72097981e-001 5.45122445e-001
      7.19717965e-002 1.83721507e+000 8.00014198e-001 1.52463949e+000
      8.00108612e-001 1.17027938e+000 3.68583389e-002 5.88125825e-001
      1.29791236e+000 1.09489441e+000 1.08604610e-001 4.42732155e-001
      4.34073210e-001 6.76937461e-001 6.55446887e-001 4.81172353e-002
      1.09743988e-002 1.27939314e-001 4.32116568e-001 2.08415437e+000
      2.95913041e-001 1.04054904e+000 5.77038378e-002 2.19246130e-002
      1.72193110e-001 2.99030840e-001 7.46991299e-003 5.20249248e-001
      3.33978742e-001 1.54062355e+000 4.24132198e-001 5.28502371e-003
      2.12383687e-001 2.43068397e-001 1.69312394e+000 3.23917449e-001
      3.55184793e-001 7.03509390e-001 1.22143172e-001 6.86116397e-001
      2.53836680e-002 4.05663222e-001 1.58146009e-001 3.01532507e-001
      7.25295186e-001 6.37267828e-002 4.45769429e-001 6.37595177e-001
      4.53486204e-001 7.90939689e-001 2.42523015e-001 3.33648980e-001
      8.02024245e-001 1.13630705e-001 1.42870903e-001 2.07207465e+000
      2.03255877e-001 5.72551414e-002 8.52319241e-001 6.61216319e-001
      3.29992712e-001 7.46196330e-001 2.07001519e+000 2.24053994e-001
      4.58668292e-001 1.20511663e+000 3.98053110e-001 5.00355437e-002
      1.44819713e+000 2.11802814e-002 1.73176065e-001 1.13651991e+000
      9.16106775e-002 1.02842629e+000 2.36842370e+000 1.34108543e-001
      1.48350880e-001 2.45087922e-001 9.29433346e-001 1.51653305e-001
      4.09338921e-001 7.30862081e-001 4.07943070e-001 4.69342880e-002
      2.63824344e-001 5.07439137e-001 4.27011907e-001 4.94032614e-002
      1.50057226e-002 4.61610556e-002 8.66995752e-001 3.65483999e-001
      4.43006366e-001 5.82606852e-001 2.19323680e-001 7.33604133e-001
      6.31278753e-001 2.51159042e-001 1.06061220e-001 1.31635475e+000
      9.06666756e-001 3.45251232e-001 4.92910922e-001 7.86841288e-003
      2.01570038e-002 5.47343433e-001 2.98909992e-001 4.25135195e-001
      7.52369827e-003 5.20206332e-001 3.60084236e-001 7.11193979e-002
      5.31880856e-001 1.41999662e+000 9.52341676e-001 1.20668960e+000
      9.71054554e-001 1.54582225e-002 2.13160831e-002 8.78124475e-001
      2.67588962e-002 6.96737349e-001 5.63980862e-002 1.25638747e+000
      7.39867210e-001 1.01455486e+000 8.45628023e-001 1.70771122e+000
      2.02876106e-001 3.94781113e-001 4.45832402e-001 2.58980560e+000
      5.80437183e-001 1.20907113e-001 5.22687398e-002 3.84346470e-002
      5.31931996e-001 1.21095411e-001 7.82035053e-001 1.17101777e+000
      1.72707792e-002 4.91211832e-001 7.87778944e-002 2.41010174e-001
      9.02766883e-001 3.13145101e-001 1.40908957e-001 1.45433426e-001
      1.71965398e-002 1.54471791e+000 2.55335391e-001 3.27897012e-001
      9.50333416e-001 2.28539780e-002 8.35578501e-001 1.50584579e-001
      1.87551063e-002 8.05547014e-002 5.06155519e-003 1.17612624e+000
      1.75143912e-001 4.65022683e-001 8.79164875e-001 2.01450324e+000
      1.40894985e+000 1.46778347e-002 3.68748069e-001 5.94419539e-002
      1.35830969e-001 6.45149872e-002 7.33813941e-001 2.91379899e-001
      1.20281778e-001 8.49369243e-002 9.72959638e-001 3.23792696e-001
      2.87663132e-001 8.30211163e-001 5.25877774e-001 4.93910313e-001
      5.74661493e-001 8.43492374e-002 6.17528819e-002 1.72369754e+000
      7.30677724e-001 2.29640231e-001 4.66132462e-001 6.34930730e-002
      6.15651608e-001 8.80462024e-003 1.41985917e+000 3.61087143e-001
      8.33667755e-001 9.40391958e-001 1.44707188e-001 5.77226818e-001
      4.90178680e-003 1.74958110e-002 5.19141257e-001 2.38214076e-001
      9.65740204e-001 1.37196839e-001 1.32957888e+000 1.94737625e+000
      1.29830468e+000 6.55689538e-001 1.33225286e+000 5.80553472e-001 0.
      0. 0. 0. 0. 0. 0. 0. 0. 0. 0. 0. 0. 0. 0. 0. 0. 0. 0. 0. 0. 0. 0.
      0. 0. 0. 0. 0. 0. 0. 0. 0. 0. 0. 0. 0. 0. 0. 0. 0. 0. 0. 0. 0. 0.
      0. 0. 0. 0. 0. 0. 0. 0. 0. 0. 0. 0. 0. 0. 0. 0. 0. 0. 0. 0. 0. 0.
      0. 0. 0. 0. 0. 0. 0. 0. 0. 0. 0. 0. 0. 0. 0. 0. 0. 0. 0. 0. 0. 0.
      0. 0. 0. 0. 0. 0. 0. 0. 0. 0. 0.</_>
    <_>
      1.24306545e-001 7.15290844e-001 1.87813234e+000 1.12613928e+000
      3.39494422e-002 5.73777080e-001 4.40913588e-001 5.82543090e-002
      5.20793423e-002 1.49025631e+000 1.03457354e-001 1.03464611e-001
      1.27203250e+000 3.20893079e-001 5.83617866e-001 1.15910709e+000
      1.73767641e-001 2.12377146e-001 7.95747697e-001 8.35718393e-001
      6.47672117e-001 1.27032682e-001 2.75214648e+000 5.47271550e-001
      2.41721272e-002 1.76821375e+000 6.34347320e-001 2.75907755e+000
      7.22199604e-002 4.92650047e-002 3.59046757e-001 1.02498904e-001
      2.82838035e+000 6.84980527e-002 1.14013433e+000 1.99605000e+000
      3.82367253e-001 2.98147917e-001 6.72797561e-001 9.80838597e-001
      3.11278999e-002 4.67314124e-001 3.19951713e-001 1.66939482e-001
      1.13069797e+000 5.25010340e-002 1.39652443e+000 1.43529272e+000
      1.21054637e+000 4.11613226e-001 6.86373785e-002 1.99862599e+000
      1.68623602e+000 1.74664855e-001 1.08765399e+000 1.73547044e-001
      1.13076977e-001 3.51524353e-001 4.56569809e-003 2.11147404e+000
      3.26544315e-001 8.11423510e-002 4.46523912e-003 4.25625682e-001
      3.27921748e-001 2.20866966e+000 1.92209899e-001 4.48384047e-001
      1.65013731e+000 8.07343304e-001 1.19243145e+000 1.76483357e+000
      4.95446883e-002 4.27573979e-001 6.98611319e-001 1.41808257e-001
      4.49872948e-002 7.50764132e-001 6.55558586e-001 1.11166584e+000
      2.62675345e-001 6.16463184e-001 1.37766600e-002 1.32651761e-001
      2.95856524e+000 9.23070133e-001 1.43761141e-002 2.30602458e-001
      1.22582817e+000 1.25044870e+000 5.83349645e-001 5.20394921e-001
      3.56448740e-002 5.82878649e-001 3.28546315e-001 9.45019603e-001
      2.31117749e+000 2.22073579e+000 1.63754836e-001 2.00673461e-001
      2.02459669e+000 7.14208007e-001 1.31631613e-001 4.09504503e-001
      2.57881790e-001 1.12096739e+000 2.42417479e+000 4.21809740e-002
      4.23345482e-003 9.74703953e-002 1.09589517e+000 2.66632295e+000
      1.81449801e-001 1.03311336e+000 4.61129658e-002 5.78166023e-002
      7.63424039e-002 4.65466112e-001 1.92664359e-002 1.62674987e+000
      7.43855536e-001 8.49362671e-001 2.42137864e-001 6.88894186e-003
      1.17620967e-001 1.03283428e-001 1.28359473e+000 5.10793746e-001
      7.50259638e-001 2.76289195e-001 1.16803654e-001 4.46458668e-001
      1.30869588e-002 3.64949441e+000 1.46737099e-001 8.98816824e-001
      3.85082930e-001 5.16776927e-002 7.07043350e-001 1.44443858e+000
      3.14274609e-001 3.66765887e-001 5.56505322e-001 5.82909465e-001
      1.61337709e+000 1.12476200e-001 8.77952576e-002 1.49849153e+000
      1.84000939e-001 8.49946886e-002 1.00566733e+000 1.75887775e+000
      5.95511258e-001 1.31305680e-001 1.05678046e+000 3.89153957e-001
      1.04101181e+000 1.83956790e+000 1.53782248e+000 4.03551869e-002
      5.33842027e-001 4.68381010e-002 6.51632488e-001 1.87581211e-001
      1.51547313e-001 3.49241853e-001 9.63637531e-001 2.23905712e-001
      2.02800930e-001 7.56563693e-002 3.61955166e-001 8.14697370e-002
      3.55358154e-001 7.03599095e-001 5.41984320e-001 3.42753306e-002
      3.81273091e-001 9.10225093e-001 3.65295380e-001 9.73451510e-002
      1.43276807e-002 3.47661749e-002 7.79052675e-001 2.98233479e-001
      1.76216936e+000 1.74779981e-001 1.65108308e-001 1.02896415e-001
      1.19167876e+000 1.80450335e-001 1.60862535e-001 3.81728983e+000
      1.28753734e+000 4.91995573e-001 9.13209498e-001 4.58881259e-003
      5.67556694e-002 1.01629806e+000 4.85879838e-001 3.56437266e-001
      1.92802213e-002 3.65370482e-001 9.56408679e-001 4.08620328e-001
      1.07539856e+000 1.33186793e+000 4.05417681e+000 9.28527474e-001
      2.77802825e-001 1.35086887e-002 2.56613120e-002 1.48125434e+000
      1.62451640e-002 1.19772959e+000 3.87336873e-002 7.49696255e-001
      3.26344991e+000 3.20216465e+000 1.51593435e+000 1.40669715e+000
      2.35989541e-001 4.97777939e-001 8.63790393e-001 1.95199892e-001
      1.33758855e+000 2.02356145e-001 4.79060486e-002 9.82007012e-002
      5.78087389e-001 2.13325813e-001 7.57740960e-002 3.27784371e+000
      3.21529200e-003 5.29188812e-001 5.48608184e-001 3.14229012e-001
      4.64248396e-002 3.85677040e-001 1.42775565e-001 1.13973953e-001
      1.67968459e-002 1.49341404e+000 7.64271200e-001 1.86482728e-001
      4.91430402e-001 1.33392951e-002 8.89612496e-001 9.31871980e-002
      2.13053524e-002 5.42349890e-002 9.85172298e-003 1.58637452e+000
      7.45802894e-002 1.03871930e+000 2.94751740e+000 1.77674353e+000
      8.89302254e-001 3.17299180e-002 4.94261384e-001 4.00266089e-002
      1.97765037e-001 6.11895174e-002 1.15095937e+000 3.85329098e-001
      1.80913657e-001 5.39810732e-002 5.54980263e-002 9.16588187e-001
      2.76278448e+000 2.00997889e-001 1.56015798e-001 5.03887236e-001
      8.35117459e-001 3.39773819e-002 2.87599973e-002 2.01877785e+000
      4.75281775e-001 1.42696053e-001 2.46491969e-001 3.76693420e-002
      5.42559505e-001 3.82122817e-003 5.10914981e-001 1.99991018e-001
      1.07404673e+000 1.37756813e+000 1.14263937e-001 9.57484066e-001
      5.15921321e-003 3.73821035e-002 6.68979883e-002 7.36331105e-001
      9.91667390e-001 2.18686283e-001 1.55185318e+000 2.94683480e+000
      1.25399530e+000 1.67334586e-001 1.14817536e+000 3.57287621e+000 0.
      0. 0. 0. 0. 0. 0. 0. 0. 0. 0. 0. 0. 0. 0. 0. 0. 0. 0. 0. 0. 0. 0.
      0. 0. 0. 0. 0. 0. 0. 0. 0. 0. 0. 0. 0. 0. 0. 0. 0. 0. 0. 0. 0. 0.
      0. 0. 0. 0. 0. 0. 0. 0. 0. 0. 0. 0. 0. 0. 0. 0. 0. 0. 0. 0. 0. 0.
      0. 0. 0. 0. 0. 0. 0. 0. 0. 0. 0. 0. 0. 0. 0. 0. 0. 0. 0. 0. 0. 0.
      0. 0. 0. 0. 0. 0. 0. 0. 0. 0. 0.</_>
    <_>
      1.37345165e-001 8.37381840e-001 1.98220336e+000 1.33544016e+000
      2.74674483e-002 7.69361556e-001 2.73828954e-001 8.34988952e-002
      5.16055115e-002 1.52026105e+000 6.00065053e-001 9.72457051e-001
      1.13589346e+000 4.44619179e-001 9.93319392e-001 1.14612126e+000
      5.25288045e-001 6.90713882e-001 9.21467423e-001 6.73947155e-001
      7.42379904e-001 2.53906220e-001 2.13629746e+000 4.84942228e-001
      2.12575961e-002 1.46586692e+000 5.37242234e-001 2.18912148e+000
      2.12646067e-001 2.66410634e-002 6.90052629e-001 6.98967874e-002
      2.14710426e+000 1.09679349e-001 1.56533074e+000 1.90020561e+000
      6.31130517e-001 9.12978828e-001 4.34862077e-001 1.11247277e+000
      2.53609549e-002 2.89034516e-001 7.05138981e-001 1.97099835e-001
      1.13940358e+000 1.67423069e-001 8.12308490e-001 1.78664768e+000
      1.22496271e+000 3.09332699e-001 2.68742256e-002 8.89163911e-001
      1.65739226e+000 5.03065348e-001 8.59898210e-001 1.12331247e+000
      1.35640860e-001 1.28134656e+000 4.54004202e-003 1.12133622e+000
      5.93542755e-002 6.75595179e-002 4.26452188e-003 5.41012228e-001
      6.04816437e-001 1.58261085e+000 1.29651821e+000 7.13911653e-001
      2.13430929e+000 5.06786369e-002 1.23731947e+000 9.75862801e-001
      4.67838719e-002 1.12218106e+000 1.10596848e+000 2.69759536e-001
      1.14661582e-001 1.37741864e+000 5.85776210e-001 1.98550999e+000
      2.34770373e-001 5.75152814e-001 4.25134003e-002 1.61912337e-001
      2.66781521e+000 1.25108850e+000 1.25542562e-002 1.93114385e-001
      1.77503920e+000 1.21404612e+000 1.46936798e+000 7.64175832e-001
      3.70963216e-002 1.28585899e+000 1.26569390e+000 1.73710573e+000
      9.59769309e-001 1.79160905e+000 5.61530478e-002 1.61516264e-001
      2.11503649e+000 1.28314686e+000 2.66816348e-001 3.46968085e-001
      3.38936031e-001 1.14315689e+000 2.09892392e+000 3.86601277e-002
      5.07469987e-003 1.81165010e-001 5.76187789e-001 3.99725938e+000
      1.06555134e-001 1.14069593e+000 5.44684939e-002 2.27800831e-002
      2.15948001e-001 6.17458165e-001 6.20525889e-003 1.64799142e+000
      7.66998649e-001 1.98708725e+000 3.13048035e-001 9.31978691e-003
      1.02783665e-001 1.19704537e-001 1.30190349e+000 8.40496242e-001
      8.11914325e-001 8.33214223e-002 1.38334215e-001 1.75848395e-001
      1.56464018e-002 1.49114668e+000 2.04434946e-001 3.05090874e-001
      1.03947711e+000 6.27610758e-002 8.24458361e-001 2.26546550e+000
      5.43092251e-001 1.91961795e-001 5.44686437e-001 6.52793884e-001
      1.69045579e+000 1.42776132e-001 1.31597728e-001 1.46949482e+000
      1.23783596e-001 8.33675936e-002 9.97459650e-001 8.17043245e-001
      4.00745660e-001 1.89066231e+000 1.80147552e+000 4.16717768e-001
      8.18739295e-001 8.97877991e-001 3.92946929e-001 3.72544639e-002
      1.10699403e+000 2.54695863e-002 5.18096924e-001 7.79124141e-001
      2.46844903e-001 5.25541902e-002 9.10531521e-001 2.18714267e-001
      4.27370429e-001 3.11567783e-001 3.62693042e-001 6.94474503e-002
      6.91524029e-001 1.05122828e+000 8.43844652e-001 4.68662083e-002
      6.14859045e-001 1.10388064e+000 4.34612423e-001 6.18862659e-002
      2.07282212e-002 3.58471386e-002 1.39459848e+000 4.40430015e-001
      1.59573758e+000 6.47115171e-001 1.63970426e-001 1.07462120e+000
      1.42825758e+000 1.64895609e-001 2.68111438e-001 2.96195984e+000
      6.23100817e-001 4.71401304e-001 1.50068784e+000 4.67979442e-003
      1.99606586e-002 1.38750196e+000 1.02386308e+000 5.64884305e-001
      6.19619898e-003 4.91421163e-001 9.59617376e-001 1.33910194e-001
      1.03062260e+000 1.30796266e+000 2.02210450e+000 1.40312850e+000
      6.64173901e-001 4.25489843e-002 1.32681774e-002 1.50161600e+000
      3.52491103e-002 2.28050780e+000 4.73010726e-002 1.08053124e+000
      1.06663775e+000 1.89284313e+000 1.55914569e+000 1.56782234e+000
      2.40345255e-001 6.55665696e-001 1.45634842e+000 5.72598912e-002
      1.11202824e+000 2.06891671e-001 4.32212614e-002 5.75365424e-002
      4.87912565e-001 2.10537881e-001 1.38463318e+000 2.30629516e+000
      1.57026164e-002 8.37598026e-001 2.71589816e-001 5.76753736e-001
      3.65632661e-002 3.58155251e-001 1.94938079e-001 1.06787689e-001
      1.24685615e-002 1.33180201e+000 8.79366040e-001 1.73772126e-001
      7.14581013e-001 1.35301147e-002 1.00581110e+000 7.49168769e-002
      8.49068351e-003 1.17272593e-001 8.44631158e-003 1.10483193e+000
      1.59554511e-001 1.09187269e+000 8.92581701e-001 4.40998346e-001
      1.81440270e+000 1.91091429e-002 1.16881585e+000 3.19328830e-002
      2.11490214e-001 6.31992817e-002 1.84134328e+000 3.63991350e-001
      1.62160739e-001 8.25178772e-002 2.59037632e-002 8.03035736e-001
      7.38544643e-001 2.93809086e-001 2.56659508e-001 4.37971830e-001
      7.92972982e-001 3.84360068e-002 4.01488356e-002 2.35957789e+000
      4.51581299e-001 1.15793131e-001 3.44452888e-001 2.89611481e-002
      4.67509687e-001 6.14180276e-003 1.67119932e+000 3.04599971e-001
      1.78637660e+000 9.05398726e-001 1.25273496e-001 1.27525258e+000
      3.50264250e-003 2.91412640e-002 4.03814204e-002 7.69251525e-001
      1.61300159e+000 3.79834175e-001 1.85387564e+000 3.88911414e+000
      1.59028304e+000 1.81353316e-001 1.38221586e+000 1.57083273e+000 0.
      0. 0. 0. 0. 0. 0. 0. 0. 0. 0. 0. 0. 0. 0. 0. 0. 0. 0. 0. 0. 0. 0.
      0. 0. 0. 0. 0. 0. 0. 0. 0. 0. 0. 0. 0. 0. 0. 0. 0. 0. 0. 0. 0. 0.
      0. 0. 0. 0. 0. 0. 0. 0. 0. 0. 0. 0. 0. 0. 0. 0. 0. 0. 0. 0. 0. 0.
      0. 0. 0. 0. 0. 0. 0. 0. 0. 0. 0. 0. 0. 0. 0. 0. 0. 0. 0. 0. 0. 0.
      0. 0. 0. 0. 0. 0. 0. 0. 0. 0. 0.</_>
    <_>
      1.96449637e-001 6.32550895e-001 5.74363768e-001 7.60413289e-001
      1.69083532e-002 1.09443712e+000 3.73752594e-001 2.87605792e-001
      1.20182507e-001 9.29364860e-001 1.83478487e+000 2.11830401e+000
      1.80932248e+000 3.66636723e-001 3.89172912e-001 7.02969968e-001
      2.49215186e-001 4.88155127e-001 1.46166909e+000 4.49350119e-001
      3.74966413e-001 6.91823661e-001 1.25341249e+000 3.57309818e-001
      3.59404981e-002 1.83230758e+000 2.78649181e-001 7.38304138e-001
      7.67116547e-001 4.68466356e-002 3.29846263e-001 6.24190718e-002
      8.07352781e-001 1.26894176e-001 6.82251811e-001 1.98029578e+000
      2.44594529e-001 7.41805732e-001 2.42301375e-001 2.50512195e+000
      1.57295857e-002 1.79638207e+000 5.66494226e-001 1.10284165e-001
      8.54297101e-001 2.21497440e+000 1.41833198e+000 3.30046892e-001
      2.81370902e+000 1.32140696e+000 5.84319159e-002 1.17262137e+000
      1.00582576e+000 1.85535407e+000 5.61175823e-001 1.13262653e+000
      2.60779381e-001 3.71596962e-001 1.43010654e-002 1.64966595e+000
      1.14067721e+000 1.12666297e+000 8.37491825e-003 2.20608413e-001
      2.92071134e-001 1.66409230e+000 1.11718416e+000 2.51647890e-001
      1.10874057e+000 1.26205683e+000 2.74887300e+000 1.99087667e+000
      7.98481643e-001 2.16134191e+000 1.18358827e+000 1.65133506e-001
      1.48251116e-001 1.58922851e+000 3.37359041e-001 5.93461454e-001
      4.11345869e-001 9.96572971e-001 8.04030895e-002 1.63546130e-001
      8.82741272e-001 8.58587623e-001 3.15443687e-002 5.25129378e-001
      1.96834445e+000 9.47814524e-001 1.86289832e-001 5.56372464e-001
      9.15620178e-002 1.59469664e+000 1.08652711e+000 5.93209982e-001
      1.51783192e+000 2.04532242e+000 1.05533600e-001 9.15136397e-001
      9.65742230e-001 5.42149186e-001 1.24829501e-001 6.46668375e-001
      3.62325072e-001 6.02555990e-001 9.86567855e-001 5.24845943e-002
      1.17711741e-002 1.00505888e-001 6.15216911e-001 1.73843145e+000
      1.82618737e-001 4.43405151e-001 3.86136584e-002 4.18139584e-002
      1.66630313e-001 2.84453511e-001 1.39090270e-002 5.28040349e-001
      6.83306992e-001 2.14907908e+000 1.38763011e-001 4.71276371e-003
      1.44262239e-001 1.19250715e-001 1.27040792e+000 3.73638213e-001
      8.17931175e-001 4.19152945e-001 1.98545903e-001 9.37738240e-001
      4.17988040e-002 1.86565638e+000 1.03097767e-001 7.23370254e-001
      1.43482959e+000 2.76700947e-002 8.60090792e-001 2.60796666e+000
      2.45188922e-001 3.60009253e-001 2.85422027e-001 3.87594372e-001
      1.67307985e+000 1.41073227e-001 8.60148743e-002 8.63770545e-001
      1.89514190e-001 6.29036799e-002 4.18475658e-001 9.07156825e-001
      4.50320780e-001 6.38362586e-001 1.06626046e+000 1.64724916e-001
      4.16212797e-001 1.91602385e+000 1.12282503e+000 4.56258170e-002
      8.24064672e-001 3.77481394e-002 5.46531558e-001 1.66002643e+000
      1.45919159e-001 1.05575001e+000 2.38513494e+000 1.00126550e-001
      5.29010534e-001 6.39868855e-001 2.47736716e+000 1.97522029e-001
      2.17557073e-001 5.89045286e-001 7.32914627e-001 4.97994833e-002
      5.40778160e-001 5.10561228e-001 5.76930106e-001 5.24640195e-002
      1.54925492e-002 5.98955676e-002 2.64472455e-001 3.24403435e-001
      2.92892003e+000 6.22059107e-001 1.81676865e-001 2.14419150e+000
      4.79925454e-001 4.55586404e-001 1.47472546e-001 1.67754245e+000
      2.57513475e+000 8.35240185e-001 1.91384721e+000 1.43210748e-002
      4.42326590e-002 7.55546927e-001 1.49244058e+000 6.17046475e-001
      1.38891460e-002 5.02865613e-001 5.49859166e-001 2.49772891e-001
      5.34637809e-001 9.99738932e-001 1.97724676e+000 4.19174671e-001
      2.83588469e-001 8.09029490e-002 2.47571096e-002 1.53767455e+000
      7.14042261e-002 1.12271690e+000 5.16588129e-002 9.33105409e-001
      2.38733578e+000 1.70729232e+000 4.69852000e-001 8.64061475e-001
      2.25393251e-001 3.63004923e-001 5.06401956e-001 1.11887872e+000
      6.58874333e-001 1.57236889e-001 3.94853875e-002 6.05776049e-002
      5.46066284e-001 1.86808199e-001 1.34757042e+000 1.86892450e+000
      1.08689386e-002 7.66521692e-001 2.40960985e-001 3.12068880e-001
      9.15623128e-001 4.28114891e-001 6.83790147e-002 3.48449677e-001
      2.18173396e-002 5.12832999e-001 6.20465696e-001 3.59973997e-001
      3.16347241e-001 3.66354920e-002 5.62504292e-001 2.47240320e-001
      2.57479753e-002 1.64960533e-001 5.78035368e-003 1.71290851e+000
      1.43432677e-001 8.12252998e-001 1.76200390e+000 1.48570812e+000
      1.91416645e+000 2.09032949e-002 4.19508398e-001 8.59129503e-002
      1.45233750e-001 2.70151459e-002 4.26090926e-001 2.43726104e-001
      1.30777285e-001 1.39576912e-001 1.19418967e+000 7.20490396e-001
      2.40255117e+000 2.07746863e+000 4.43678856e-001 6.23368084e-001
      8.34419191e-001 8.99883434e-002 5.59769683e-002 2.44126654e+000
      2.82683462e-001 1.70845315e-001 5.43921649e-001 8.32442343e-002
      4.98104006e-001 1.25061041e-002 9.34491098e-001 8.41917217e-001
      5.15606284e-001 4.94368494e-001 1.13627255e-001 5.80262065e-001
      6.60103373e-003 1.81307066e-002 4.13688809e-001 3.39369953e-001
      1.08415985e+000 4.93349552e-001 1.35217476e+000 1.73310828e+000
      6.94778204e-001 2.40427518e+000 1.13994265e+000 2.00097513e+000 0.
      0. 0. 0. 0. 0. 0. 0. 0. 0. 0. 0. 0. 0. 0. 0. 0. 0. 0. 0. 0. 0. 0.
      0. 0. 0. 0. 0. 0. 0. 0. 0. 0. 0. 0. 0. 0. 0. 0. 0. 0. 0. 0. 0. 0.
      0. 0. 0. 0. 0. 0. 0. 0. 0. 0. 0. 0. 0. 0. 0. 0. 0. 0. 0. 0. 0. 0.
      0. 0. 0. 0. 0. 0. 0. 0. 0. 0. 0. 0. 0. 0. 0. 0. 0. 0. 0. 0. 0. 0.
      0. 0. 0. 0. 0. 0. 0. 0. 0. 0. 0.</_>
    <_>
      2.59425431e-001 1.22335577e+000 6.40474617e-001 1.51056111e+000
      1.94560215e-002 1.03800738e+000 3.38504136e-001 4.68291938e-001
      7.16991723e-002 3.42345905e+000 7.67882466e-001 9.69678044e-001
      1.81441438e+000 1.02593803e+000 1.47642577e+000 8.38405490e-001
      1.18374661e-001 3.71363759e-001 1.77436185e+000 8.30916107e-001
      1.44825768e+000 4.22298729e-001 1.57232475e+000 4.76051211e-001
      6.90032840e-002 1.28473711e+000 6.23205304e-001 1.38986504e+000
      9.10168529e-001 3.75325345e-002 8.36424470e-001 2.60536760e-001
      1.35091078e+000 2.32714117e-001 1.80365479e+000 5.38682342e-001
      9.88454223e-001 1.13986742e+000 6.52924299e-001 1.26652610e+000
      2.49767601e-002 5.89545608e-001 4.01998788e-001 2.13344559e-001
      3.55834126e+000 1.61208570e-001 2.81269693e+000 1.10098147e+000
      1.51783979e+000 1.08489835e+000 3.63907069e-002 1.23836684e+000
      1.93806517e+000 7.61033118e-001 9.55217183e-001 2.19669998e-001
      4.44652624e-002 2.89526463e-001 4.94072679e-003 9.18031275e-001
      5.12735486e-001 2.46004999e-001 4.22591204e-003 4.71621126e-001
      5.35053968e-001 1.64150059e+000 2.10069343e-001 6.94066346e-001
      8.04149032e-001 1.54429519e+000 1.56397283e+000 1.21696448e+000
      4.85939473e-001 5.01210809e-001 7.68179059e-001 2.26024106e-001
      4.75381948e-002 4.81914639e-001 3.38854223e-001 2.17221284e+000
      1.07880287e-001 7.04112649e-001 1.26517955e-002 1.81087673e-001
      2.64482212e+000 2.69001698e+000 9.59113985e-003 1.83105767e-001
      2.12845445e+000 3.44468737e+000 1.48656499e+000 2.19061613e-001
      3.29739712e-002 1.56546426e+000 2.79598355e-001 2.03325748e+000
      3.23852444e+000 2.76006079e+000 1.31499663e-001 3.49791825e-001
      2.20606470e+000 3.48056579e+000 1.07830390e-001 3.57286692e-001
      1.18041165e-001 2.01777673e+000 2.64291930e+000 3.92977856e-002
      3.54654854e-003 1.81628123e-001 8.65577579e-001 1.43706656e+000
      1.24881849e-001 1.13309050e+000 8.17673057e-002 3.09270173e-002
      1.58048332e-001 1.13738132e+000 1.53500801e-002 2.22206235e+000
      7.19640791e-001 2.68946141e-001 5.74869096e-001 6.62245415e-003
      1.29493386e-001 3.35398585e-001 1.57818234e+000 9.79454398e-001
      4.35711086e-001 2.79425889e-001 1.68177232e-001 3.25882763e-001
      1.35729918e-002 1.62444997e+000 3.23178470e-001 5.20849228e-001
      4.44647819e-001 8.29529613e-002 4.08508778e-001 7.80811369e-001
      5.57194054e-001 3.28091383e-001 3.56001347e-001 3.43306363e-001
      9.06002164e-001 1.42580643e-001 2.58538365e-001 2.46069717e+000
      2.34497577e-001 7.18198493e-002 6.78045690e-001 2.89272738e+000
      8.78794372e-001 4.14410144e-001 3.02078915e+000 6.30207181e-001
      7.15823412e-001 3.84004641e+000 7.49512911e-001 3.82194370e-002
      7.31687129e-001 7.98386484e-002 3.64445508e-001 1.17591274e+000
      1.27603501e-001 9.74336743e-001 1.36894083e+000 2.10502490e-001
      9.24380198e-002 1.10907996e+000 8.30910563e-001 4.13112819e-001
      4.95245218e-001 4.68323439e-001 1.26622587e-001 5.39212935e-002
      2.75993496e-001 1.15090442e+000 5.49829006e-001 9.35607627e-002
      3.09527740e-002 3.46650928e-002 7.03906417e-001 1.25540745e+000
      1.26614261e+000 3.49769771e-001 2.16238245e-001 6.97609425e-001
      4.96360302e-001 2.13144600e-001 1.23529829e-001 1.84539354e+000
      1.58361924e+000 2.37426251e-001 4.67173249e-001 4.95131407e-003
      2.94646993e-002 3.23706567e-001 4.57191139e-001 6.95749342e-001
      1.53882215e-002 7.44247139e-001 4.85644341e-001 1.92352235e-001
      1.71233189e+000 3.54378724e+000 1.77007878e+000 1.24596810e+000
      3.07471186e-001 1.36569291e-002 2.33816467e-002 1.39772451e+000
      1.40447179e-002 2.47620702e+000 6.21322058e-002 2.66589260e+000
      6.80323005e-001 1.01745331e+000 1.53705180e+000 2.57573175e+000
      2.09254473e-001 9.75887239e-001 1.65768549e-001 4.26126420e-001
      5.25569499e-001 2.73078978e-001 8.91160369e-002 7.81826749e-002
      6.67793274e-001 2.03672245e-001 1.03292644e+000 1.12395501e+000
      5.93015598e-003 4.48078245e-001 3.28652591e-001 1.96026206e-001
      5.21588981e-001 2.41265386e-001 2.01634139e-001 1.23674296e-001
      2.44750604e-002 8.48965585e-001 4.12353039e-001 3.06087017e-001
      6.12144709e-001 1.10973567e-002 2.59288311e+000 9.22750309e-002
      1.13923633e-002 3.70711647e-002 5.89042483e-003 1.25563300e+000
      1.17263123e-001 9.38596308e-001 2.07277679e+000 1.10149801e+000
      3.96786004e-001 3.24116647e-002 7.87565470e-001 3.64535078e-002
      2.93481439e-001 1.00533426e-001 1.13900399e+000 7.91904986e-001
      1.46673098e-001 4.59437110e-002 2.68260866e-001 1.45152164e+000
      1.53816855e+000 2.64408559e-001 3.64544690e-001 5.62520623e-001
      7.67135262e-001 3.30842994e-002 5.96669242e-002 5.31283259e-001
      6.24535382e-001 2.18445256e-001 3.74190032e-001 3.53601165e-002
      2.76810765e-001 4.72687837e-003 9.93119717e-001 1.85697466e-001
      6.12715840e-001 1.37598240e+000 9.49400067e-002 1.55774438e+000
      6.69196062e-003 2.03737170e-002 2.25438267e-001 3.43429178e-001
      1.13795257e+000 7.43652508e-002 6.78354979e-001 1.04076660e+000
      1.60359859e+000 1.76361811e+000 3.28175116e+000 1.40396047e+000 0.
      0. 0. 0. 0. 0. 0. 0. 0. 0. 0. 0. 0. 0. 0. 0. 0. 0. 0. 0. 0. 0. 0.
      0. 0. 0. 0. 0. 0. 0. 0. 0. 0. 0. 0. 0. 0. 0. 0. 0. 0. 0. 0. 0. 0.
      0. 0. 0. 0. 0. 0. 0. 0. 0. 0. 0. 0. 0. 0. 0. 0. 0. 0. 0. 0. 0. 0.
      0. 0. 0. 0. 0. 0. 0. 0. 0. 0. 0. 0. 0. 0. 0. 0. 0. 0. 0. 0. 0. 0.
      0. 0. 0. 0. 0. 0. 0. 0. 0. 0. 0.</_>
    <_>
      1.89199731e-001 1.16793585e+000 5.27468264e-001 1.05080712e+000
      1.65002067e-002 6.37986422e-001 3.74141604e-001 1.80923447e-001
      2.55560219e-001 8.50605607e-001 1.28980899e+000 1.73921382e+000
      9.73911345e-001 1.11062133e+000 1.84933949e+000 3.19898665e-001
      5.46217382e-001 4.83879894e-001 6.44245923e-001 4.18140143e-001
      6.84408426e-001 5.29581785e-001 6.67739213e-001 2.57314771e-001
      2.58828644e-002 9.98755395e-001 4.06869471e-001 6.33163989e-001
      3.66640657e-001 3.43822949e-002 3.24119568e-001 1.10731222e-001
      5.01591861e-001 5.05187847e-002 4.24907446e-001 9.55515444e-001
      3.10617596e-001 3.62075448e-001 1.70395866e-001 8.86842251e-001
      1.90188736e-002 7.56142974e-001 4.30230886e-001 1.44423693e-001
      1.70092201e+000 5.86965799e-001 1.16392064e+000 1.00918007e+000
      1.35027969e+000 1.08501232e+000 6.54674992e-002 9.06103611e-001
      8.28553677e-001 1.35130942e+000 3.72614563e-001 1.09953535e+000
      1.66065201e-001 4.82860982e-001 2.07260009e-002 1.09571707e+000
      8.23193610e-001 8.07441235e-001 2.86854319e-002 2.50227839e-001
      2.78239161e-001 9.60161090e-001 1.02560091e+000 3.98761570e-001
      1.21560180e+000 1.43229234e+000 9.24436688e-001 9.12586391e-001
      5.30821443e-001 1.50416422e+000 6.19691730e-001 1.79393634e-001
      5.96055351e-002 1.34063387e+000 5.35403967e-001 6.34866536e-001
      2.88925886e-001 3.95767063e-001 2.06841677e-002 9.67280939e-002
      1.40960407e+000 1.41429579e+000 5.52062020e-002 1.04266673e-001
      1.22003043e+000 1.85798860e+000 2.62423933e-001 4.44385797e-001
      1.83169603e-001 9.23984826e-001 1.29816747e+000 6.24260485e-001
      1.10513043e+000 1.37329316e+000 1.09777994e-001 6.23073280e-001
      2.48777485e+000 6.32140696e-001 2.10078284e-001 6.26742661e-001
      3.68472159e-001 1.27254426e+000 1.41142464e+000 3.53200585e-002
      2.50693448e-002 1.89542472e-001 4.77079242e-001 1.68934727e+000
      3.23098809e-001 1.14056814e+000 5.55208549e-002 2.25643646e-002
      1.89159974e-001 5.81382215e-001 1.40946861e-002 2.11819029e+000
      7.11651564e-001 1.35568309e+000 4.12574202e-001 5.72004123e-003
      4.21884477e-001 1.04387246e-001 1.71844649e+000 5.27654827e-001
      6.63770258e-001 5.92857957e-001 1.81449398e-001 3.19488078e-001
      1.61147751e-002 1.09323728e+000 1.07406564e-001 8.72825027e-001
      9.45688903e-001 5.48419617e-002 4.80056614e-001 7.84540296e-001
      2.26878196e-001 5.75125873e-001 2.56296575e-001 3.42366517e-001
      9.49670374e-001 1.61004633e-001 1.95002526e-001 8.56055558e-001
      1.31949261e-001 6.82736486e-002 7.10386872e-001 1.36745512e+000
      5.28477848e-001 1.00877130e+000 1.37044239e+000 3.40276927e-001
      3.13321054e-001 1.10377133e+000 8.51542294e-001 5.59032112e-002
      5.88511348e-001 2.59374846e-002 2.88197249e-001 1.16413522e+000
      9.77908596e-002 1.06836557e+000 9.00863290e-001 1.65316403e-001
      2.32218310e-001 3.46418411e-001 9.65590656e-001 1.44510448e-001
      3.29486638e-001 5.80536425e-001 5.54244161e-001 5.88056855e-002
      4.76041794e-001 5.40871024e-001 5.22584498e-001 5.22662364e-002
      2.11551506e-002 4.82988246e-002 3.69871974e-001 3.78656209e-001
      9.78447258e-001 3.64561230e-001 1.88040614e-001 8.63136232e-001
      4.56938118e-001 1.73900172e-001 2.01895058e-001 1.36895502e+000
      1.78072393e+000 3.00663829e-001 1.59518099e+000 2.12465469e-002
      2.25186720e-002 8.90220582e-001 1.13024879e+000 3.39230925e-001
      1.41815124e-002 3.83300930e-001 2.84554213e-001 3.32485944e-001
      7.66852260e-001 7.71592677e-001 9.99690652e-001 1.21114624e+000
      2.64095932e-001 2.11603865e-002 1.95382126e-002 9.75042701e-001
      1.86148174e-002 1.51804078e+000 5.62779903e-002 1.15296650e+000
      1.19674158e+000 8.98647606e-001 9.90527093e-001 6.81369722e-001
      7.08226800e-001 3.97719920e-001 5.78747272e-001 9.67387140e-001
      4.24645752e-001 1.09344684e-001 4.44016904e-002 4.50429171e-002
      7.35237360e-001 9.62265804e-002 1.17508531e+000 1.03824484e+000
      2.82202344e-002 4.34140086e-001 3.80275965e-001 4.29337829e-001
      4.62527364e-001 3.07673931e-001 1.70735255e-001 4.07702148e-001
      1.79002937e-002 4.45852816e-001 5.25772572e-001 9.15217474e-002
      1.67763054e-001 3.60639878e-002 6.94778264e-001 3.28786522e-001
      6.02573901e-002 5.79624400e-002 6.43934961e-003 8.66918862e-001
      1.82258055e-001 1.31140852e+000 9.51974869e-001 6.07121766e-001
      1.03489232e+000 1.75362788e-002 1.12915468e+000 1.40203804e-001
      9.14757177e-002 5.36300614e-002 9.11705852e-001 4.86891776e-001
      1.23272024e-001 4.38865349e-002 5.80476463e-001 1.23562610e+000
      9.46716249e-001 1.10260010e+000 3.11396301e-001 2.22045392e-001
      1.23237419e+000 1.83072150e-001 4.40149792e-002 1.02657509e+000
      7.18249440e-001 1.92770168e-001 3.37301373e-001 1.71164855e-001
      3.53541136e-001 1.08612403e-002 1.11134851e+000 5.40567815e-001
      7.60270953e-001 1.55307221e+000 1.63015902e-001 6.47588849e-001
      7.54709868e-003 1.81656964e-002 6.30955100e-001 4.34902489e-001
      5.76988220e-001 2.12123767e-001 6.84898734e-001 1.77190626e+000
      1.33528674e+000 1.16597676e+000 7.77959526e-001 9.09917593e-001 0.
      0. 0. 0. 0. 0. 0. 0. 0. 0. 0. 0. 0. 0. 0. 0. 0. 0. 0. 0. 0. 0. 0.
      0. 0. 0. 0. 0. 0. 0. 0. 0. 0. 0. 0. 0. 0. 0. 0. 0. 0. 0. 0. 0. 0.
      0. 0. 0. 0. 0. 0. 0. 0. 0. 0. 0. 0. 0. 0. 0. 0. 0. 0. 0. 0. 0. 0.
      0. 0. 0. 0. 0. 0. 0. 0. 0. 0. 0. 0. 0. 0. 0. 0. 0. 0. 0. 0. 0. 0.
      0. 0. 0. 0. 0. 0. 0. 0. 0. 0. 0.</_>
    <_>
      9.48923677e-002 1.49659371e+000 5.19824624e-001 1.76880747e-001
      1.16857532e-002 6.39829755e-001 3.38816792e-001 4.03265685e-001
      1.75116658e-001 8.24478328e-001 1.57949436e+000 1.86338723e+000
      8.23323607e-001 1.27769029e+000 1.04104936e+000 2.60922313e-001
      7.69456089e-001 3.69362891e-001 7.94689655e-001 7.27703512e-001
      2.60956079e-001 3.53208065e-001 1.14647233e+000 1.89635798e-001
      1.24758780e-002 2.61624247e-001 1.69867158e-001 8.77318680e-001
      3.43573987e-001 4.99878302e-002 6.23011470e-001 6.67673573e-002
      9.34199512e-001 6.57322481e-002 1.33476198e+000 7.11824536e-001
      1.73051417e-001 4.56790805e-001 3.39066416e-001 9.77123320e-001
      1.03872856e-002 7.24577248e-001 3.53747934e-001 9.83371884e-002
      6.17775023e-001 1.12697935e+000 1.45710719e+000 4.74018365e-001
      7.21460283e-001 1.25769162e+000 6.93151951e-002 4.85391408e-001
      1.21163297e+000 9.51872468e-001 4.12551910e-001 8.47762883e-001
      6.22782260e-002 4.06706214e-001 5.60268108e-003 1.31224930e+000
      6.23473227e-001 9.31414723e-001 6.99363044e-003 4.57250208e-001
      3.46098900e-001 3.10559839e-001 1.43195641e+000 2.24053413e-001
      1.22150624e+000 1.73131263e+000 9.81068969e-001 6.42844915e-001
      2.17352104e+000 1.72954702e+000 1.13189626e+000 1.95830092e-001
      5.80250770e-002 1.45072877e+000 2.79032528e-001 8.72606635e-001
      1.31495610e-001 3.81229162e-001 2.67313030e-002 1.02867901e-001
      2.60486770e+000 5.29442489e-001 3.92448008e-002 3.58506143e-001
      1.13244009e+000 9.38874483e-001 8.34530056e-001 2.57980794e-001
      3.73259448e-002 7.90779531e-001 8.11170578e-001 9.24059868e-001
      1.62274778e+000 4.46762472e-001 1.51674122e-001 3.61534357e-001
      1.47343540e+000 8.50919366e-001 1.70062944e-001 1.63791776e-001
      3.70425552e-001 9.02090430e-001 3.84990931e-001 4.24495637e-002
      1.98758431e-002 1.48804307e-001 2.37886548e-001 9.67136621e-001
      1.39203891e-001 4.27138478e-001 4.08114642e-002 5.94204254e-002
      1.31727010e-001 2.90840805e-001 1.64176486e-002 1.55212533e+000
      5.56048393e-001 1.04310179e+000 6.21784151e-001 4.59337654e-003
      1.33179769e-001 5.77783287e-002 1.16897714e+000 2.57269710e-001
      1.12208557e+000 3.79119724e-001 1.35766566e-001 3.20437789e-001
      4.12327833e-002 5.78272343e-001 1.03805818e-001 2.24422544e-001
      4.96427327e-001 3.14972661e-002 2.91557759e-001 5.31152070e-001
      3.08775783e-001 3.65782201e-001 4.12797064e-001 2.27875084e-001
      4.87024248e-001 1.30364403e-001 1.35240942e-001 3.18051219e-001
      1.17145970e-001 5.28929830e-002 3.03513080e-001 7.80270815e-001
      5.02651274e-001 7.56835341e-001 1.39721107e+000 2.51215726e-001
      3.27851564e-001 8.01015913e-001 3.36416304e-001 5.38730621e-002
      8.44980538e-001 6.30403385e-002 3.31316561e-001 9.11472142e-001
      1.28378883e-001 1.09045756e+000 1.02340102e+000 1.54774249e-001
      1.66891888e-001 4.15817022e-001 6.14231408e-001 3.23379278e-001
      3.10677856e-001 5.53145647e-001 1.16364932e+000 4.50481772e-002
      2.70278871e-001 4.32356477e-001 3.41015458e-001 3.79099511e-002
      1.33855753e-002 4.70577180e-002 1.20417619e+000 3.28057587e-001
      7.01277256e-001 3.10886830e-001 1.43778786e-001 1.04651964e+000
      1.87435061e-001 3.83119971e-001 1.90602452e-001 1.23238719e+000
      7.22415686e-001 5.65623760e-001 1.41737211e+000 5.84870204e-003
      6.04516789e-002 1.08895457e+000 1.21121371e+000 2.65556604e-001
      1.63926277e-002 2.77303815e-001 1.84013963e-001 2.25384578e-001
      9.57880557e-001 1.20205379e+000 8.94240320e-001 6.05952740e-001
      3.34224731e-001 2.70141996e-002 1.38738770e-002 3.02075118e-001
      2.52315030e-002 2.67746508e-001 4.15548123e-002 6.22997582e-001
      5.27992725e-001 1.06119835e+000 3.16131592e-001 1.95932138e+000
      2.70977885e-001 2.77537227e-001 8.99868131e-001 9.19804990e-001
      4.40601498e-001 1.99512690e-001 4.27358896e-002 3.58025506e-002
      6.25966132e-001 8.78975466e-002 8.92099023e-001 9.17409241e-001
      8.82350281e-003 2.74411112e-001 2.00335965e-001 7.26677537e-001
      2.73334813e+000 4.28892672e-001 1.44754708e-001 1.09244891e-001
      1.62688792e-002 3.03552926e-001 3.89712274e-001 1.07218876e-001
      3.38994265e-001 4.73823659e-002 9.24067020e-001 1.61781073e-001
      3.55630778e-002 5.88724464e-002 4.60727466e-003 4.86139417e-001
      1.08310334e-001 2.17237830e-001 1.10654497e+000 6.72464550e-001
      8.56002629e-001 1.71203539e-002 1.68216658e+000 6.26687482e-002
      2.04326198e-001 4.02773432e-002 7.33912528e-001 4.09135789e-001
      9.21537280e-002 5.05041368e-002 1.83900952e+000 1.87756789e+000
      7.91822970e-001 1.04207432e+000 3.49318117e-001 3.05949003e-001
      9.21117723e-001 3.99086885e-002 3.90865095e-002 9.53014374e-001
      5.56925893e-001 1.11239687e-001 3.84546429e-001 7.97955766e-002
      4.14110571e-001 1.52739063e-002 1.57630169e+000 6.01957738e-001
      5.88524103e-001 1.30469561e+000 1.05133928e-001 8.50764573e-001
      3.89044406e-003 1.11140795e-002 6.68980777e-001 4.09634829e-001
      2.26302028e-001 1.46567479e-001 8.98525119e-001 1.38954759e+000
      5.64419448e-001 1.25206721e+000 4.53356534e-001 5.30045092e-001 0.
      0. 0. 0. 0. 0. 0. 0. 0. 0. 0. 0. 0. 0. 0. 0. 0. 0. 0. 0. 0. 0. 0.
      0. 0. 0. 0. 0. 0. 0. 0. 0. 0. 0. 0. 0. 0. 0. 0. 0. 0. 0. 0. 0. 0.
      0. 0. 0. 0. 0. 0. 0. 0. 0. 0. 0. 0. 0. 0. 0. 0. 0. 0. 0. 0. 0. 0.
      0. 0. 0. 0. 0. 0. 0. 0. 0. 0. 0. 0. 0. 0. 0. 0. 0. 0. 0. 0. 0. 0.
      0. 0. 0. 0. 0. 0. 0. 0. 0. 0. 0.</_>
    <_>
      2.19701663e-001 1.69887602e+000 3.28710049e-001 1.67358208e+000
      3.29491347e-002 5.82081974e-001 9.94493127e-001 1.18442178e-001
      2.03194976e-001 7.32677877e-001 9.15813863e-001 1.28178930e+000
      1.00368726e+000 1.52387667e+000 2.00947714e+000 5.17296016e-001
      5.74032605e-001 5.32362998e-001 1.12675285e+000 5.26784718e-001
      3.15607131e-001 3.38253677e-001 1.22258937e+000 7.71914780e-001
      2.81823184e-002 9.48275626e-001 5.13689935e-001 6.24682426e-001
      3.91593188e-001 5.93461543e-002 7.47108281e-001 1.07066549e-001
      6.79118574e-001 8.80505741e-002 4.90761191e-001 2.02648306e+000
      5.66357374e-001 3.80241543e-001 5.17167389e-001 1.21961689e+000
      3.65456752e-002 1.03051364e+000 2.59158194e-001 2.05965862e-001
      1.65775108e+000 2.60523498e-001 2.18778372e+000 5.20760298e-001
      1.39792538e+000 4.72668707e-001 6.15737848e-002 1.34902513e+000
      1.22169805e+000 5.95133543e-001 4.01373565e-001 1.39923620e+000
      3.51614356e-002 3.01809549e-001 7.07617914e-003 6.44858181e-001
      1.34027696e+000 2.52453756e+000 9.58937220e-003 5.46357512e-001
      3.50460261e-001 1.27601314e+000 1.19217908e+000 5.54890752e-001
      1.33453071e+000 3.57209468e+000 1.40333652e+000 1.84931195e+000
      1.70534980e+000 1.20959914e+000 7.06607521e-001 2.06752017e-001
      3.51921432e-002 1.40052199e+000 1.19413710e+000 1.43241692e+000
      1.35619402e-001 5.32692850e-001 1.94728523e-002 1.47554681e-001
      1.34796953e+000 1.53399420e+000 3.21799032e-002 1.71683326e-001
      1.20549190e+000 1.94442201e+000 3.10333043e-001 2.49541625e-001
      1.51830047e-001 1.25146246e+000 8.96815896e-001 1.42525220e+000
      2.21332169e+000 1.70987022e+000 8.63953009e-002 4.90314484e-001
      1.61820495e+000 5.81346154e-001 2.72409290e-001 3.59178662e-001
      4.70699251e-001 1.06535625e+000 8.87349010e-001 1.57614306e-001
      1.74574200e-002 2.44395569e-001 5.88586628e-001 8.66555035e-001
      1.28253475e-001 1.48438668e+000 5.33453077e-002 1.75699443e-002
      2.08140805e-001 4.97145087e-001 1.03815524e-002 1.94237256e+000
      1.03790700e+000 5.44386506e-001 8.60709548e-001 9.69989505e-003
      4.02142018e-001 9.42659825e-002 2.13200879e+000 5.41290283e-001
      1.37708700e+000 8.69329512e-001 1.21764250e-001 8.65430236e-001
      3.17941755e-002 1.45559096e+000 2.03498676e-001 4.20244366e-001
      1.01607347e+000 6.62455931e-002 7.04817057e-001 1.14270914e+000
      3.67737323e-001 1.05625737e+000 6.71848714e-001 2.89009750e-001
      2.01189542e+000 3.37984443e-001 1.86629251e-001 4.75974828e-001
      1.67570919e-001 7.26118013e-002 4.38437492e-001 1.57008755e+000
      7.11613715e-001 9.14218187e-001 8.60478938e-001 3.13682467e-001
      2.84554094e-001 6.17568493e-001 6.91945136e-001 9.60803926e-002
      7.75765181e-001 2.71052774e-002 8.32361519e-001 8.85143697e-001
      1.64042130e-001 2.01550126e+000 1.23962343e+000 1.81700617e-001
      1.37460709e-001 4.72521454e-001 5.72137594e-001 9.80257019e-002
      4.05707151e-001 2.46095523e-001 1.72306800e+000 9.00782943e-002
      5.06346464e-001 8.81314337e-001 1.94828823e-001 6.53369874e-002
      2.09810287e-002 3.86873595e-002 4.18882847e-001 6.35184586e-001
      1.31146944e+000 7.32768953e-001 1.35658965e-001 9.04809177e-001
      3.74050200e-001 5.60175359e-001 3.09317261e-001 1.07744956e+000
      1.22939909e+000 3.82008046e-001 1.03144586e+000 7.22015742e-003
      1.87159237e-002 1.50963867e+000 1.57760394e+000 3.60043705e-001
      1.03685595e-002 3.94143969e-001 3.79016489e-001 2.44889081e-001
      1.66429663e+000 7.52234697e-001 1.06178188e+000 6.31852448e-001
      4.98580068e-001 1.96475778e-002 2.91137919e-002 1.11429596e+000
      1.88849997e-002 2.35801816e+000 7.68217295e-002 1.01397705e+000
      1.98382068e+000 3.20181942e+000 6.11799002e-001 7.30888724e-001
      2.06895083e-001 3.17441165e-001 1.89090502e+000 1.50776041e+000
      4.83927578e-001 1.55233636e-001 6.65047988e-002 4.48231734e-002
      5.35610437e-001 1.51293933e-001 3.07735896e+000 2.62528181e+000
      1.63162444e-002 8.54657292e-001 3.04362565e-001 6.63062155e-001
      2.50279665e+000 3.76581997e-001 2.15108231e-001 1.39149457e-001
      2.24769395e-002 3.38338375e-001 4.78528053e-001 1.99918166e-001
      3.97581786e-001 4.06449512e-002 1.42288446e+000 1.43932834e-001
      2.42435373e-002 6.87766746e-002 1.00174611e-002 1.78250217e+000
      1.16631210e-001 1.56995606e+000 2.72326875e+000 5.78040004e-001
      5.51528931e-001 2.22728513e-002 1.35247695e+000 6.03609495e-002
      1.48784339e-001 8.12865943e-002 4.09655482e-001 9.19988692e-001
      1.17636517e-001 4.34383117e-002 1.56963098e+000 1.83620536e+000
      1.45335758e+000 2.37016663e-001 5.64099193e-001 9.06014144e-001
      1.21658564e+000 1.34852722e-001 4.23040316e-002 1.12801659e+000
      5.89131176e-001 1.20887026e-001 2.07465649e-001 1.40888199e-001
      2.47589439e-001 1.32294558e-002 1.00013709e+000 1.67463928e-001
      4.16720092e-001 1.02969897e+000 2.70954043e-001 1.20160747e+000
      9.64131672e-003 2.89973039e-002 1.10134149e+000 4.86350000e-001
      1.16375577e+000 1.07586056e-001 1.25498164e+000 1.45702231e+000
      9.68940556e-001 6.00490808e-001 1.08975232e+000 1.24574423e+000 0.
      0. 0. 0. 0. 0. 0. 0. 0. 0. 0. 0. 0. 0. 0. 0. 0. 0. 0. 0. 0. 0. 0.
      0. 0. 0. 0. 0. 0. 0. 0. 0. 0. 0. 0. 0. 0. 0. 0. 0. 0. 0. 0. 0. 0.
      0. 0. 0. 0. 0. 0. 0. 0. 0. 0. 0. 0. 0. 0. 0. 0. 0. 0. 0. 0. 0. 0.
      0. 0. 0. 0. 0. 0. 0. 0. 0. 0. 0. 0. 0. 0. 0. 0. 0. 0. 0. 0. 0. 0.
      0. 0. 0. 0. 0. 0. 0. 0. 0. 0. 0.</_>
    <_>
      1.70547053e-001 1.44110119e+000 1.41553652e+000 3.40452075e-001
      2.55119391e-002 2.43854508e-001 3.49972218e-001 1.84295744e-001
      1.91909626e-001 2.43996334e+000 7.06334412e-001 1.14766133e+000
      2.69681001e+000 5.86298287e-001 2.72161674e+000 8.31238508e-001
      1.17927659e+000 4.73132074e-001 1.05033100e+000 8.23190212e-001
      1.25767696e+000 6.20744526e-001 1.56282139e+000 4.39248562e-001
      2.42006946e-002 1.36984730e+000 3.76026750e-001 1.73598957e+000
      3.60062242e-001 4.51532006e-002 5.61305940e-001 1.22774616e-001
      1.97460783e+000 7.31259063e-002 8.05616736e-001 5.25316179e-001
      6.02041006e-001 8.71918440e-001 3.39148968e-001 7.76215971e-001
      2.72561237e-002 3.89702111e-001 2.26579368e-001 1.26875550e-001
      1.74171138e+000 1.27805912e+000 1.04183292e+000 2.62687516e+000
      6.98466122e-001 5.55451214e-001 3.91865112e-002 1.61277640e+000
      1.72348595e+000 8.14206839e-001 7.02893257e-001 1.49693489e+000
      1.04814112e-001 2.89309055e-001 4.64132018e-002 4.18521464e-001
      3.91300350e-001 3.97692353e-001 1.43345958e-002 8.07063043e-001
      3.54108453e-001 1.55307162e+000 1.67018962e+000 6.03859425e-001
      8.29518616e-001 9.98547733e-001 6.86722100e-001 2.75256038e-001
      6.86222076e-001 1.38688982e+000 9.52223241e-001 1.72873020e-001
      6.66869521e-001 4.22724247e-001 6.84886456e-001 9.07106578e-001
      2.26020366e-001 1.04388356e+000 2.81089574e-001 2.05697224e-001
      3.69965172e+000 9.42688584e-001 2.99979709e-002 5.47796965e-001
      1.18925214e+000 2.06379437e+000 2.76911706e-001 2.08319440e-001
      6.99246824e-002 1.66911530e+000 1.22503841e+000 7.28653133e-001
      1.00476861e+000 1.84539640e+000 5.74050993e-002 2.12053180e-001
      3.89709520e+000 7.20892727e-001 8.05534720e-002 3.51418793e-001
      8.10601234e-001 2.69133377e+000 1.51664937e+000 4.84296679e-002
      1.50971645e-002 2.33079240e-001 7.63044238e-001 9.39034760e-001
      3.11633199e-001 7.68309474e-001 6.62755892e-002 3.94490287e-002
      2.79327542e-001 9.94909167e-001 6.35387050e-003 2.74569130e+000
      4.94199276e-001 4.16204095e-001 2.23906726e-001 6.93357363e-003
      1.10702783e-001 1.13434471e-001 2.42151141e+000 9.36183095e-001
      1.09328365e+000 2.38354713e-001 1.64208755e-001 3.83469313e-001
      2.32203435e-002 2.10480452e+000 1.93198666e-001 3.57166916e-001
      8.91161025e-001 7.93040320e-002 2.20648289e-001 5.88651597e-001
      3.29841375e-001 3.09308797e-001 4.93922591e-001 3.28868568e-001
      1.50393057e+000 1.45190954e-001 1.32089451e-001 2.17311287e+000
      2.32520461e-001 8.16356614e-002 1.11196470e+000 1.09087181e+000
      8.17310691e-001 1.03046739e+000 2.15741944e+000 5.52697182e-001
      7.56698430e-001 2.87072325e+000 3.05436432e-001 3.26220170e-002
      9.23650146e-001 2.22091451e-002 2.28474736e-001 6.73278868e-001
      1.36883304e-001 8.25268447e-001 7.52968371e-001 3.27893198e-001
      3.69795412e-001 5.06673455e-001 7.41639197e-001 1.40289500e-001
      4.66761649e-001 1.45205930e-001 1.62067056e+000 4.40673456e-002
      2.89903402e-001 6.58266068e-001 2.01591149e-001 8.21147710e-002
      2.21046582e-002 7.30628669e-002 1.13662161e-001 5.55172384e-001
      5.91911435e-001 3.99202645e-001 1.49948925e-001 8.99380803e-001
      3.55347872e-001 4.49563086e-001 7.98333287e-002 1.98194110e+000
      5.29270709e-001 4.44112033e-001 4.05298918e-001 4.55434173e-002
      3.65254469e-002 7.20667183e-001 1.13095200e+000 6.13094866e-001
      6.43816311e-003 3.98439109e-001 9.38281536e-001 8.79595652e-002
      1.40403557e+000 1.75933433e+000 2.19024038e+000 4.00361419e-001
      6.17110312e-001 2.80171484e-001 4.44911458e-002 1.94260144e+000
      2.55653977e-001 1.56556690e+000 4.72285300e-002 1.46745622e+000
      6.25778556e-001 4.58306521e-001 1.15068674e+000 2.16341209e+000
      1.39306337e-001 5.03853917e-001 1.63674891e+000 5.09097099e-001
      2.96154618e-001 1.63305864e-001 7.49179423e-002 6.26568869e-002
      8.79997730e-001 1.88718036e-001 4.21896547e-001 4.50524926e-001
      1.32660680e-002 5.29817581e-001 1.13786511e-001 1.32991672e+000
      4.63620126e-001 4.35929507e-001 2.03710169e-001 1.34853452e-001
      1.82028674e-002 1.44045520e+000 3.38948846e-001 2.23459408e-001
      5.33419609e-001 2.95989066e-002 5.25820255e-001 1.24991074e-001
      2.99084801e-002 6.45397007e-001 7.63195660e-003 6.50940597e-001
      1.39052451e-001 4.21745449e-001 3.79126012e-001 2.78713870e+000
      5.20281494e-001 2.56470647e-002 1.63982105e+000 1.13447487e-001
      1.65238962e-001 1.05794229e-001 1.91069508e+000 5.74638009e-001
      1.91458359e-001 5.37320197e-001 2.98339456e-001 1.58334613e+000
      6.94445133e-001 5.38106143e-001 3.52956504e-001 6.44405782e-001
      8.70206833e-001 7.00149909e-002 5.43760695e-002 5.68026066e-001
      7.91397870e-001 1.41254321e-001 4.19470966e-001 7.56768137e-002
      9.47449148e-001 8.67960230e-003 9.28495884e-001 7.08540022e-001
      1.71579993e+000 2.57582307e+000 1.19530573e-001 8.83726180e-001
      5.74038131e-003 2.40351111e-002 2.27421820e-001 2.28725120e-001
      8.96063268e-001 3.47617298e-001 1.40265083e+000 1.07592225e+000
      9.02689576e-001 8.79570782e-001 9.00689840e-001 2.12302661e+000 0.
      0. 0. 0. 0. 0. 0. 0. 0. 0. 0. 0. 0. 0. 0. 0. 0. 0. 0. 0. 0. 0. 0.
      0. 0. 0. 0. 0. 0. 0. 0. 0. 0. 0. 0. 0. 0. 0. 0. 0. 0. 0. 0. 0. 0.
      0. 0. 0. 0. 0. 0. 0. 0. 0. 0. 0. 0. 0. 0. 0. 0. 0. 0. 0. 0. 0. 0.
      0. 0. 0. 0. 0. 0. 0. 0. 0. 0. 0. 0. 0. 0. 0. 0. 0. 0. 0. 0. 0. 0.
      0. 0. 0. 0. 0. 0. 0. 0. 0. 0. 0.</_>
    <_>
      1.23380467e-001 1.50915539e+000 8.29155564e-001 1.79575014e+000
      2.84836311e-002 1.05755019e+000 5.88647366e-001 1.42588615e-001
      1.30939990e-001 1.19852710e+000 4.80027854e-001 6.57423854e-001
      5.10660172e-001 7.69920707e-001 1.95294380e+000 7.84995139e-001
      3.57925236e-001 7.62852967e-001 1.01759386e+000 6.40400529e-001
      1.73224047e-001 2.41179630e-001 9.68177676e-001 4.06914592e-001
      3.54252607e-002 1.25866449e+000 5.55326700e-001 8.88170898e-001
      1.95581213e-001 3.40613239e-002 5.39211810e-001 9.88438055e-002
      9.98448670e-001 1.38801187e-001 1.50051272e+000 5.49386442e-001
      9.68970597e-001 6.88529968e-001 3.57314885e-001 1.33594668e+000
      2.29383856e-002 1.61671150e+000 1.82242155e-001 2.10324809e-001
      1.85958660e+000 1.19144785e+000 1.10026217e+000 6.47484779e-001
      1.39134812e+000 4.04034853e-001 4.46252078e-002 2.07090425e+000
      1.07340097e+000 7.50417292e-001 7.75547743e-001 6.05228364e-001
      2.05768093e-001 3.19670260e-001 1.12540033e-002 4.03071731e-001
      1.93101656e+000 1.31560266e+000 9.61149205e-003 5.50173163e-001
      4.56205875e-001 2.31325936e+000 8.09826970e-001 4.03816193e-001
      7.11039543e-001 2.88659215e+000 1.33104444e+000 9.79731321e-001
      2.39912367e+000 1.13338053e+000 9.93334353e-001 1.48587853e-001
      9.47555006e-002 1.07790720e+000 7.64188945e-001 2.02701926e+000
      4.57517028e-001 2.42924318e-001 3.30425501e-002 1.45546108e-001
      1.85099554e+000 1.92481565e+000 1.98963061e-002 5.47082424e-002
      1.61393929e+000 1.29643571e+000 7.74300516e-001 3.98716331e-001
      6.53512552e-002 1.88271523e+000 1.05827785e+000 1.58387196e+000
      1.50315201e+000 1.98232341e+000 6.57500103e-002 4.29066539e-001
      1.58235073e+000 1.38352847e+000 1.28677025e-001 3.93322974e-001
      3.33738625e-001 8.59790146e-001 2.50176907e+000 5.43899462e-002
      8.68683960e-003 1.41875491e-001 5.72940946e-001 2.54297137e+000
      2.19850525e-001 1.51843679e+000 3.84936668e-002 1.58282686e-002
      2.02932864e-001 6.68572426e-001 1.13658300e-002 1.94897056e+000
      9.18340087e-001 6.40830696e-001 4.33452040e-001 5.98391285e-003
      2.65747905e-001 6.36623129e-002 1.56563973e+000 4.07217413e-001
      1.03302228e+000 8.11845183e-001 1.74414814e-001 6.07592583e-001
      2.49564014e-002 9.73900616e-001 1.68389127e-001 2.58727998e-001
      1.27354419e+000 3.88194323e-002 4.50022161e-001 8.71223569e-001
      5.13697028e-001 5.39684415e-001 4.45918709e-001 5.68551779e-001
      1.94978392e+000 1.43094227e-001 1.19317152e-001 4.49139476e-001
      2.67673105e-001 5.38785309e-002 5.28134108e-001 1.93660784e+000
      1.03117895e+000 1.05195773e+000 1.27371335e+000 3.66725713e-001
      4.46679831e-001 4.66438621e-001 4.00488794e-001 5.96624240e-002
      5.91695428e-001 1.73710734e-002 4.03705031e-001 8.66104007e-001
      1.78450435e-001 1.87945950e+000 1.30680704e+000 3.33181173e-001
      4.02561396e-001 2.58499682e-001 5.93505383e-001 7.79021606e-002
      3.33010823e-001 3.59835565e-001 1.59607279e+000 8.07574838e-002
      4.62564290e-001 6.40760660e-001 3.32432717e-001 7.83962980e-002
      1.62247065e-002 4.47627753e-002 1.42387462e+000 4.35186535e-001
      6.65217698e-001 3.89391303e-001 2.60025859e-001 2.99857140e-001
      1.35226119e+000 2.84492940e-001 1.23208307e-001 2.38144851e+000
      2.27321291e+000 7.64599070e-002 1.14958560e+000 1.13283219e-002
      1.52955670e-002 1.69457865e+000 1.17448282e+000 1.64208367e-001
      1.13265049e-002 4.84988391e-001 6.52492166e-001 1.54261485e-001
      1.34447157e+000 9.92081702e-001 1.40807223e+000 1.44007277e+000
      4.71767724e-001 3.14947776e-002 2.66400985e-002 1.45328081e+000
      4.42955382e-002 1.52943480e+000 7.14070499e-002 1.83834291e+000
      3.23213667e-001 7.92657137e-001 2.31755376e+000 6.61404729e-001
      2.14530244e-001 4.28227097e-001 6.31267071e-001 2.68567181e+000
      2.00334698e-001 3.52386177e-001 4.72084433e-002 8.88379067e-002
      7.26601481e-001 2.45964810e-001 1.38995457e+000 9.03002560e-001
      1.77795533e-002 6.88796282e-001 3.52698267e-001 3.31384867e-001
      1.78259110e+000 3.99020165e-001 1.63397744e-001 2.86289245e-001
      3.64001170e-002 8.59882772e-001 5.67197382e-001 1.11009277e-001
      4.76441473e-001 2.40839124e-002 1.07264721e+000 2.67525136e-001
      1.74395833e-002 6.67951480e-002 7.96227623e-003 1.77225554e+000
      1.45462871e-001 2.65750265e+000 1.67711782e+000 8.01986098e-001
      9.04059410e-001 3.61934640e-002 1.97317755e+000 1.12508237e-001
      3.42311174e-001 5.09190150e-002 5.72187781e-001 6.23589098e-001
      1.39414728e-001 1.38180003e-001 2.29030704e+000 1.52880871e+000
      9.66216028e-001 5.98311186e-001 3.44233006e-001 1.13501322e+000
      1.18612373e+000 7.21883923e-002 5.13345897e-002 3.56010735e-001
      5.63358724e-001 2.05890343e-001 3.61856371e-001 6.76610470e-002
      8.19283009e-001 7.61350244e-003 1.41467226e+000 3.56521845e-001
      8.58802378e-001 1.66155922e+000 1.90881163e-001 1.60734606e+000
      1.11763049e-002 3.13421898e-002 8.74040246e-001 2.99437881e-001
      1.03447044e+000 4.29905742e-001 9.68643367e-001 3.78222346e+000
      1.04696321e+000 3.87458414e-001 1.70548975e+000 1.11424875e+000 0.
      0. 0. 0. 0. 0. 0. 0. 0. 0. 0. 0. 0. 0. 0. 0. 0. 0. 0. 0. 0. 0. 0.
      0. 0. 0. 0. 0. 0. 0. 0. 0. 0. 0. 0. 0. 0. 0. 0. 0. 0. 0. 0. 0. 0.
      0. 0. 0. 0. 0. 0. 0. 0. 0. 0. 0. 0. 0. 0. 0. 0. 0. 0. 0. 0. 0. 0.
      0. 0. 0. 0. 0. 0. 0. 0. 0. 0. 0. 0. 0. 0. 0. 0. 0. 0. 0. 0. 0. 0.
      0. 0. 0. 0. 0. 0. 0. 0. 0. 0. 0.</_>
    <_>
      1.56571135e-001 7.93198466e-001 4.92467016e-001 8.32864821e-001
      1.36972433e-002 9.84255791e-001 5.23809731e-001 1.99050277e-001
      6.44641146e-002 1.19754326e+000 8.04912746e-001 5.56089878e-001
      7.68843949e-001 5.94018698e-001 8.60494077e-001 6.82621539e-001
      1.29259422e-001 2.50661433e-001 1.17908800e+000 2.59084553e-001
      4.44348246e-001 3.36940229e-001 4.76706237e-001 3.02310497e-001
      3.67135406e-002 1.23433566e+000 5.37914693e-001 5.70817649e-001
      4.83582109e-001 3.09793707e-002 2.98859179e-001 8.61748457e-002
      5.38798630e-001 1.46036491e-001 6.05602026e-001 6.69141173e-001
      4.16546375e-001 3.45589966e-001 3.08548033e-001 9.53503847e-001
      1.52073633e-002 7.36969531e-001 2.00908810e-001 1.39805451e-001
      1.07860279e+000 8.02377939e-001 8.81830275e-001 5.60359180e-001
      8.12753916e-001 1.09956944e+000 2.79371664e-002 6.05910420e-001
      1.03891659e+000 1.20444477e+000 3.19263399e-001 3.85903448e-001
      5.09308390e-002 4.29711670e-001 6.51942752e-003 7.26663709e-001
      1.46533668e+000 1.22941577e+000 9.98648442e-003 1.87167615e-001
      2.93567926e-001 1.08292115e+000 4.05951291e-001 3.00922394e-001
      9.22748268e-001 7.93612838e-001 8.36633325e-001 7.30517149e-001
      6.35392427e-001 1.26687253e+000 1.14378715e+000 2.03234866e-001
      5.49103990e-002 1.41640413e+000 3.97016138e-001 7.17256725e-001
      1.28922313e-001 4.05627877e-001 1.82287414e-002 1.20921522e-001
      1.12088132e+000 9.74881470e-001 1.98184978e-002 1.35282859e-001
      7.68710613e-001 1.81605780e+000 4.83248770e-001 3.87574732e-001
      6.38689622e-002 9.52654898e-001 2.12457761e-001 6.53748810e-001
      9.42670405e-001 1.38961840e+000 3.33380774e-002 2.82435149e-001
      1.37983239e+000 1.04178929e+000 1.24932855e-001 3.73555034e-001
      1.46063954e-001 5.62649846e-001 1.09562826e+000 4.88452353e-002
      6.44370541e-003 1.16852641e-001 4.33885276e-001 1.26424098e+000
      2.04532489e-001 5.09835958e-001 4.09017913e-002 9.60571021e-002
      1.14700727e-001 4.41662759e-001 1.02636321e-002 8.39186132e-001
      4.42161709e-001 5.91259480e-001 2.90603906e-001 4.71608760e-003
      2.44559377e-001 1.61263645e-001 5.94467103e-001 3.16823483e-001
      2.43311808e-001 3.63469481e-001 7.62633383e-002 4.24454629e-001
      2.05024239e-002 4.82237160e-001 2.05545574e-001 3.63202572e-001
      3.95872116e-001 3.36949900e-002 4.57299918e-001 6.76883817e-001
      2.67657995e-001 3.90558928e-001 3.06729436e-001 3.05851072e-001
      1.07762253e+000 1.45391554e-001 1.09000981e-001 1.09576321e+000
      1.79508850e-001 4.24514487e-002 4.31428879e-001 7.43979335e-001
      3.07732821e-001 1.23992586e+000 1.37914705e+000 1.98634803e-001
      2.44111910e-001 9.08010244e-001 6.11629903e-001 3.84121612e-002
      9.71778929e-001 4.41758558e-002 3.04855675e-001 6.82483852e-001
      1.03389174e-001 5.49579978e-001 7.96315372e-001 1.16778716e-001
      1.46591514e-001 5.13923168e-001 1.14296532e+000 3.70625138e-001
      3.76683921e-001 6.77307785e-001 2.14011952e-001 3.42686363e-002
      3.99204165e-001 4.84397918e-001 2.67110199e-001 4.22718748e-002
      1.51584670e-002 5.11666201e-002 3.38294894e-001 3.88660520e-001
      6.41877651e-001 4.31310117e-001 9.33170617e-002 1.08269203e+000
      4.94505703e-001 1.97703958e-001 1.68506891e-001 9.63107288e-001
      7.62278855e-001 3.79897207e-001 1.68362141e+000 6.48281351e-003
      9.07159746e-002 9.00660276e-001 1.19918716e+000 2.28705361e-001
      1.03440247e-002 2.39266351e-001 3.31356406e-001 1.08011983e-001
      9.16797638e-001 1.26090348e+000 4.61634189e-001 6.27400398e-001
      6.04555428e-001 1.73218939e-002 1.58751085e-002 1.56115592e+000
      1.79241560e-002 1.23386824e+000 3.60102989e-002 1.21067584e+000
      1.19994926e+000 1.29406583e+000 1.03247249e+000 7.75089979e-001
      1.06562018e-001 4.63531315e-001 3.04481775e-001 1.28668880e+000
      4.54788268e-001 6.93059638e-002 5.83645292e-002 3.47571597e-002
      6.24274790e-001 1.80811033e-001 9.22940850e-001 9.91721332e-001
      1.69215295e-002 2.76327014e-001 1.78775251e-001 1.53204814e-001
      9.67747033e-001 2.01204494e-001 1.28820375e-001 1.83406159e-001
      1.92766581e-002 9.36608374e-001 4.19208467e-001 2.03362629e-001
      5.92560828e-001 2.14289222e-002 7.41578162e-001 1.40237391e-001
      1.65866800e-002 3.52031738e-002 4.64819046e-003 8.24708402e-001
      1.38046041e-001 3.88224095e-001 1.23028696e+000 8.30688596e-001
      7.39253044e-001 2.32599266e-002 8.45381200e-001 7.36976787e-002
      6.95965439e-002 4.75160331e-002 3.62624168e-001 4.11258459e-001
      7.74035230e-002 7.34165460e-002 1.19453657e+000 7.94113278e-001
      7.05964208e-001 7.88118601e-001 2.64468700e-001 4.51532632e-001
      2.32532829e-001 6.43946826e-002 6.48200810e-002 1.13536835e+000
      4.65437710e-001 1.01037674e-001 1.90021023e-001 4.78017963e-002
      5.58037937e-001 8.61782301e-003 7.79416442e-001 3.91077489e-001
      3.61505896e-001 1.05115664e+000 1.09672911e-001 6.26965046e-001
      5.62989479e-003 1.53232114e-002 2.47076422e-001 4.64298695e-001
      1.21944487e+000 1.16034634e-001 6.78137064e-001 1.58916402e+000
      1.02094901e+000 1.37998855e+000 1.48636997e+000 5.22584498e-001 0.
      0. 0. 0. 0. 0. 0. 0. 0. 0. 0. 0. 0. 0. 0. 0. 0. 0. 0. 0. 0. 0. 0.
      0. 0. 0. 0. 0. 0. 0. 0. 0. 0. 0. 0. 0. 0. 0. 0. 0. 0. 0. 0. 0. 0.
      0. 0. 0. 0. 0. 0. 0. 0. 0. 0. 0. 0. 0. 0. 0. 0. 0. 0. 0. 0. 0. 0.
      0. 0. 0. 0. 0. 0. 0. 0. 0. 0. 0. 0. 0. 0. 0. 0. 0. 0. 0. 0. 0. 0.
      0. 0. 0. 0. 0. 0. 0. 0. 0. 0. 0.</_>
    <_>
      6.91154152e-002 5.98860979e-001 8.42310265e-002 1.23539053e-001
      6.35080738e-003 8.65466148e-002 2.82682385e-002 1.59610528e-002
      6.59318408e-003 2.20588133e-001 1.18769720e-001 1.79979876e-001
      8.56967345e-002 1.64859220e-001 3.30568165e-001 7.32770786e-002
      3.72092016e-002 7.39231557e-002 7.48474672e-002 1.65925503e-001
      1.25758693e-001 3.73993516e-002 1.05795562e-001 2.94326376e-002
      3.76879307e-003 6.97195902e-002 8.15899223e-002 1.25932962e-001
      4.32086773e-002 6.48344401e-003 3.25448453e-001 2.53559835e-002
      1.13602087e-001 9.60202701e-003 1.43835023e-001 2.44024277e-001
      2.98403084e-001 1.90874711e-001 2.71677226e-002 1.01839855e-001
      8.40722583e-003 1.24890640e-001 3.99778634e-002 9.00337622e-002
      1.29848814e+000 1.45983011e-001 7.70393461e-002 1.62081420e-001
      8.20468962e-002 9.29185823e-002 4.76365583e-003 1.26005083e-001
      5.41669428e-001 1.26164332e-001 1.18153065e-001 7.04711750e-002
      9.16072074e-003 8.46411139e-002 2.91657378e-003 7.33311102e-002
      9.46970433e-002 1.14272892e-001 1.44996506e-003 3.34591538e-001
      3.77257317e-001 1.16737053e-001 8.16768184e-002 2.17893168e-001
      1.29241109e-001 1.28687069e-001 1.10414281e-001 2.66046613e-001
      1.01908110e-001 1.29264891e-001 1.38329074e-001 9.94212367e-003
      3.08864191e-002 1.39146507e-001 5.72622605e-002 1.41818976e+000
      2.22064722e-002 2.90153176e-002 1.01290178e-002 1.24302125e-002
      5.35309553e-001 6.54328108e-001 3.43796122e-003 5.00676110e-002
      1.43078566e-001 1.45646185e-001 1.15399934e-001 1.92561358e-001
      6.59751799e-003 7.90550560e-002 1.54528931e-001 1.49132717e+000
      6.46086335e-002 1.03757374e-001 8.60933494e-003 4.73001674e-002
      3.63678575e-001 9.00848269e-001 1.32181309e-002 2.91581862e-002
      2.54037529e-002 9.93348718e-001 1.03829712e-001 5.00021735e-003
      1.44058489e-003 6.52646273e-002 3.43984924e-002 1.26909339e+000
      6.02613613e-002 1.00634865e-001 2.88412180e-002 9.57719889e-003
      9.47635714e-003 5.55256963e-001 1.20579440e-003 2.68355668e-001
      4.76264134e-002 6.26363158e-002 1.39443263e-001 1.16861111e-003
      1.37368031e-002 1.67346839e-002 3.60421091e-001 1.75876364e-001
      7.06575811e-002 1.86946802e-002 1.03832586e-002 3.88612673e-002
      3.82475066e-003 9.56267715e-002 7.22759813e-002 2.61331499e-002
      1.50882527e-001 2.37604119e-002 4.40446660e-002 1.00892462e-001
      2.49216303e-001 2.99332850e-002 4.86311503e-002 9.37601700e-002
      1.10249110e-001 5.45826601e-003 3.83222997e-002 6.09150946e-001
      2.40441617e-002 7.79404631e-003 1.74684674e-001 1.10469319e-001
      1.24780811e-001 2.53826350e-001 6.08833075e-001 2.54260331e-001
      7.69471973e-002 2.03901872e-001 3.08184940e-002 4.10144590e-003
      1.03951119e-001 2.95584463e-003 8.83354619e-002 1.50055677e-001
      2.71620937e-002 1.05949171e-001 1.01679541e-001 4.80242595e-002
      2.84799840e-002 4.47063521e-002 1.07092023e-001 9.98046156e-003
      2.56726712e-001 4.00968902e-002 7.86789954e-002 9.33172554e-003
      4.49269488e-002 5.22093058e-001 4.47652079e-002 3.05127706e-002
      6.55769510e-003 1.04152588e-002 1.93203270e-001 5.24934053e-001
      8.60411301e-002 7.15949833e-002 1.16896266e-002 1.01263300e-001
      2.98856288e-001 1.25840474e-002 1.36393961e-002 2.04664379e-001
      2.54784435e-001 7.55796805e-002 1.31457418e-001 2.89549283e-003
      9.90272965e-003 1.02022946e+000 8.46104771e-002 1.70656204e-001
      1.20283454e-003 2.05218151e-001 3.18096280e-002 1.37646953e-002
      8.14943835e-002 2.30182692e-001 1.03250295e-001 1.24708986e+000
      4.24612612e-002 1.00217536e-002 4.77707991e-003 8.63164216e-002
      1.08347218e-002 1.63332343e-001 9.53092705e-003 7.22814262e-001
      7.32876584e-002 4.28864658e-001 1.45593613e-001 4.77038175e-001
      3.19745652e-002 1.04485698e-001 9.34886411e-002 9.95282903e-002
      2.69405954e-002 5.33689149e-002 1.66849028e-002 2.00547762e-002
      4.10230681e-002 9.84340068e-003 7.92235509e-002 3.42421353e-001
      1.68693007e-003 3.71430777e-002 2.60856748e-002 2.92048659e-002
      8.87357295e-002 3.21478508e-002 7.87540898e-002 1.81548335e-002
      4.23455052e-003 6.62544891e-002 3.16031426e-002 3.37534472e-002
      2.57923603e-002 4.23466647e-003 9.01434720e-001 1.71134062e-002
      2.66765361e-003 2.78951190e-002 2.44155549e-003 7.09982887e-002
      3.10722664e-002 1.22012153e-001 3.95956159e-001 9.41363096e-001
      7.10839704e-002 8.27370211e-003 2.23797753e-001 1.27272615e-002
      5.03894798e-002 1.93033833e-002 2.88546115e-001 6.46755815e-001
      6.31057769e-002 3.23265344e-002 9.01043862e-002 6.90047383e-001
      1.15613811e-001 1.58691704e-001 4.53715660e-002 2.44656112e-002
      1.02405682e-001 6.77422015e-003 1.50129804e-002 8.24826881e-002
      7.37517253e-002 1.39321480e-002 3.47898118e-002 3.09876818e-003
      1.99036747e-001 1.36126042e-003 1.51592717e-001 4.06019054e-002
      3.04763377e-001 2.41057411e-001 7.37744709e-003 2.97894150e-001
      2.04792456e-003 6.80287974e-003 4.19467762e-002 3.79969329e-002
      8.21606815e-002 2.47358140e-002 5.14594838e-002 1.18662930e+000
      8.10017884e-001 8.13674852e-002 2.09875554e-001 8.16507712e-002 0.
      0. 0. 0. 0. 0. 0. 0. 0. 0. 0. 0. 0. 0. 0. 0. 0. 0. 0. 0. 0. 0. 0.
      0. 0. 0. 0. 0. 0. 0. 0. 0. 0. 0. 0. 0. 0. 0. 0. 0. 0. 0. 0. 0. 0.
      0. 0. 0. 0. 0. 0. 0. 0. 0. 0. 0. 0. 0. 0. 0. 0. 0. 0. 0. 0. 0. 0.
      0. 0. 0. 0. 0. 0. 0. 0. 0. 0. 0. 0. 0. 0. 0. 0. 0. 0. 0. 0. 0. 0.
      0. 0. 0. 0. 0. 0. 0. 0. 0. 0. 0.</_>
    <_>
      1.25672221e-001 1.21386886e+000 2.95159370e-001 9.64879811e-001
      1.48890000e-002 7.39667356e-001 4.00999069e-001 2.16969326e-001
      9.15262550e-002 5.06197512e-001 8.19051325e-001 4.99566406e-001
      5.13317108e-001 7.71415353e-001 7.85330355e-001 5.29145300e-001
      3.57258141e-001 5.14878869e-001 1.58162749e+000 4.27634299e-001
      4.12015855e-001 2.56585538e-001 4.44695711e-001 4.89919126e-001
      2.52102185e-002 4.29947376e-001 2.77444929e-001 3.88115257e-001
      3.39303285e-001 3.40035073e-002 3.43974113e-001 1.94004849e-001
      3.87080491e-001 4.55271453e-002 1.15761411e+000 1.01608062e+000
      1.97410196e-001 4.97400671e-001 4.23617870e-001 8.58006835e-001
      1.39442272e-002 1.46424282e+000 4.28987205e-001 9.06797871e-002
      9.64010656e-001 1.10300612e+000 8.77441466e-001 9.59564447e-001
      1.35289705e+000 9.77449238e-001 3.89028303e-002 1.12720168e+000
      1.00178277e+000 5.46198189e-001 3.22387516e-001 6.34649575e-001
      1.52392015e-001 4.29645836e-001 1.15575083e-002 1.36471498e+000
      1.43382084e+000 2.49618983e+000 1.71635970e-002 4.08124715e-001
      2.62416840e-001 1.91226852e+000 5.88728249e-001 1.89319804e-001
      1.13419211e+000 9.94908392e-001 1.14665139e+000 1.32758069e+000
      1.30361164e+000 9.71884072e-001 1.23090255e+000 1.36006042e-001
      1.14721522e-001 8.63851845e-001 6.59151375e-001 4.94852930e-001
      2.40353703e-001 2.89250731e-001 5.51602393e-002 8.29294398e-002
      1.84756970e+000 9.09225881e-001 1.94680654e-002 1.84245348e-001
      2.93809772e+000 1.18090534e+000 4.08693880e-001 4.73879009e-001
      2.08264023e-001 7.47653961e-001 1.01641262e+000 5.03980458e-001
      9.19642866e-001 2.02365780e+000 9.20179263e-002 2.72708178e-001
      1.00524187e+000 8.06053698e-001 1.81525409e-001 4.35424417e-001
      2.25528359e-001 9.70310569e-001 2.94897485e+000 6.63428158e-002
      7.13995285e-003 1.61188722e-001 2.48831034e-001 6.88240588e-001
      2.47556031e-001 6.60134315e-001 5.07299155e-002 2.85873171e-002
      1.04141906e-001 5.43068647e-001 1.10192494e-002 1.12865782e+000
      9.92017746e-001 1.84346378e+000 6.11991644e-001 4.82829055e-003
      3.59967023e-001 1.32483199e-001 1.28119707e+000 3.19071263e-001
      1.28831410e+000 6.59596086e-001 9.43295211e-002 5.94207406e-001
      1.35275507e-002 4.05359417e-001 9.64266807e-002 3.88511449e-001
      7.39069104e-001 5.02639450e-002 5.52470863e-001 1.37968147e+000
      1.99111462e-001 7.84026384e-001 4.75299329e-001 9.57502782e-001
      7.98020482e-001 1.53598100e-001 1.30897984e-001 5.47969341e-001
      6.90144897e-002 5.26432954e-002 6.50092363e-001 2.20150685e+000
      3.73343766e-001 9.94548500e-001 1.05273819e+000 3.14271629e-001
      1.38922915e-001 8.32044005e-001 5.10444820e-001 4.96510826e-002
      6.34801626e-001 4.85872030e-002 7.91542947e-001 9.13277864e-001
      1.19329222e-001 6.10002875e-001 1.05940640e+000 1.60383835e-001
      2.66306579e-001 5.16935647e-001 5.82461774e-001 2.17037857e-001
      3.69580597e-001 7.68745124e-001 1.50204039e+000 5.41446619e-002
      4.33780432e-001 5.28469622e-001 4.29487467e-001 3.68870534e-002
      1.87840331e-002 4.83173691e-002 1.20843530e+000 3.60216886e-001
      1.35522389e+000 4.63665247e-001 1.43644497e-001 7.08131313e-001
      5.26086688e-001 2.04553574e-001 1.69690967e-001 5.68357587e-001
      2.32701421e+000 3.43240857e-001 8.63848209e-001 1.15248952e-002
      2.68841293e-002 1.29875636e+000 6.52096927e-001 2.34436721e-001
      1.10430205e-002 3.02688211e-001 1.90772861e-001 2.02012599e-001
      7.37085819e-001 6.35939121e-001 4.94408786e-001 3.85659784e-001
      8.35874736e-001 5.55709340e-002 2.10155919e-002 5.96534550e-001
      5.11520393e-002 5.15952289e-001 4.74357456e-002 9.38221753e-001
      1.04056144e+000 1.15280640e+000 2.69042492e+000 8.26662064e-001
      4.33557510e-001 2.69628286e-001 9.09091413e-001 1.71974194e+000
      4.08204764e-001 2.46688262e-001 4.60692421e-002 2.77015418e-002
      4.19715971e-001 4.28252816e-002 1.99306715e+000 1.21592104e+000
      3.32118385e-002 4.89100873e-001 1.91656917e-001 3.29424560e-001
      1.48162425e+000 3.67302150e-001 1.48238838e-001 7.15126321e-002
      1.69446003e-002 3.50208640e-001 5.39407074e-001 6.15479238e-002
      6.76596820e-001 1.39146801e-002 9.00928915e-001 1.22949824e-001
      1.90522764e-002 1.20076679e-001 4.40625707e-003 3.97894681e-001
      1.45632073e-001 5.29187381e-001 1.70019507e+000 1.33786297e+000
      1.82622242e+000 1.25033055e-002 1.05172181e+000 7.40609989e-002
      2.36449286e-001 5.53563572e-002 4.66643244e-001 3.51169467e-001
      1.20310649e-001 1.03922911e-001 1.34521282e+000 1.19767320e+000
      1.27172267e+000 7.04483151e-001 4.31946725e-001 8.58599603e-001
      8.22823167e-001 1.99530125e-001 6.11607805e-002 1.89333773e+000
      3.41974139e-001 1.33149922e-001 4.44460630e-001 1.17167190e-001
      5.87124050e-001 5.05060283e-003 2.33718300e+000 3.16951990e-001
      6.28322124e-001 5.84924221e-001 1.44569293e-001 6.99374616e-001
      7.00447522e-003 1.52762309e-002 6.13810539e-001 7.03628361e-001
      3.65782559e-001 2.59992570e-001 7.08362222e-001 1.04061270e+000
      6.04557991e-001 1.71824133e+000 8.89326811e-001 4.07426417e-001 0.
      0. 0. 0. 0. 0. 0. 0. 0. 0. 0. 0. 0. 0. 0. 0. 0. 0. 0. 0. 0. 0. 0.
      0. 0. 0. 0. 0. 0. 0. 0. 0. 0. 0. 0. 0. 0. 0. 0. 0. 0. 0. 0. 0. 0.
      0. 0. 0. 0. 0. 0. 0. 0. 0. 0. 0. 0. 0. 0. 0. 0. 0. 0. 0. 0. 0. 0.
      0. 0. 0. 0. 0. 0. 0. 0. 0. 0. 0. 0. 0. 0. 0. 0. 0. 0. 0. 0. 0. 0.
      0. 0. 0. 0. 0. 0. 0. 0. 0. 0. 0.</_>
    <_>
      8.95549506e-002 6.05546832e-001 9.98420119e-001 9.05738354e-001
      1.26499953e-002 1.47806799e+000 3.25616837e-001 1.21955149e-001
      5.81940822e-002 4.89217132e-001 1.12998688e+000 1.59880519e+000
      9.99029100e-001 3.68340492e-001 2.14475483e-001 7.26862967e-001
      3.14067394e-001 2.71102697e-001 1.29355443e+000 3.87296557e-001
      6.10262036e-001 2.27172390e-001 8.35907400e-001 5.51497221e-001
      1.11660780e-002 8.93975616e-001 3.62699956e-001 1.12075543e+000
      6.76421225e-001 4.44846414e-002 2.71591365e-001 3.79010402e-002
      1.08585298e+000 5.53605705e-002 5.95769525e-001 2.00165033e+000
      4.80062097e-001 3.88914704e-001 2.26154566e-001 1.00151992e+000
      9.48401354e-003 5.40607154e-001 3.06669295e-001 9.22405869e-002
      1.28375137e+000 2.70283848e-001 2.04769707e+000 8.68843794e-001
      1.11332107e+000 1.36974669e+000 2.73566190e-002 1.07263350e+000
      7.37254798e-001 4.00497854e-001 4.72542763e-001 6.91929281e-001
      3.69246043e-002 4.25887793e-001 1.67219955e-002 1.22862828e+000
      1.37946129e+000 2.33118311e-001 1.17472289e-002 2.74704427e-001
      2.72785783e-001 8.92486513e-001 8.54284286e-001 2.22076446e-001
      6.95327938e-001 1.48052955e+000 1.35550964e+000 1.50640512e+000
      1.00886679e+000 1.10134792e+000 7.77463317e-001 1.36431769e-001
      1.02839507e-001 6.35440409e-001 6.35296345e-001 8.63657773e-001
      1.54245257e-001 5.13815224e-001 4.16433923e-002 6.73768744e-002
      5.77878475e-001 9.91943181e-001 1.63628925e-002 1.38992652e-001
      8.21588755e-001 9.66015518e-001 6.41935289e-001 2.66528100e-001
      6.34283721e-002 9.51836705e-001 1.85977888e+000 8.48933041e-001
      2.31940031e+000 1.99545383e+000 5.86590841e-002 1.73629388e-001
      2.68031895e-001 6.28875613e-001 9.97485444e-002 2.85457492e-001
      1.50508597e-001 8.17639291e-001 1.09240365e+000 2.43850462e-002
      3.97877488e-003 6.08209595e-002 3.91027898e-001 7.42003262e-001
      3.49342525e-001 4.80979323e-001 3.83937657e-002 2.39028018e-002
      8.79548341e-002 4.32499170e-001 6.23108912e-003 2.07209632e-001
      1.13128893e-001 1.84974563e+000 2.04362765e-001 3.68532026e-003
      1.43008217e-001 3.20334770e-002 9.07870412e-001 5.00724852e-001
      3.98932308e-001 7.39641190e-001 1.27335727e-001 6.32290781e-001
      1.87812820e-002 9.81349111e-001 6.15939312e-002 3.08497488e-001
      3.55127096e-001 3.46703567e-002 6.12174094e-001 1.51868725e+000
      2.80545741e-001 9.14474428e-001 4.34180290e-001 1.51134908e-001
      1.38973904e+000 1.13808729e-001 1.00249387e-001 1.44368577e+000
      5.15457131e-002 6.09566718e-002 4.88473862e-001 1.99379253e+000
      1.13310538e-001 6.08319402e-001 5.55281579e-001 3.44736636e-001
      5.51005840e-001 1.51036215e+000 4.08354759e-001 2.31997781e-002
      8.52042854e-001 1.51181845e-002 6.34927571e-001 1.96575940e+000
      7.91909471e-002 1.06077385e+000 1.00858819e+000 8.89398530e-002
      1.19129792e-001 7.06103444e-001 3.18619967e-001 1.54681757e-001
      4.55965966e-001 3.19744349e-001 4.55671728e-001 3.79253402e-002
      5.87050736e-001 5.90688407e-001 4.39976841e-001 4.14570644e-002
      1.49343712e-002 3.00302170e-002 6.05602443e-001 3.42868716e-001
      1.29137647e+000 2.01889575e-001 1.38360456e-001 1.11565077e+000
      6.76557660e-001 2.72786021e-001 1.07314430e-001 9.69919562e-001
      8.02054822e-001 4.74102437e-001 9.36564624e-001 1.67649202e-002
      2.06001978e-002 8.32266867e-001 8.70212197e-001 3.73187989e-001
      6.12733141e-003 2.96419680e-001 3.53515685e-001 1.73996285e-001
      9.13675785e-001 4.99762177e-001 1.21124029e+000 6.21485233e-001
      3.54291975e-001 4.13805582e-002 1.46975173e-002 1.25688124e+000
      4.71897908e-002 2.25700349e-001 3.09826341e-002 6.08056188e-001
      9.46139514e-001 2.11288476e+000 6.21349096e-001 7.77910531e-001
      1.99199826e-001 2.62749732e-001 6.84630573e-001 2.01479554e+000
      4.51716065e-001 1.26075089e-001 3.11987977e-002 3.20682824e-002
      6.71524227e-001 6.43271804e-002 1.86673433e-001 1.72231483e+000
      1.09980106e-002 4.78717536e-001 1.82135969e-001 3.50415736e-001
      1.94019008e+000 3.89850199e-001 7.97700435e-002 1.49926513e-001
      1.54810799e-002 6.98169172e-001 8.22017491e-001 1.18097723e-001
      3.82549435e-001 1.11066429e-002 8.96566451e-001 1.74810216e-001
      1.77124254e-002 1.12791725e-001 4.07505361e-003 4.77752894e-001
      7.50725642e-002 2.51856387e-001 1.41134763e+000 1.09408021e+000
      1.63347971e+000 8.43102019e-003 7.20962703e-001 1.10163957e-001
      1.14765130e-001 2.85117645e-002 7.81694353e-001 2.09734172e-001
      1.42954752e-001 9.81941596e-002 1.14232564e+000 5.25303423e-001
      3.02266300e-001 2.20862031e-001 1.90341443e-001 2.38673836e-001
      2.61978328e-001 7.43133426e-002 3.86038199e-002 4.67410028e-001
      1.84065267e-001 1.94333881e-001 3.19267154e-001 8.40148553e-002
      3.67380828e-001 4.80061444e-003 6.16507769e-001 2.43600801e-001
      8.33981931e-001 2.20839038e-001 4.97040972e-002 6.40325367e-001
      4.21976717e-003 1.36352312e-002 8.44059348e-001 3.91821623e-001
      1.18011892e+000 7.43468478e-002 6.87052667e-001 7.11074829e-001
      6.55044317e-001 5.74830294e-001 5.81190646e-001 8.44460189e-001 0.
      0. 0. 0. 0. 0. 0. 0. 0. 0. 0. 0. 0. 0. 0. 0. 0. 0. 0. 0. 0. 0. 0.
      0. 0. 0. 0. 0. 0. 0. 0. 0. 0. 0. 0. 0. 0. 0. 0. 0. 0. 0. 0. 0. 0.
      0. 0. 0. 0. 0. 0. 0. 0. 0. 0. 0. 0. 0. 0. 0. 0. 0. 0. 0. 0. 0. 0.
      0. 0. 0. 0. 0. 0. 0. 0. 0. 0. 0. 0. 0. 0. 0. 0. 0. 0. 0. 0. 0. 0.
      0. 0. 0. 0. 0. 0. 0. 0. 0. 0. 0.</_>
    <_>
      1.42832622e-001 1.20357943e+000 8.88180196e-001 1.53017187e+000
      2.81178933e-002 1.40541863e+000 4.43441957e-001 1.54141650e-001
      8.11941326e-002 2.51384187e+000 6.76770508e-001 7.91989744e-001
      1.13463950e+000 1.42284322e+000 1.06691480e+000 8.26775432e-001
      3.13518822e-001 2.42350936e-001 2.11909246e+000 8.08645368e-001
      4.77845132e-001 3.59736919e-001 1.55353487e+000 4.86922711e-001
      2.31332947e-002 1.35740197e+000 5.29970169e-001 8.05484235e-001
      2.41280571e-001 5.45374043e-002 7.67921090e-001 8.21986422e-002
      9.70995247e-001 7.11730421e-002 2.13597441e+000 6.88939095e-001
      7.18817949e-001 5.00499845e-001 4.87656415e-001 1.50962913e+000
      2.78020948e-002 9.83078599e-001 6.14544213e-001 1.96807429e-001
      1.71245527e+000 5.63685536e-001 2.97451115e+000 1.07193327e+000
      6.39712214e-001 1.10236835e+000 6.42736703e-002 1.36261261e+000
      2.21315122e+000 4.39831406e-001 7.71178603e-001 8.13881099e-001
      6.24739751e-002 5.86200416e-001 9.17595625e-003 1.32464707e+000
      6.73810542e-001 5.56511939e-001 9.00147390e-003 4.97935176e-001
      7.49072790e-001 1.35803604e+000 9.75240946e-001 5.37395835e-001
      9.73283112e-001 2.54705811e+000 1.38756216e+000 1.58494580e+000
      4.04987782e-001 2.10744596e+000 9.40665483e-001 2.77498990e-001
      5.63128740e-002 1.47655392e+000 5.01606584e-001 1.31073248e+000
      2.55704343e-001 4.46022302e-001 2.72701029e-002 2.18100026e-001
      3.24577689e+000 1.15788400e+000 2.05560829e-002 6.70641720e-001
      8.33568335e-001 1.93829739e+000 9.25167739e-001 5.15455604e-001
      6.59488738e-002 3.99572396e+000 9.94781792e-001 1.34381247e+000
      2.67118049e+000 2.47771525e+000 1.15180247e-001 4.16137636e-001
      2.52344012e+000 7.54475117e-001 1.78770021e-001 3.47698480e-001
      3.99478137e-001 2.06208134e+000 9.26010251e-001 4.48881947e-002
      5.60203055e-003 1.20315216e-001 6.16891265e-001 1.42676353e+000
      1.53148115e-001 1.39384186e+000 4.80375998e-002 4.20654714e-002
      1.29234418e-001 7.05001116e-001 1.85089987e-002 1.51889479e+000
      8.20099950e-001 1.50306535e+000 5.88488638e-001 4.46381234e-003
      2.42539287e-001 5.85471876e-002 1.93530929e+000 4.10585612e-001
      7.96655595e-001 4.17610645e-001 1.07677132e-001 8.79483521e-001
      2.05640774e-002 2.17164803e+000 2.06443503e-001 3.20518941e-001
      3.98513645e-001 8.20074901e-002 5.82882881e-001 7.94703245e-001
      5.57309926e-001 4.59804803e-001 4.49185163e-001 2.25734517e-001
      3.10456967e+000 1.77363366e-001 2.06015125e-001 1.30058062e+000
      2.33852863e-001 9.51350257e-002 5.40116727e-001 2.21799135e+000
      7.59407580e-001 4.15166259e-001 1.67898095e+000 3.34399104e-001
      5.58844626e-001 1.43465912e+000 4.51579422e-001 6.54789582e-002
      1.17039704e+000 3.25235352e-002 4.85346168e-001 9.18631315e-001
      1.78227484e-001 2.44325089e+000 1.49179971e+000 1.98361382e-001
      1.96810991e-001 2.85883635e-001 7.01154113e-001 1.53503597e-001
