<?xml version="1.0"?>
<opencv_storage>
<my_svm type_id="opencv-ml-svm">
  <svm_type>EPS_SVR</svm_type>
  <kernel><type>RBF</type>
    <gamma>2.1113799999999999e-002</gamma></kernel>
  <C>15.</C>
  <p>1.0000000000000001e-001</p>
  <term_criteria><epsilon>4.9999998882412910e-003</epsilon>
    <iterations>2147483647</iterations></term_criteria>
  <var_all>400</var_all>
  <var_count>400</var_count>
  <sv_total>448</sv_total>
  <support_vectors>
    <_>
      9.33870450e-002 1.82309103e+000 3.43775123e-001 2.47195199e-001
      1.10650221e-002 2.61511862e-001 3.04801345e-001 3.20484281e-001
      7.67121315e-002 1.49656534e+000 4.16394979e-001 4.15337980e-001
      1.50249147e+000 1.69329679e+000 2.31454968e+000 1.97418272e-001
      2.62664109e-001 6.24535143e-001 1.12522483e+000 2.33297423e-001
      7.51810253e-001 2.67124325e-001 3.07810932e-001 3.62508625e-001
      5.56653887e-002 4.00289893e-001 1.52692422e-001 4.36686158e-001
      7.68220723e-001 5.67659400e-002 9.14842844e-001 2.05833212e-001
      3.68465900e-001 2.50201553e-001 1.92954659e+000 1.45432496e+000
      3.69440436e-001 3.48656923e-001 4.36676353e-001 1.00842047e+000
      2.19679512e-002 2.92771041e-001 1.81684196e-001 9.24570113e-002
      8.65593910e-001 3.53334695e-001 1.24169230e+000 1.24285924e+000
      1.10835516e+000 6.50447845e-001 6.33923933e-002 2.05151275e-001
      1.87409055e+000 8.17734301e-001 2.58402616e-001 2.06872180e-001
      1.40428141e-001 1.05011475e+000 4.39440571e-002 6.98119998e-001
      7.21732140e-001 2.40470782e-001 2.84894351e-002 2.81702757e-001
      2.78326660e-001 4.44220215e-001 2.03655273e-001 5.43701172e-001
      1.75549734e+000 1.15663695e+000 1.33996153e+000 9.13293064e-001
      3.53981078e-001 4.72507268e-001 1.02320457e+000 1.21490017e-001
      4.25462246e-001 7.39053071e-001 4.99129981e-001 7.67959893e-001
      2.17199922e-001 8.08792233e-001 1.80796713e-001 1.32565066e-001
      1.18469751e+000 5.44561386e-001 2.04469413e-002 3.77837270e-001
      2.35850978e+000 1.17437649e+000 8.88662994e-001 3.21286440e-001
      1.13174036e-001 3.99106741e-001 1.58784688e-001 9.73759890e-001
      1.40090597e+000 8.03486168e-001 1.13529801e-001 2.08446935e-001
      1.69312882e+000 6.29806519e-001 1.33436933e-001 8.02752376e-001
      1.30854562e-001 1.28211021e+000 1.88612568e+000 2.99694203e-002
      6.82300376e-003 1.52116120e-001 3.64133835e-001 7.64532626e-001
      2.90986717e-001 1.36020434e+000 6.88489825e-002 4.41938974e-002
      9.21130255e-002 7.41924465e-001 1.25631858e-002 1.78445554e+000
      4.63491321e-001 3.44932109e-001 5.98544776e-001 5.97742526e-003
      2.26657003e-001 3.01447123e-001 7.07729518e-001 3.90323043e-001
      5.46971083e-001 3.98274630e-001 1.46285921e-001 1.32422507e-001
      1.75467003e-002 2.83070445e-001 1.45336375e-001 1.03439045e+000
      7.97074974e-001 5.51150851e-002 1.19367373e+000 1.61085546e+000
      3.16234142e-001 4.54377919e-001 4.44908470e-001 5.29625952e-001
      2.63009757e-001 1.06223173e-001 1.98250622e-001 1.63527250e+000
      9.04745907e-002 8.42935294e-002 8.08316886e-001 2.77959615e-001
      1.12724423e+000 1.13632619e+000 1.24567068e+000 3.34030598e-001
      2.91970015e-001 2.80913854e+000 1.36417651e+000 4.38430682e-002
      7.61785448e-001 5.77476285e-002 4.34304774e-001 6.29171610e-001
      1.40735075e-001 7.70380020e-001 1.19793236e+000 1.08372889e-001
      2.91473299e-001 6.33543789e-001 2.10517621e+000 3.57234091e-001
      5.81591904e-001 2.46459484e-001 7.54238546e-001 4.37037088e-002
      8.14645469e-001 8.93317223e-001 1.43692821e-001 4.44581211e-002
      1.56839527e-002 7.11504966e-002 1.51342905e+000 2.58182764e-001
      1.42829788e+000 5.26413739e-001 1.29985824e-001 5.24255872e-001
      3.57641101e-001 1.11575946e-001 1.72491431e-001 5.68715513e-001
      1.02939570e+000 3.24520379e-001 7.03662872e-001 4.37919274e-002
      4.06712852e-002 1.39413714e+000 3.92366290e-001 2.91840166e-001
      1.25664379e-002 2.24922508e-001 2.03920990e-001 2.69094765e-001
      5.42932212e-001 1.11051500e+000 3.39106172e-001 6.23902261e-001
      5.40643692e-001 1.80544481e-001 3.42391729e-002 4.83435363e-001
      1.80303052e-001 3.28903288e-001 4.48883362e-002 9.21580136e-001
      1.84410119e+000 1.80970275e+000 1.01800299e+000 1.26254368e+000
      3.12122971e-001 4.74059761e-001 1.22575223e-001 1.33747435e+000
      2.97396600e-001 1.71890333e-001 7.73266405e-002 3.59815694e-002
      4.14876163e-001 5.92200272e-002 6.09565914e-001 2.20755410e+000
      1.70384645e-002 2.03156382e-001 3.70475352e-001 1.78047135e-001
      4.25706446e-001 2.89672077e-001 2.63465494e-001 2.14956954e-001
      1.91327985e-002 1.80013880e-001 7.12644815e-001 4.35439050e-001
      4.47363853e-001 2.21876688e-002 6.46504819e-001 1.33437961e-001
      2.27367841e-002 4.05142248e-001 3.21800029e-003 6.28395796e-001
      1.89464331e-001 3.78301948e-001 8.10637295e-001 1.84873283e+000
      4.34192777e-001 1.99752096e-002 2.18165565e+000 1.59813613e-001
      2.23509803e-001 8.19688365e-002 1.17907751e+000 6.53426647e-001
      1.23033054e-001 3.62023503e-001 2.95327812e-001 2.07292318e+000
      8.24444830e-001 2.80842066e-001 5.48925400e-001 1.99984252e-001
      3.00991863e-001 1.13738790e-001 6.29914477e-002 6.70435071e-001
      3.72235298e-001 1.04675412e-001 1.58811614e-001 1.29200816e-001
      8.17022085e-001 5.71621675e-003 1.64216197e+000 2.33803257e-001
      1.82422233e+000 1.88379872e+000 1.05217740e-001 7.03361094e-001
      6.83172373e-003 1.14692943e-002 4.25354987e-001 2.77718544e-001
      2.71070361e-001 2.86295593e-001 1.78869402e+000 9.06314313e-001
      4.94989008e-001 1.33553112e+000 5.22656381e-001 3.18605334e-001 0.
      0. 0. 0. 0. 0. 0. 0. 0. 0. 0. 0. 0. 0. 0. 0. 0. 0. 0. 0. 0. 0. 0.
      0. 0. 0. 0. 0. 0. 0. 0. 0. 0. 0. 0. 0. 0. 0. 0. 0. 0. 0. 0. 0. 0.
      0. 0. 0. 0. 0. 0. 0. 0. 0. 0. 0. 0. 0. 0. 0. 0. 0. 0. 0. 0. 0. 0.
      0. 0. 0. 0. 0. 0. 0. 0. 0. 0. 0. 0. 0. 0. 0. 0. 0. 0. 0. 0. 0. 0.
      0. 0. 0. 0. 0. 0. 0. 0. 0. 0. 0.</_>
    <_>
      2.08317786e-001 9.50926483e-001 9.57744718e-001 1.36133373e+000
      3.19830105e-002 7.70123541e-001 2.94624239e-001 1.50669321e-001
      1.10229880e-001 1.76629162e+000 1.46865416e+000 9.43998218e-001
      2.07266927e+000 5.48362911e-001 1.30405664e+000 5.06671429e-001
      9.48138714e-001 4.53142315e-001 1.19445813e+000 7.06426442e-001
      6.24422014e-001 1.23696101e+000 1.04308426e+000 5.97635567e-001
      1.98463034e-002 7.93083489e-001 5.26947021e-001 1.62765062e+000
      3.08349758e-001 4.47271988e-002 5.88009596e-001 1.05633937e-001
      1.26050663e+000 4.19566482e-002 1.06817353e+000 7.88456380e-001
      4.95104849e-001 4.76668864e-001 5.97703338e-001 7.80824840e-001
      3.77745852e-002 2.88269281e-001 1.57121748e-001 2.48149514e-001
      2.30842185e+000 4.19105798e-001 1.40043163e+000 9.36989367e-001
      1.45569766e+000 8.60016108e-001 5.60871959e-002 1.57125688e+000
      2.39692926e+000 1.27184963e+000 8.16210508e-001 1.85139477e+000
      1.61440715e-001 3.22868317e-001 3.81177627e-002 8.51355076e-001
      7.75532544e-001 1.05431691e-001 2.18309723e-002 6.17673695e-001
      3.94410938e-001 5.10738611e-001 2.52945828e+000 5.06549358e-001
      7.45963871e-001 2.11842346e+000 8.95341814e-001 1.26213360e+000
      3.45492154e-001 1.81669319e+000 1.89459652e-001 1.39518648e-001
      3.22044969e-001 1.16521144e+000 5.22812545e-001 1.40680039e+000
      2.85289884e-001 7.63968766e-001 1.17509551e-001 9.16837975e-002
      1.97513425e+000 1.40742755e+000 1.25609003e-002 2.73388296e-001
      3.08319092e-001 2.76287651e+000 6.22686803e-001 2.69590676e-001
      4.48480807e-002 1.66990846e-001 7.07335234e-001 1.47125077e+000
      1.43563366e+000 1.93506241e+000 6.30108565e-002 4.40693021e-001
      1.61767554e+000 1.05810559e+000 1.48369372e-001 5.62485814e-001
      8.65305901e-001 2.40829539e+000 8.08057427e-001 3.67157944e-002
      4.52396087e-003 1.86827809e-001 6.98386550e-001 8.24817061e-001
      5.01742780e-001 1.02364206e+000 6.87975660e-002 5.11402711e-002
      4.27815557e-001 9.29011643e-001 9.12095234e-003 1.80099857e+000
      6.95462227e-001 3.82076114e-001 3.55993629e-001 5.66345686e-003
      1.09329164e-001 9.66276526e-002 2.55820966e+000 8.54398608e-001
      1.90595162e+000 4.46605027e-001 1.42795980e-001 5.74805915e-001
      1.81772765e-002 1.19515228e+000 3.10979903e-001 4.59448606e-001
      7.10032165e-001 9.49583203e-002 3.53841871e-001 1.29126620e+000
      3.92920673e-001 4.22104090e-001 6.28148139e-001 2.32646182e-001
      2.35361409e+000 2.26101413e-001 1.63482994e-001 5.84402740e-001
      2.63669223e-001 8.93895775e-002 7.16498673e-001 2.06963778e+000
      8.56133938e-001 6.30173445e-001 1.83400202e+000 5.22465050e-001
      6.73669457e-001 4.22849804e-001 4.37564403e-001 5.50742820e-002
      1.50638089e-001 2.53428034e-002 2.86685318e-001 6.26903892e-001
      8.83642882e-002 1.49723339e+000 7.74166226e-001 2.59450883e-001
      4.19503212e-001 2.03276426e-001 8.65155220e-001 1.65679604e-001
      5.88996768e-001 1.91733569e-001 3.34665561e+000 7.64551535e-002
      3.50750029e-001 1.00370586e+000 1.50242746e-001 7.29296654e-002
      2.73967329e-002 5.23294620e-002 6.87835872e-001 6.54982090e-001
      1.72892189e+000 1.98102623e-001 1.62937313e-001 1.07881963e+000
      2.60626227e-001 3.21459770e-001 1.68504521e-001 1.14997351e+000
      1.56530273e+000 3.08227956e-001 8.95419300e-001 3.80332433e-002
      5.03869317e-002 1.11545408e+000 2.14455819e+000 5.09293973e-001
      9.17295925e-003 3.75538766e-001 6.29402339e-001 1.99895144e-001
      8.16593647e-001 1.32043874e+000 1.35408819e+000 1.49805570e+000
      2.04453319e-001 1.14352979e-001 3.78711559e-002 7.55157828e-001
      1.42905518e-001 2.21821523e+000 9.15203243e-002 2.31891537e+000
      8.38838100e-001 1.35707366e+000 4.16057438e-001 2.22112632e+000
      1.48494288e-001 8.21209610e-001 4.63125616e-001 1.57462096e+000
      3.72191101e-001 1.81158647e-001 8.68781060e-002 6.76560998e-002
      8.90146255e-001 2.69332439e-001 8.87777284e-002 1.48777652e+000
      5.50529966e-003 6.28235579e-001 3.23731720e-001 5.77699661e-001
      2.05515742e-001 3.54538709e-001 2.20317766e-001 2.04653218e-001
      2.76904125e-002 3.22824895e-001 7.08114982e-001 9.34255198e-002
      3.62705320e-001 1.79792996e-002 1.65051496e+000 1.52037874e-001
      1.53266052e-002 2.06491292e-001 6.43179426e-003 6.31835639e-001
      1.19600266e-001 2.38090491e+000 2.32678056e+000 2.72983289e+000
      4.50235933e-001 3.34324613e-002 1.06295788e+000 1.78760350e-001
      1.59188703e-001 1.14831544e-001 1.24487913e+000 4.76614445e-001
      1.16595142e-001 3.49122494e-001 1.02720566e-001 1.12933421e+000
      2.52501607e+000 3.47143203e-001 2.97792643e-001 7.82137811e-002
      1.97713232e+000 4.49053496e-002 6.13350235e-002 5.26229918e-001
      6.07550442e-001 1.68174982e-001 2.45176047e-001 5.38657531e-002
      1.34458864e+000 6.87841978e-003 2.81473577e-001 2.62718379e-001
      9.32696939e-001 1.29825211e+000 1.85726345e-001 2.05288553e+000
      7.79942237e-003 2.96894591e-002 4.59281534e-001 7.67519712e-001
      7.22998619e-001 3.53415191e-001 2.22960904e-001 1.49261689e+000
      2.59971118e+000 1.55131269e+000 6.73995137e-001 1.03973794e+000 0.
      0. 0. 0. 0. 0. 0. 0. 0. 0. 0. 0. 0. 0. 0. 0. 0. 0. 0. 0. 0. 0. 0.
      0. 0. 0. 0. 0. 0. 0. 0. 0. 0. 0. 0. 0. 0. 0. 0. 0. 0. 0. 0. 0. 0.
      0. 0. 0. 0. 0. 0. 0. 0. 0. 0. 0. 0. 0. 0. 0. 0. 0. 0. 0. 0. 0. 0.
      0. 0. 0. 0. 0. 0. 0. 0. 0. 0. 0. 0. 0. 0. 0. 0. 0. 0. 0. 0. 0. 0.
      0. 0. 0. 0. 0. 0. 0. 0. 0. 0. 0.</_>
    <_>
      1.41339928e-001 1.17999363e+000 7.24192798e-001 8.45630348e-001
      2.35751141e-002 1.19195104e+000 2.62731910e-001 2.13244885e-001
      3.38326991e-002 7.76684761e-001 1.52884793e+000 2.18060684e+000
      1.60984194e+000 1.14101052e+000 2.41527843e+000 6.00661159e-001
      1.19835889e+000 3.65313768e-001 4.02655810e-001 5.98050654e-001
      6.26247168e-001 5.03265977e-001 9.29899752e-001 2.58381993e-001
      4.06699516e-002 1.44710755e+000 4.90939915e-001 5.70141673e-001
      5.40255189e-001 4.95450236e-002 2.49636784e-001 2.29776070e-001
      5.28782785e-001 1.31815284e-001 1.14770472e+000 7.70872653e-001
      2.47990623e-001 6.56955302e-001 2.51985431e-001 6.78944767e-001
      2.12808661e-002 5.81397116e-001 2.34413132e-001 1.29707888e-001
      1.39944029e+000 3.78491640e-001 8.94282579e-001 1.37485123e+000
      8.41896594e-001 9.35544193e-001 4.33914661e-002 4.77972984e-001
      1.00884533e+000 6.20479465e-001 5.03616214e-001 1.87860501e+000
      2.41935566e-001 4.43352193e-001 2.05514934e-002 3.91665220e-001
      3.78028601e-001 4.08783436e-001 1.81554984e-002 2.70956844e-001
      3.48980159e-001 7.24310040e-001 2.00679398e+000 3.17127109e-001
      1.31351602e+000 1.24216986e+000 7.36834645e-001 7.71652997e-001
      7.33795106e-001 6.22361422e-001 7.89355755e-001 1.84390292e-001
      1.73419118e-001 1.31879008e+000 3.34741622e-001 7.18630314e-001
      3.99354607e-001 6.71372831e-001 7.84682110e-002 1.29366502e-001
      2.11556053e+000 9.60340500e-001 1.65825691e-002 2.76617199e-001
      7.61946499e-001 2.00431919e+000 4.14018869e-001 3.26786041e-001
      1.44715965e-001 4.85420734e-001 2.94481134e+000 6.83076501e-001
      1.03627324e+000 8.71459126e-001 9.44599360e-002 3.50615293e-001
      1.58548093e+000 7.23479390e-001 1.21297076e-001 2.86684185e-001
      8.18555117e-001 9.06714380e-001 1.15557492e+000 3.80341969e-002
      6.26045186e-003 1.53353035e-001 7.25751877e-001 1.57989323e+000
      2.87990868e-001 3.30566823e-001 3.41293849e-002 2.39093825e-002
      2.01335669e-001 4.98505205e-001 8.75756424e-003 2.19094133e+000
      3.63127857e-001 7.77220905e-001 1.91349074e-001 6.14967663e-003
      1.69084728e-001 1.85865596e-001 1.65512514e+000 4.31498885e-001
      1.39171076e+000 2.07251713e-001 1.63448751e-001 3.66243422e-001
      1.48249669e-002 1.87130284e+000 1.34128004e-001 4.39620912e-001
      4.01042521e-001 5.13631217e-002 3.98365170e-001 6.51986063e-001
      2.95486838e-001 2.67900348e-001 4.54686195e-001 2.83519357e-001
      1.26494527e+000 1.15466133e-001 9.30308029e-002 9.70725358e-001
      1.92611292e-001 6.37758076e-002 6.94807231e-001 4.00430530e-001
      6.22999907e-001 9.25036192e-001 1.00233376e+000 4.05642003e-001
      4.07808304e-001 1.54221857e+000 5.02868831e-001 4.43867818e-002
      7.43411541e-001 3.90221253e-002 1.73978031e-001 2.09617019e+000
      1.17817238e-001 9.93853927e-001 8.79730582e-001 1.89299747e-001
      5.17219543e-001 8.57556760e-001 9.96358395e-001 2.32167453e-001
      4.04700011e-001 3.90784860e-001 2.09627867e+000 4.09321114e-002
      2.74942219e-001 3.02888364e-001 5.05568326e-001 5.94189502e-002
      1.58567131e-002 5.34401424e-002 9.86384869e-001 4.13903028e-001
      7.56246090e-001 3.30798388e-001 2.31607839e-001 1.41133356e+000
      5.94120741e-001 1.62178665e-001 1.49924561e-001 1.40932488e+000
      5.42436898e-001 3.56974214e-001 1.10466397e+000 2.05853302e-002
      2.31727473e-002 8.73616219e-001 1.09484220e+000 3.72565150e-001
      8.74359161e-003 4.08564299e-001 2.75560468e-001 1.49957269e-001
      1.50688410e+000 5.99171817e-001 1.51641023e+000 6.40189886e-001
      3.64158481e-001 7.79751465e-002 2.21500341e-002 1.60529256e+000
      7.01534078e-002 1.00543058e+000 5.06576896e-002 1.76526356e+000
      7.86187172e-001 1.06264663e+000 4.27068681e-001 1.07470560e+000
      2.01661021e-001 3.80656302e-001 2.21881223e+000 5.42563498e-001
      2.66524255e-001 2.04061583e-001 4.02988978e-002 4.71974574e-002
      3.08281898e-001 2.14038670e-001 3.91485780e-001 1.17368031e+000
      1.80204920e-002 5.05870759e-001 1.20625570e-001 1.11235619e+000
      7.84410596e-001 7.52877474e-001 1.76552266e-001 1.81933552e-001
      1.62604880e-002 6.53446376e-001 2.22522676e-001 3.24441880e-001
      3.50000471e-001 1.80593710e-002 9.94496465e-001 1.08189747e-001
      1.56533178e-002 1.84038937e-001 8.92863516e-003 1.21550977e+000
      1.41397759e-001 1.09085155e+000 1.32446432e+000 1.00202072e+000
      1.05900908e+000 1.94380246e-002 1.58181036e+000 1.17619835e-001
      2.32701316e-001 5.36914580e-002 9.03169334e-001 4.47263658e-001
      8.26241076e-002 1.55514270e-001 5.20536602e-001 1.29802823e+000
      1.81428325e+000 4.72647488e-001 4.13286597e-001 2.99736202e-001
      1.15546453e+000 1.40388831e-001 2.85455883e-002 3.25529933e-001
      4.77566004e-001 1.37643114e-001 4.78423089e-001 1.23768419e-001
      5.19350529e-001 7.49491621e-003 8.96126628e-001 2.68941402e-001
      9.29648519e-001 1.05091310e+000 7.67693296e-002 7.21075416e-001
      6.82066334e-003 2.29029916e-002 2.96945095e-001 5.65151215e-001
      7.92191386e-001 5.14556587e-001 9.19470549e-001 1.75706828e+000
      1.42123330e+000 1.52950037e+000 8.18547785e-001 1.54629457e+000 0.
      0. 0. 0. 0. 0. 0. 0. 0. 0. 0. 0. 0. 0. 0. 0. 0. 0. 0. 0. 0. 0. 0.
      0. 0. 0. 0. 0. 0. 0. 0. 0. 0. 0. 0. 0. 0. 0. 0. 0. 0. 0. 0. 0. 0.
      0. 0. 0. 0. 0. 0. 0. 0. 0. 0. 0. 0. 0. 0. 0. 0. 0. 0. 0. 0. 0. 0.
      0. 0. 0. 0. 0. 0. 0. 0. 0. 0. 0. 0. 0. 0. 0. 0. 0. 0. 0. 0. 0. 0.
      0. 0. 0. 0. 0. 0. 0. 0. 0. 0. 0.</_>
    <_>
      1.41059712e-001 1.04178989e+000 9.47253168e-001 4.25386935e-001
      2.65742820e-002 6.96716905e-001 6.00301325e-001 1.92330927e-001
      2.87253022e-001 1.29854965e+000 6.59878075e-001 1.32356453e+000
      2.67857766e+000 7.46723890e-001 1.22808349e+000 4.43608731e-001
      5.89639902e-001 6.73975945e-001 1.08196938e+000 5.40025711e-001
      4.95395899e-001 3.80748868e-001 1.21355963e+000 4.01399285e-001
      1.91363823e-002 1.12442136e+000 3.91581684e-001 1.24022925e+000
      2.80784458e-001 5.12995943e-002 4.07810807e-001 6.15226142e-002
      1.04927027e+000 8.10515136e-002 7.03886509e-001 6.22023880e-001
      4.45616096e-001 4.44817036e-001 4.06120121e-001 9.44783449e-001
      2.32780930e-002 6.23659253e-001 1.87287077e-001 1.53752252e-001
      1.42694604e+000 3.89562726e-001 8.75238717e-001 8.67957234e-001
      1.10509229e+000 7.57835329e-001 4.22651358e-002 1.01916289e+000
      1.51308036e+000 6.74285471e-001 7.42234826e-001 7.07340658e-001
      1.14927538e-001 3.41131985e-001 2.74727661e-002 7.96364844e-001
      1.28090560e+000 1.83781862e-001 1.10380715e-002 5.99927068e-001
      3.92277569e-001 8.90722334e-001 7.53398359e-001 5.36310673e-001
      6.69456542e-001 2.20628595e+000 1.02356195e+000 1.16724086e+000
      1.14162505e+000 1.27679884e+000 1.20734870e+000 3.13760757e-001
      3.93885046e-001 1.04121697e+000 5.13750017e-001 1.14005280e+000
      2.91276962e-001 8.07941258e-001 1.69790208e-001 1.12073846e-001
      1.60263121e+000 7.86151230e-001 5.39102182e-002 4.90705848e-001
      1.33824348e+000 5.11877835e-001 3.95112634e-001 2.40260318e-001
      8.04712623e-002 2.49693498e-001 2.07439327e+000 1.17495191e+000
      8.50692987e-001 1.04404485e+000 6.15968853e-002 4.10341084e-001
      1.86488032e+000 3.70834857e-001 1.91887677e-001 5.49085855e-001
      5.82075119e-001 1.73399162e+000 6.69328034e-001 4.99752909e-002
      2.49001607e-002 2.09523290e-001 5.37639201e-001 1.19768035e+000
      3.32218617e-001 6.79927588e-001 4.52490188e-002 2.27538645e-002
      1.82819426e-001 5.57459414e-001 9.57132503e-003 1.63454413e+000
      7.84427285e-001 2.65112877e-001 4.29233849e-001 7.33188353e-003
      2.31804892e-001 5.19218035e-002 7.84060657e-001 7.03456402e-001
      3.01155597e-001 5.64167500e-001 1.36989623e-001 5.29653549e-001
      2.29819715e-002 1.41054416e+000 1.76793262e-001 3.02896857e-001
      1.02899468e+000 6.00545146e-002 4.79698062e-001 3.85373116e-001
      3.95102233e-001 5.86265326e-001 3.42533588e-001 2.82648385e-001
      1.00227714e+000 2.64169723e-001 1.44107580e-001 6.05661571e-001
      1.91827521e-001 7.68073797e-002 4.58845645e-001 1.69545472e+000
      6.58487737e-001 1.34879637e+000 2.06507301e+000 5.63694000e-001
      6.90823317e-001 6.15751743e-001 5.14118969e-001 4.37178351e-002
      5.24090528e-001 1.61317792e-002 3.37867022e-001 1.09005511e+000
      1.74497411e-001 1.75138772e+000 9.90235567e-001 2.73993552e-001
      4.01401430e-001 3.40371251e-001 9.99138594e-001 1.46634892e-001
      5.08312881e-001 3.38354856e-001 2.48344198e-001 3.62811610e-002
      4.36200649e-001 7.79939651e-001 2.23185599e-001 6.34508282e-002
      1.68155171e-002 4.18873280e-002 8.58261168e-001 3.54088068e-001
      9.03911352e-001 3.05802286e-001 2.08297282e-001 9.93845105e-001
      4.68591005e-001 3.26856494e-001 1.71437904e-001 1.71259320e+000
      9.96512294e-001 3.79361808e-001 7.61641800e-001 2.71407086e-002
      2.21323948e-002 1.75077069e+000 1.04978049e+000 2.95812935e-001
      9.59910359e-003 2.59142280e-001 4.18532997e-001 1.29081711e-001
      2.35630468e-001 1.84186399e+000 1.80328703e+000 8.62448454e-001
      2.82875776e-001 1.69576049e-001 2.92806718e-002 1.37464023e+000
      1.56861708e-001 1.04157531e+000 4.40665074e-002 1.34745932e+000
      5.94194651e-001 5.41609883e-001 5.49252629e-001 1.91770923e+000
      5.62263131e-001 4.96713936e-001 8.75483453e-001 2.21724391e+000
      4.45743024e-001 1.09032258e-001 6.13504872e-002 5.19862361e-002
      5.12408078e-001 1.63770214e-001 8.99810493e-001 4.38866198e-001
      1.45289153e-002 6.68031335e-001 3.12903851e-001 7.07246006e-001
      1.07708514e+000 4.08734649e-001 2.11526379e-001 2.07656547e-001
      1.44125558e-002 6.32083595e-001 3.64658356e-001 1.25525862e-001
      3.38389188e-001 4.50272895e-002 6.41668558e-001 2.16936186e-001
      5.13982102e-002 3.91278207e-001 7.69396871e-003 1.15671694e+000
      1.12314403e-001 4.05313551e-001 1.02355039e+000 1.24305713e+000
      3.48508835e-001 2.16909628e-002 8.64400148e-001 7.83485472e-002
      1.11177973e-001 6.69462234e-002 9.20399487e-001 5.49690843e-001
      1.04088522e-001 3.26328784e-001 7.09558010e-001 1.15030134e+000
      1.01723182e+000 4.92326796e-001 5.24808526e-001 5.33055782e-001
      2.93046802e-001 8.18507671e-002 3.76380570e-002 6.66970313e-001
      5.61378479e-001 1.55257612e-001 2.45618314e-001 3.34114246e-002
      7.83073485e-001 7.06946803e-003 7.11977661e-001 2.34369576e-001
      6.68342829e-001 1.28628933e+000 2.04710782e-001 1.04278743e+000
      4.96676471e-003 2.78759990e-002 6.72331929e-001 2.39599138e-001
      3.95137310e-001 3.50196689e-001 6.49040043e-001 1.27296698e+000
      9.66213584e-001 5.74375927e-001 4.62641269e-001 1.29491246e+000 0.
      0. 0. 0. 0. 0. 0. 0. 0. 0. 0. 0. 0. 0. 0. 0. 0. 0. 0. 0. 0. 0. 0.
      0. 0. 0. 0. 0. 0. 0. 0. 0. 0. 0. 0. 0. 0. 0. 0. 0. 0. 0. 0. 0. 0.
      0. 0. 0. 0. 0. 0. 0. 0. 0. 0. 0. 0. 0. 0. 0. 0. 0. 0. 0. 0. 0. 0.
      0. 0. 0. 0. 0. 0. 0. 0. 0. 0. 0. 0. 0. 0. 0. 0. 0. 0. 0. 0. 0. 0.
      0. 0. 0. 0. 0. 0. 0. 0. 0. 0. 0.</_>
    <_>
      1.71425626e-001 1.66382682e+000 3.06959033e-001 1.10806787e+000
      1.81910377e-002 8.03695202e-001 4.84898567e-001 1.71618506e-001
      2.97575910e-002 2.42597198e+000 1.03180444e+000 1.02268493e+000
      1.26397908e+000 8.27960730e-001 4.82312620e-001 5.74346900e-001
      2.69861341e-001 3.76224846e-001 7.26145148e-001 3.45758021e-001
      7.98894465e-001 3.37418407e-001 9.80990410e-001 3.11092556e-001
      4.43223789e-002 2.65205801e-001 2.97498167e-001 9.87158358e-001
      1.05157924e+000 3.69072855e-002 4.52879280e-001 1.86935708e-001
      8.33353639e-001 1.23384587e-001 1.16619277e+000 7.56183207e-001
      5.98452389e-001 8.43187571e-001 4.02240038e-001 2.35358763e+000
      1.91432163e-002 6.65817380e-001 2.05772474e-001 1.32658392e-001
      1.45351017e+000 2.74725342e+000 9.70773399e-001 9.15588498e-001
      2.06494856e+000 1.59330356e+000 9.07931179e-002 1.31462172e-001
      2.17085528e+000 1.22838771e+000 3.42318982e-001 8.64353538e-001
      1.00084983e-001 3.51469666e-001 8.21853243e-003 7.52410114e-001
      3.86031002e-001 1.32702470e+000 5.73078031e-003 4.21900749e-001
      4.02514666e-001 1.00422788e+000 8.18627179e-001 4.58319485e-001
      4.78987604e-001 5.73275506e-001 1.84554648e+000 9.72982705e-001
      2.76226473e+000 1.37929928e+000 4.17917311e-001 2.15671733e-001
      6.62670135e-002 1.42503306e-001 5.07662416e-001 1.68945050e+000
      1.53208181e-001 3.92853886e-001 2.73145996e-002 7.82969072e-002
      1.72751355e+000 1.10199773e+000 2.33851615e-002 1.86449409e-001
      1.52035224e+000 1.53398049e+000 7.69576788e-001 6.12765968e-001
      5.21104485e-002 1.01470017e+000 4.17424530e-001 1.56917489e+000
      1.16772306e+000 1.13470387e+000 4.27400619e-002 3.64788711e-001
      1.05528903e+000 2.02869797e+000 2.20327571e-001 8.50878716e-001
      2.37434015e-001 1.42974472e+000 1.56445062e+000 3.70484293e-002
      7.73461116e-003 1.17302693e-001 3.43334436e-001 1.76325476e+000
      2.10026965e-001 1.47305119e+000 4.16839458e-002 2.48350967e-002
      9.80819315e-002 4.33382034e-001 6.31073164e-003 4.60910916e-001
      2.59880304e-001 9.03800905e-001 3.91755223e-001 4.72299382e-003
      1.80770308e-001 2.19402879e-001 1.39559674e+000 7.14263558e-001
      6.38110995e-001 3.59565884e-001 1.09777562e-001 4.04466897e-001
      1.79075804e-002 8.65067899e-001 1.58689573e-001 5.49180567e-001
      4.61259812e-001 6.92224577e-002 1.08047295e+000 1.10287535e+000
      3.95721495e-001 4.34911221e-001 7.35144973e-001 4.64450151e-001
      2.81002551e-001 1.05105549e-001 1.21821806e-001 1.26255846e+000
      1.58514947e-001 1.10271417e-001 6.97292149e-001 1.24669838e+000
      5.70183516e-001 1.59929112e-001 1.31678748e+000 3.99266243e-001
      2.97317892e-001 1.41963840e+000 5.21530747e-001 3.17840241e-002
      5.64687669e-001 2.18354296e-002 5.82746506e-001 1.04352975e+000
      1.18461750e-001 6.27111673e-001 2.29306746e+000 2.08255738e-001
      2.17578381e-001 7.05822289e-001 1.74752021e+000 2.28205010e-001
      8.23236823e-001 4.99989122e-001 6.14145339e-001 5.44394366e-002
      9.46367681e-001 8.12964976e-001 2.03337118e-001 6.37829602e-002
      1.44544663e-002 3.72102559e-002 1.12819815e+000 3.62689316e-001
      9.84355569e-001 4.37129498e-001 9.11881402e-002 1.84500682e+000
      5.36076427e-001 1.39990658e-001 2.35775381e-001 1.35658014e+000
      1.53420699e+000 3.76893371e-001 1.26746550e-001 8.07613786e-003
      2.51643602e-002 8.60009849e-001 2.37017736e-001 5.11582077e-001
      6.26253895e-003 3.21858764e-001 1.88196048e-001 2.04505369e-001
      6.52945518e-001 1.81033599e+000 1.38139784e+000 1.18310773e+000
      2.30626151e-001 2.66308747e-002 2.01465953e-002 4.00982946e-001
      3.21923569e-002 6.48748457e-001 5.40638231e-002 1.43810225e+000
      9.54370916e-001 1.13922799e+000 1.28656960e+000 6.60888255e-001
      1.62928477e-001 6.47731960e-001 2.74563968e-001 5.23050368e-001
      3.32798928e-001 8.07955787e-002 6.61501363e-002 4.10619080e-002
      6.34259522e-001 1.09966218e-001 2.30655313e-001 8.89372528e-001
      6.27946202e-003 4.94868994e-001 1.74417734e-001 2.76385605e-001
      1.76040626e+000 3.45118642e-001 1.21585935e-001 1.70663521e-001
      2.19970830e-002 3.61645132e-001 3.74138921e-001 1.87914848e-001
      3.04842174e-001 1.31049315e-002 1.49328363e+000 1.02984458e-001
      2.23789681e-002 4.87223864e-002 5.33175422e-003 1.72943497e+000
      1.14390336e-001 2.90550798e-001 1.37513375e+000 1.00321877e+000
      7.64281213e-001 2.36149505e-002 8.49581301e-001 4.69022319e-002
      1.08671837e-001 5.07202595e-002 1.14985871e+000 5.15701354e-001
      1.61430776e-001 8.44768956e-002 1.60315454e+000 1.80526686e+000
      1.06025958e+000 5.34763992e-001 3.18161368e-001 3.57061058e-001
      4.73327905e-001 5.05821556e-002 4.14811075e-002 4.12649632e-001
      8.90623331e-001 1.42943710e-001 2.96904951e-001 3.86408009e-002
      1.25615954e+000 6.64314441e-003 7.56287932e-001 6.39501512e-001
      9.46148157e-001 2.54363132e+000 9.26170722e-002 1.73011839e+000
      5.33322804e-003 1.85857937e-002 4.91600156e-001 5.71620226e-001
      4.77468133e-001 2.42401600e-001 1.09069335e+000 1.25196671e+000
      8.00374091e-001 1.37093461e+000 9.59106266e-001 9.21076179e-001 0.
      0. 0. 0. 0. 0. 0. 0. 0. 0. 0. 0. 0. 0. 0. 0. 0. 0. 0. 0. 0. 0. 0.
      0. 0. 0. 0. 0. 0. 0. 0. 0. 0. 0. 0. 0. 0. 0. 0. 0. 0. 0. 0. 0. 0.
      0. 0. 0. 0. 0. 0. 0. 0. 0. 0. 0. 0. 0. 0. 0. 0. 0. 0. 0. 0. 0. 0.
      0. 0. 0. 0. 0. 0. 0. 0. 0. 0. 0. 0. 0. 0. 0. 0. 0. 0. 0. 0. 0. 0.
      0. 0. 0. 0. 0. 0. 0. 0. 0. 0. 0.</_>
    <_>
      1.03881396e-001 8.49398971e-001 4.61952418e-001 5.04526854e-001
      2.12079138e-002 3.15728009e-001 7.45398700e-001 1.87205136e-001
      1.78010583e-001 2.68320727e+000 1.28075385e+000 1.52617085e+000
      1.14257550e+000 1.37134230e+000 5.52639008e-001 2.75389075e-001
      3.95627826e-001 3.68494153e-001 6.49374962e-001 5.12206256e-001
      4.46521342e-001 4.52235103e-001 9.37773407e-001 4.15421784e-001
      2.60960422e-002 1.34187067e+000 4.25145805e-001 6.56032801e-001
      6.06567860e-001 6.54817075e-002 4.79274064e-001 1.03558518e-001
      5.43205082e-001 8.58658552e-002 1.17852414e+000 9.72205877e-001
      3.57916236e-001 5.36865294e-001 3.89011443e-001 1.28092563e+000
      1.59685723e-002 1.62874985e+000 2.53442526e-001 1.13415234e-001
      7.54519105e-001 4.36157376e-001 1.97969723e+000 8.41615558e-001
      2.10005569e+000 7.49972343e-001 1.11450404e-001 2.53005409e+000
      1.39407003e+000 1.91174555e+000 7.47640014e-001 8.02340746e-001
      1.57543749e-001 4.84979272e-001 6.20568264e-003 6.05773389e-001
      1.08502138e+000 1.99342287e+000 8.54025315e-003 4.91105646e-001
      2.63093799e-001 9.11452591e-001 8.73395681e-001 5.40789068e-001
      1.33668065e+000 2.72307658e+000 1.50141060e+000 4.38370973e-001
      7.99864531e-001 2.22529912e+000 4.31668967e-001 3.25950533e-001
      9.91722494e-002 2.16835737e+000 7.53457069e-001 9.50473547e-001
      4.68708843e-001 3.09550017e-001 5.48820384e-002 1.41983986e-001
      2.10159993e+000 6.16897345e-001 4.05889638e-002 4.78417397e-001
      9.88898695e-001 2.03821421e+000 4.33631688e-001 9.93876457e-001
      1.20878182e-001 1.63458502e+000 1.40815878e+000 1.10504079e+000
      1.87595594e+000 1.18230617e+000 1.02796577e-001 5.62759042e-001
      1.74916196e+000 7.46704161e-001 2.70036638e-001 9.36326146e-001
      3.34748387e-001 1.14750493e+000 1.30566871e+000 3.70927081e-002
      1.83812827e-002 8.86122137e-002 9.93557453e-001 2.20064473e+000
      2.50914663e-001 1.08329105e+000 4.98859361e-002 4.59196381e-002
      1.55053645e-001 2.49315545e-001 1.22819021e-002 6.16454542e-001
      9.03663635e-001 2.89310843e-001 6.07094467e-001 7.49521470e-003
      2.29661539e-001 1.03529193e-001 1.70901978e+000 3.64087671e-001
      3.49221885e-001 4.97318625e-001 2.56301910e-001 9.72140849e-001
      2.59902682e-002 1.50383210e+000 1.39126867e-001 8.43598008e-001
      3.99328053e-001 4.74984199e-002 9.96967077e-001 1.07374978e+000
      3.31949085e-001 5.26711285e-001 8.10741544e-001 2.99008578e-001
      2.84324837e+000 3.13514858e-001 2.03034639e-001 7.59016395e-001
      2.63415337e-001 1.07557118e-001 6.18204117e-001 1.22253537e+000
      8.38633180e-001 2.37686262e-001 1.42517316e+000 3.01070124e-001
      5.48168182e-001 2.27734900e+000 6.37035847e-001 2.91536693e-002
      2.88935691e-001 3.59323695e-002 4.61122125e-001 2.20701361e+000
      1.32586509e-001 2.08977556e+000 1.54462576e+000 1.17939807e-001
      4.58367169e-001 6.89665318e-001 2.55133581e+000 1.20291322e-001
      6.06828570e-001 5.76300621e-001 3.08570296e-001 2.44031381e-002
      8.23590159e-001 4.83136147e-001 2.14248598e-001 7.58483410e-002
      1.52685111e-002 6.84039295e-002 1.04196334e+000 3.52021515e-001
      1.39729536e+000 5.40610015e-001 3.49328607e-001 1.77438760e+000
      5.69389582e-001 3.62540632e-001 3.16214949e-001 1.84158611e+000
      8.81730735e-001 7.82544434e-001 1.82344484e+000 5.82219521e-003
      4.71680760e-002 1.45387530e+000 1.70976424e+000 2.50701040e-001
      1.23252580e-002 2.77141809e-001 3.56231391e-001 2.82766402e-001
      8.45511556e-001 2.11716628e+000 1.59845042e+000 1.05118012e+000
      2.03671157e-001 5.68675920e-002 1.31670656e-002 1.27947533e+000
      3.07853632e-002 6.66539907e-001 3.80397812e-002 9.48081672e-001
      1.37625396e+000 1.17823577e+000 7.73322821e-001 1.12471700e+000
      5.22561371e-001 6.72874212e-001 5.13663828e-001 1.59355032e+000
      4.35073942e-001 1.11396447e-001 6.02831319e-002 5.38491644e-002
      1.41588664e+000 2.79189318e-001 1.70594192e+000 1.29422450e+000
      1.39217451e-002 1.19437480e+000 2.13447928e-001 6.08214438e-001
      9.66312468e-001 3.30424339e-001 9.02810171e-002 2.58872449e-001
      1.41484747e-002 4.05631870e-001 4.56238896e-001 1.05462760e-001
      2.13100135e-001 3.77140231e-002 4.34840649e-001 2.13917732e-001
      4.74940985e-002 1.60018012e-001 8.32227711e-003 2.09144163e+000
      2.08183080e-001 3.53240579e-001 1.09055197e+000 1.78864694e+000
      4.52437580e-001 2.37969533e-002 2.32571363e+000 1.06227353e-001
      1.13918923e-001 5.12810051e-002 9.30611014e-001 3.80216628e-001
      2.28353336e-001 9.43065733e-002 8.60369623e-001 9.06143188e-001
      1.54378951e+000 1.58937120e+000 4.37817276e-001 4.04730588e-001
      3.24613690e-001 1.11411177e-001 5.98221608e-002 6.20408893e-001
      6.35120928e-001 2.12875590e-001 3.74800861e-001 8.06224421e-002
      4.34802741e-001 9.42139979e-003 9.07420456e-001 5.49412310e-001
      7.55110979e-001 3.12181687e+000 1.96051717e-001 1.57937789e+000
      6.28595054e-003 2.14270893e-002 6.70595527e-001 8.18094194e-001
      3.23395550e-001 4.67217356e-001 6.17160141e-001 1.83362651e+000
      9.43656445e-001 1.13827562e+000 9.34007883e-001 1.60343719e+000 0.
      0. 0. 0. 0. 0. 0. 0. 0. 0. 0. 0. 0. 0. 0. 0. 0. 0. 0. 0. 0. 0. 0.
      0. 0. 0. 0. 0. 0. 0. 0. 0. 0. 0. 0. 0. 0. 0. 0. 0. 0. 0. 0. 0. 0.
      0. 0. 0. 0. 0. 0. 0. 0. 0. 0. 0. 0. 0. 0. 0. 0. 0. 0. 0. 0. 0. 0.
      0. 0. 0. 0. 0. 0. 0. 0. 0. 0. 0. 0. 0. 0. 0. 0. 0. 0. 0. 0. 0. 0.
      0. 0. 0. 0. 0. 0. 0. 0. 0. 0. 0.</_>
    <_>
      2.32772887e-001 9.78803396e-001 2.40610883e-001 1.40343118e+000
      2.47258097e-002 1.47550511e+000 5.52335322e-001 1.28739983e-001
      6.91965669e-002 1.08239198e+000 7.17469752e-001 9.67475176e-001
      4.96596128e-001 1.06574738e+000 1.82388330e+000 1.14323485e+000
      4.31702882e-001 3.97434592e-001 4.60868686e-001 6.16167724e-001
      6.98938251e-001 3.18774909e-001 4.59563911e-001 3.47620815e-001
      2.80492939e-002 4.68672782e-001 3.00824434e-001 5.13842940e-001
      6.05794966e-001 5.97521402e-002 3.76675338e-001 1.08677685e-001
      4.63859230e-001 9.11181197e-002 9.61228132e-001 1.26488018e+000
      3.67920667e-001 6.36688530e-001 3.12598795e-001 8.79042208e-001
      2.48870309e-002 6.14935398e-001 4.30896699e-001 1.64013669e-001
      1.83755338e+000 2.01407242e+000 1.57484829e+000 7.57418931e-001
      1.48478270e+000 1.12601089e+000 4.71081138e-002 2.01934505e+000
      1.23693037e+000 7.64656782e-001 3.92383635e-001 7.76648104e-001
      1.69582561e-001 3.66653711e-001 2.45385673e-002 6.88515425e-001
      7.71184742e-001 1.58565557e+000 3.20225991e-002 6.64916337e-001
      4.42104727e-001 2.24615121e+000 8.63389015e-001 5.30697882e-001
      1.33599877e+000 2.35080409e+000 1.08086216e+000 1.06678653e+000
      6.77285135e-001 8.09022844e-001 5.74419439e-001 2.34339729e-001
      8.04828703e-002 1.41318655e+000 5.47307134e-001 4.66012686e-001
      4.53781843e-001 4.54375237e-001 3.88257354e-002 1.77214861e-001
      2.12774253e+000 1.44835699e+000 2.09506545e-002 2.20986634e-001
      1.42043054e+000 2.94185042e+000 5.79514444e-001 3.87127370e-001
      2.10094854e-001 2.26716137e+000 8.27298343e-001 3.92694324e-001
      1.93986595e+000 1.81015241e+000 1.01433299e-001 3.03043097e-001
      2.39961600e+000 1.15931046e+000 1.08453587e-001 2.20958441e-001
      3.70200396e-001 9.31888878e-001 1.40615070e+000 6.33525997e-002
      1.03863114e-002 1.86370373e-001 3.06922197e-001 1.23082864e+000
      2.63260663e-001 6.76094651e-001 5.03743701e-002 2.51661390e-002
      1.81970909e-001 6.00440204e-001 9.42443497e-003 2.37745500e+000
      3.27156991e-001 5.20775497e-001 3.78108293e-001 7.96863437e-003
      4.61474985e-001 1.18824691e-001 1.97950327e+000 7.74922550e-001
      1.23159897e+000 4.68643546e-001 1.70950323e-001 5.13333738e-001
      2.32135523e-002 3.83876801e-001 1.26256838e-001 3.58403862e-001
      4.88435507e-001 4.31125239e-002 2.15505660e-001 1.03571498e+000
      4.99685854e-001 4.33533221e-001 5.47453403e-001 5.78908503e-001
      2.62112141e+000 1.98136061e-001 1.61298335e-001 9.49806392e-001
      1.99204624e-001 6.57870173e-002 5.67106664e-001 9.92529809e-001
      7.07541406e-001 4.75404710e-001 8.06261241e-001 3.10770035e-001
      3.53193402e-001 1.25866330e+000 3.46369863e-001 5.99092580e-002
      4.62997377e-001 1.82588752e-002 3.17675442e-001 9.80992556e-001
      1.92205742e-001 1.56379855e+000 1.15698409e+000 2.47995913e-001
      3.54983985e-001 5.65308034e-001 9.15009618e-001 1.91969514e-001
      3.01735431e-001 4.62285578e-001 1.23896503e+000 6.57742545e-002
      2.67405748e-001 6.11297309e-001 5.21588981e-001 5.67748398e-002
      1.46197835e-002 4.23841886e-002 1.31114674e+000 4.12370741e-001
      9.72156584e-001 3.24435890e-001 1.53433189e-001 9.51277316e-001
      5.53366899e-001 2.33065099e-001 1.26618341e-001 1.02893901e+000
      1.01175594e+000 5.27553737e-001 1.35266197e+000 2.50118412e-002
      2.42081080e-002 1.32373047e+000 9.22895372e-001 5.27940094e-001
      9.46111232e-003 4.10848051e-001 2.57762820e-001 2.48026282e-001
      1.25739598e+000 1.05201268e+000 4.57202971e-001 8.63956511e-001
      3.45750362e-001 3.85313556e-002 2.39793472e-002 6.39119923e-001
      4.32347767e-002 1.02008760e+000 6.13689832e-002 1.37409914e+000
      7.76249528e-001 8.50962698e-001 1.62935531e+000 1.29288507e+000
      1.41186714e-001 3.69609058e-001 6.71313643e-001 1.10948300e+000
      3.14100474e-001 1.05845794e-001 5.86043596e-002 4.83607128e-002
      4.64138299e-001 1.89913511e-001 2.26596880e+000 8.40463102e-001
      3.68607491e-002 8.42657447e-001 2.68878222e-001 4.11154956e-001
      1.14276469e+000 5.77186227e-001 1.29282653e-001 3.59808654e-001
      2.44434718e-002 5.86336434e-001 4.73479211e-001 1.13387041e-001
      3.05230856e-001 2.34717689e-002 1.02774072e+000 2.54548490e-001
      1.94169898e-002 1.11808129e-001 8.58181901e-003 7.94323504e-001
      1.27144486e-001 6.45655155e-001 8.81306827e-001 1.04719090e+000
      9.53376353e-001 2.58423574e-002 2.00863457e+000 1.11674450e-001
      1.06672242e-001 4.38479595e-002 1.01027441e+000 5.27374923e-001
      1.26635268e-001 7.43833408e-002 8.37426782e-001 1.13269699e+000
      1.08201420e+000 3.77622902e-001 4.87523764e-001 8.39403391e-001
      6.77463770e-001 2.01773867e-001 5.59889935e-002 1.06249166e+000
      6.33382022e-001 2.08499223e-001 4.24250573e-001 1.21291690e-001
      5.43373287e-001 1.41499080e-002 1.03159463e+000 7.27956593e-001
      5.67108274e-001 2.31942201e+000 2.03510329e-001 8.13699186e-001
      8.24347418e-003 2.25259326e-002 5.22416413e-001 5.10621071e-001
      7.79041886e-001 3.46943527e-001 1.03102863e+000 1.98090255e+000
      1.12586451e+000 3.91750067e-001 1.12100995e+000 4.56533402e-001 0.
      0. 0. 0. 0. 0. 0. 0. 0. 0. 0. 0. 0. 0. 0. 0. 0. 0. 0. 0. 0. 0. 0.
      0. 0. 0. 0. 0. 0. 0. 0. 0. 0. 0. 0. 0. 0. 0. 0. 0. 0. 0. 0. 0. 0.
      0. 0. 0. 0. 0. 0. 0. 0. 0. 0. 0. 0. 0. 0. 0. 0. 0. 0. 0. 0. 0. 0.
      0. 0. 0. 0. 0. 0. 0. 0. 0. 0. 0. 0. 0. 0. 0. 0. 0. 0. 0. 0. 0. 0.
      0. 0. 0. 0. 0. 0. 0. 0. 0. 0. 0.</_>
    <_>
      1.03751771e-001 8.10105801e-001 2.86538959e-001 7.60466158e-001
      1.88658461e-002 5.79966366e-001 3.51905882e-001 2.32780725e-001
      2.92334080e-001 6.86220825e-001 7.96839058e-001 7.93395102e-001
      4.82879311e-001 9.74168956e-001 1.46308732e+000 4.16625082e-001
      6.21096373e-001 3.28657836e-001 6.79828525e-001 3.25653732e-001
      5.54546714e-001 4.33789194e-001 3.72588456e-001 3.90354007e-001
      1.42663857e-002 6.31001174e-001 4.68506724e-001 3.82524014e-001
      2.11410552e-001 5.65187223e-002 2.90246844e-001 4.47483696e-002
      4.01181638e-001 3.99164036e-002 9.33927655e-001 8.90385687e-001
      3.66683096e-001 3.26934159e-001 2.89577931e-001 1.68008196e+000
      1.54591603e-002 1.19932342e+000 1.76626965e-001 8.55583102e-002
      8.96476686e-001 1.19452024e+000 6.36836171e-001 5.50081372e-001
      2.45642304e+000 5.90796351e-001 1.05277270e-001 6.30680680e-001
      1.54414761e+000 9.76256013e-001 2.61120945e-001 4.75162059e-001
      8.81341398e-002 3.75333250e-001 7.78090255e-003 5.76119721e-001
      1.58465660e+000 1.73641741e+000 1.20177520e-002 2.67027408e-001
      3.99972647e-001 1.05819547e+000 5.00644803e-001 3.67327809e-001
      1.03399014e+000 6.15168452e-001 1.72452164e+000 5.42304099e-001
      1.03437996e+000 1.26680315e+000 4.00318474e-001 1.24443740e-001
      3.11731137e-002 3.10540438e-001 5.05774617e-001 8.06204796e-001
      1.80978298e-001 1.85556874e-001 1.61499064e-002 7.73846209e-002
      1.23320019e+000 7.38760114e-001 8.77947360e-002 1.79897308e-001
      1.23054671e+000 1.66079402e+000 2.85358667e-001 2.10339621e-001
      1.34664536e-001 3.54626626e-001 7.91650355e-001 6.76594198e-001
      6.56088173e-001 1.60125124e+000 1.22415096e-001 3.84472907e-001
      1.35694230e+000 1.19469738e+000 2.07727671e-001 4.69759136e-001
      2.66397208e-001 1.04745960e+000 1.44043171e+000 3.66627872e-002
      3.76281515e-002 7.96235502e-002 2.36090913e-001 4.21923012e-001
      1.87586799e-001 6.16951823e-001 3.89976576e-002 3.96730639e-002
      1.74236044e-001 3.77542078e-001 9.84554645e-003 1.21844292e+000
      6.45735323e-001 5.78738153e-001 2.92100221e-001 3.83825647e-003
      3.50429565e-001 6.26295432e-002 1.53811002e+000 4.74806368e-001
      9.09203410e-001 4.33878213e-001 1.98935941e-001 7.44688332e-001
      3.42802294e-002 3.27106357e-001 1.31897062e-001 7.40688980e-001
      3.28805953e-001 3.90278250e-002 5.97321570e-001 5.39576471e-001
      3.21652651e-001 4.50659424e-001 4.85850483e-001 3.23079526e-001
      7.88399577e-001 1.63506106e-001 1.18783303e-001 5.26862264e-001
      1.37597397e-001 8.17889273e-002 3.96201193e-001 1.46475732e+000
      7.20065236e-001 8.03656697e-001 8.66137087e-001 2.58053422e-001
      1.61773592e-001 5.84447563e-001 7.13927388e-001 4.06520106e-002
      2.63970137e-001 3.82846557e-002 3.74419123e-001 6.86630070e-001
      1.32553428e-001 6.41414762e-001 1.93565130e+000 1.45755351e-001
      2.02695101e-001 2.92285889e-001 1.13694334e+000 1.44618988e-001
      3.97014529e-001 1.67944327e-001 8.34265113e-001 5.65423928e-002
      3.89301628e-001 5.70249379e-001 2.31843978e-001 4.51213196e-002
      1.50547745e-002 2.95393374e-002 1.18653607e+000 2.45564103e-001
      5.69775879e-001 3.09398681e-001 2.37814516e-001 6.31229639e-001
      2.48090252e-001 2.09856987e-001 2.27043882e-001 4.34388518e-001
      6.40271187e-001 2.78542221e-001 2.83592463e-001 7.80500006e-003
      3.87874655e-002 1.22904360e+000 6.80442750e-001 4.01829809e-001
      9.78915486e-003 2.96241969e-001 2.13597059e-001 2.81837940e-001
      7.48849034e-001 7.13818192e-001 3.48342508e-001 6.58688366e-001
      4.21276301e-001 1.59315094e-002 1.84448529e-002 6.91927552e-001
      1.69338714e-002 2.40759730e-001 5.08713275e-002 9.39660192e-001
      6.69693887e-001 1.07440114e+000 1.20355105e+000 6.12479329e-001
      1.26791823e+000 3.22774768e-001 6.68303907e-001 1.69112766e+000
      1.47542447e-001 1.00776911e-001 6.53022230e-002 2.84351837e-002
      9.22254205e-001 1.14919111e-001 3.36095005e-001 1.05495656e+000
      1.32742925e-002 4.33383733e-001 2.44936973e-001 6.91942811e-001
      1.17246187e+000 5.81395626e-001 1.23740390e-001 2.56174684e-001
      1.81154869e-002 3.71772707e-001 3.83155584e-001 1.05899148e-001
      2.32132643e-001 5.58071360e-002 1.18097401e+000 2.45907024e-001
      1.19029835e-001 3.64064313e-002 4.40626265e-003 3.33013654e-001
      1.14016093e-001 1.76049739e-001 5.27022004e-001 7.12726355e-001
      4.99683201e-001 1.91826932e-002 2.46813083e+000 7.18094558e-002
      1.00646704e-001 4.17867191e-002 4.73916471e-001 5.10943651e-001
      6.52404726e-002 4.45879847e-002 8.17397892e-001 9.40709352e-001
      1.07348430e+000 5.61224520e-001 3.53505701e-001 1.85480759e-001
      4.94161397e-001 1.27374128e-001 5.16423061e-002 5.20390987e-001
      2.88881332e-001 2.85490125e-001 2.39785597e-001 1.18799813e-001
      3.18008542e-001 1.23645961e-002 8.75793874e-001 4.61844265e-001
      4.42308307e-001 1.21774840e+000 1.51541591e-001 1.01950431e+000
      5.15194656e-003 1.78081077e-002 4.47957128e-001 3.46963406e-001
      6.04573667e-001 2.01550081e-001 3.75153720e-001 8.49497437e-001
      9.16911185e-001 7.74642825e-001 1.29120564e+000 2.85297960e-001 0.
      0. 0. 0. 0. 0. 0. 0. 0. 0. 0. 0. 0. 0. 0. 0. 0. 0. 0. 0. 0. 0. 0.
      0. 0. 0. 0. 0. 0. 0. 0. 0. 0. 0. 0. 0. 0. 0. 0. 0. 0. 0. 0. 0. 0.
      0. 0. 0. 0. 0. 0. 0. 0. 0. 0. 0. 0. 0. 0. 0. 0. 0. 0. 0. 0. 0. 0.
      0. 0. 0. 0. 0. 0. 0. 0. 0. 0. 0. 0. 0. 0. 0. 0. 0. 0. 0. 0. 0. 0.
      0. 0. 0. 0. 0. 0. 0. 0. 0. 0. 0.</_>
    <_>
      1.78778931e-001 1.66395199e+000 6.31466925e-001 7.49099314e-001
      1.37199219e-002 3.51460963e-001 5.60763180e-001 4.80749667e-001
      6.03972450e-002 2.53183794e+000 8.13393116e-001 6.78711832e-001
      4.82588559e-001 6.67101443e-001 7.12739408e-001 3.52004856e-001
      1.85005546e-001 2.76888072e-001 8.71148586e-001 4.49014544e-001
      8.97866309e-001 2.67713279e-001 1.43642247e+000 7.03015566e-001
      1.65884085e-002 4.17668819e-001 4.90542978e-001 9.61347878e-001
      1.09862339e+000 3.02298535e-002 5.94858348e-001 8.54951367e-002
      9.31246996e-001 5.70156500e-002 1.18302333e+000 9.96088803e-001
      5.87316513e-001 6.92587018e-001 4.78652120e-001 1.04470301e+000
      3.40549648e-002 1.16191733e+000 1.38023436e-001 1.55477673e-001
      2.03798580e+000 1.37729898e-001 1.10002470e+000 9.01698470e-001
      1.29571402e+000 6.49248779e-001 8.34869146e-002 3.75963718e-001
      1.75901079e+000 6.52634501e-001 8.47705901e-001 4.31773782e-001
      6.27721474e-002 6.20447755e-001 6.33101258e-003 6.75592303e-001
      7.62077391e-001 6.14436805e-001 7.26489304e-003 5.56934178e-001
      3.83125514e-001 1.11213994e+000 4.23374742e-001 7.04391479e-001
      9.57124293e-001 6.19456708e-001 1.34129512e+000 7.40032673e-001
      6.79384708e-001 1.86911196e-001 6.21147335e-001 2.36115307e-001
      7.28281438e-002 1.08829074e-001 7.06914186e-001 1.24219084e+000
      5.98278642e-002 2.36789510e-001 3.41235995e-002 1.05407156e-001
      1.18268526e+000 1.45101225e+000 1.55538842e-002 4.66224194e-001
      1.60591292e+000 1.13904631e+000 4.61386651e-001 2.36232266e-001
      3.61668058e-002 2.28676414e+000 4.33268934e-001 1.22394025e+000
      1.39247286e+000 2.02712631e+000 1.15986578e-001 2.27495894e-001
      1.98080170e+000 1.77961123e+000 1.81963310e-001 3.00123900e-001
      2.24768296e-001 2.40146756e+000 2.69635057e+000 3.41915749e-002
      5.33974636e-003 2.15591386e-001 5.89600027e-001 1.13218176e+000
      1.68190226e-001 1.45176876e+000 7.70122856e-002 4.97948043e-002
      8.59225243e-002 7.43697882e-001 1.81813668e-002 8.52583170e-001
      2.10495651e-001 4.70427334e-001 3.07530582e-001 4.50297724e-003
      1.33421242e-001 6.37837797e-002 7.82355905e-001 8.45432699e-001
      5.36189973e-001 3.91795844e-001 1.42993927e-001 6.96295083e-001
      1.94760095e-002 1.75239432e+000 2.15644419e-001 3.92012626e-001
      4.01238054e-001 7.73468018e-002 3.39579999e-001 8.71515095e-001
      4.52574849e-001 4.21844572e-001 5.64332485e-001 3.35746497e-001
      4.45465326e-001 9.19346437e-002 1.45921305e-001 5.36673367e-001
      2.08464459e-001 1.07567854e-001 8.52261841e-001 1.74585140e+000
      8.84102881e-001 4.95185941e-001 1.60346258e+000 5.66917181e-001
      6.93778634e-001 6.37103498e-001 4.31651950e-001 4.54296879e-002
      5.29027224e-001 8.18648711e-002 2.71002531e-001 4.79187310e-001
      5.31368814e-002 4.35278386e-001 1.20944786e+000 1.31643653e-001
      5.83763123e-002 8.44126344e-001 7.23997891e-001 5.29232085e-001
      6.63492441e-001 2.27660090e-001 4.96247709e-001 8.48900005e-002
      2.76110828e-001 1.22458899e+000 1.35098785e-001 7.51056969e-002
      1.89747643e-002 3.44015323e-002 6.19318068e-001 4.70573336e-001
      6.41947448e-001 2.89300233e-001 1.81481302e-001 9.39479768e-001
      4.34572101e-001 3.45001429e-001 2.05762133e-001 1.05940390e+000
      1.31645215e+000 5.21224499e-001 1.06706083e-001 6.26493711e-003
      5.07036559e-002 1.03000772e+000 8.85434747e-002 4.29611653e-001
      1.82163678e-002 5.18991947e-001 4.59581912e-001 2.08121255e-001
      6.19450986e-001 2.47027111e+000 1.13569701e+000 1.01480174e+000
      5.39805114e-001 3.38243134e-002 1.36006437e-002 4.78470743e-001
      2.45284829e-002 4.36618537e-001 8.07121545e-002 2.64812803e+000
      7.46337593e-001 7.74251342e-001 1.46040463e+000 1.09868634e+000
      1.65419057e-001 7.45765686e-001 2.33076185e-001 1.20596230e+000
      1.62437156e-001 2.55689472e-001 8.28545690e-002 5.55652119e-002
      6.58395708e-001 1.02944143e-001 7.68306315e-001 8.59121680e-001
      7.18327332e-003 2.21270949e-001 2.85827905e-001 1.98184371e-001
      5.23094058e-001 2.09451213e-001 2.35854104e-001 7.81994238e-002
      2.76957527e-002 4.72473443e-001 3.55948955e-001 1.63588554e-001
      6.29292905e-001 1.44359497e-002 1.93487191e+000 1.22136548e-001
      2.50318237e-002 8.98748860e-002 5.46335708e-003 2.10947585e+000
      1.00122951e-001 1.18246175e-001 7.67430305e-001 1.46007109e+000
      4.21984673e-001 3.74918059e-002 1.35867226e+000 5.97743876e-002
      2.64904469e-001 7.42906183e-002 6.24513626e-001 9.06333447e-001
      8.38700384e-002 6.67162463e-002 1.15023804e+000 2.03231621e+000
      8.22887599e-001 1.68365285e-001 3.31791431e-001 8.19152415e-001
      2.84579903e-001 3.63758095e-002 6.83521479e-002 3.42851341e-001
      8.17967832e-001 1.54853478e-001 2.10631162e-001 3.27827372e-002
      3.61414552e-001 6.26907311e-003 6.22770905e-001 4.41635102e-002
      6.48828983e-001 1.78717458e+000 1.61851183e-001 1.61851728e+000
      6.53366698e-003 1.37449531e-002 3.11681181e-001 4.12728280e-001
      4.83343661e-001 4.51524667e-002 2.11618495e+000 1.26506925e+000
      9.57717776e-001 8.21544230e-001 1.23921263e+000 1.75962174e+000 0.
      0. 0. 0. 0. 0. 0. 0. 0. 0. 0. 0. 0. 0. 0. 0. 0. 0. 0. 0. 0. 0. 0.
      0. 0. 0. 0. 0. 0. 0. 0. 0. 0. 0. 0. 0. 0. 0. 0. 0. 0. 0. 0. 0. 0.
      0. 0. 0. 0. 0. 0. 0. 0. 0. 0. 0. 0. 0. 0. 0. 0. 0. 0. 0. 0. 0. 0.
      0. 0. 0. 0. 0. 0. 0. 0. 0. 0. 0. 0. 0. 0. 0. 0. 0. 0. 0. 0. 0. 0.
      0. 0. 0. 0. 0. 0. 0. 0. 0. 0. 0.</_>
    <_>
      1.31586716e-001 7.09679842e-001 2.72731483e-001 7.31590152e-001
      1.30397752e-002 1.47517765e+000 2.13033140e-001 2.34975472e-001
      2.55041093e-001 1.37768018e+000 4.20354754e-001 4.70963985e-001
      7.49517620e-001 1.84117898e-001 5.14806390e-001 5.80167234e-001
      1.09386660e-001 2.17815831e-001 1.98001337e+000 5.02551973e-001
      6.66047335e-001 1.18510179e-001 7.05879927e-001 5.64210773e-001
      1.47197442e-002 9.98741508e-001 4.02404726e-001 4.22493786e-001
      5.37905276e-001 4.91436124e-002 4.42835033e-001 5.24715781e-002
      3.98824275e-001 3.94552723e-002 8.00780594e-001 8.20367098e-001
      5.16626120e-001 4.66176331e-001 3.85553867e-001 5.56102335e-001
      1.55510046e-002 1.17935991e+000 2.47478589e-001 1.48514718e-001
      1.15061283e+000 1.38140213e+000 7.13729560e-001 9.99428272e-001
      6.03320539e-001 8.08980823e-001 3.45475748e-002 1.42751980e+000
      1.00079691e+000 3.86412859e-001 2.95426279e-001 1.62780836e-001
      2.19698891e-001 3.97984773e-001 5.51874004e-003 1.17324948e+000
      4.39502001e-001 3.07248443e-001 5.10221487e-003 3.28862458e-001
      4.53654557e-001 1.16915143e+000 2.13194206e-001 4.86169338e-001
      6.48361742e-001 5.12442708e-001 6.29506111e-001 3.69057864e-001
      2.59734631e-001 6.26874149e-001 1.25523436e+000 9.15091410e-002
      1.52072236e-002 1.66082931e+000 6.17588162e-001 1.15371466e+000
      4.30331528e-001 2.87551731e-001 7.78211793e-003 8.08494985e-002
      1.97412026e+000 1.04006934e+000 4.08280604e-002 1.62133247e-001
      1.58251166e+000 1.86580014e+000 4.77466971e-001 2.24742338e-001
      3.38261575e-002 7.15345919e-001 2.76208401e-001 1.08921325e+000
      7.93027043e-001 9.74524319e-001 7.39735216e-002 4.80445623e-001
      2.19510889e+000 1.33265007e+000 7.54264444e-002 2.41730437e-001
      1.30201727e-001 9.86632943e-001 1.06622279e+000 2.23149918e-002
      2.10174974e-002 1.80045411e-001 3.83751839e-001 7.47811675e-001
      8.59633610e-002 5.85396349e-001 3.72471958e-002 3.46939005e-002
      5.26609011e-002 5.14009297e-001 9.32343304e-003 1.07520902e+000
      8.66700470e-001 6.90735161e-001 1.85990930e-001 3.36901727e-003
      6.44905642e-002 3.82080078e-002 1.34129846e+000 4.96074378e-001
      5.72815463e-002 1.80340827e-001 8.11402053e-002 8.67735803e-001
      4.77161556e-002 6.91265166e-001 1.56181425e-001 4.17609960e-001
      1.68307826e-001 5.07207178e-002 3.17060471e-001 1.01236331e+000
      3.86902928e-001 2.28613690e-001 4.99807954e-001 3.15220386e-001
      1.20655036e+000 9.07809213e-002 1.64373979e-001 1.28579772e+000
      1.70442536e-001 5.08329868e-002 7.78798819e-001 9.31936622e-001
      4.34477329e-001 4.85547423e-001 1.44168687e+000 3.04914355e-001
      2.55731493e-001 1.28311956e+000 5.81654489e-001 4.06908281e-002
      1.29289699e+000 4.19711433e-002 2.62042880e-001 5.66443384e-001
      1.28390178e-001 3.34638238e-001 6.16825759e-001 1.11241587e-001
      3.80385786e-001 4.35627788e-001 5.17237067e-001 2.24434078e-001
      3.09452146e-001 2.87214398e-001 1.06433019e-001 4.93603982e-002
      2.27030441e-001 9.69333947e-001 2.48733997e-001 5.99095561e-002
      2.19266023e-002 5.85418046e-002 4.94758189e-001 3.92904520e-001
      1.21549642e+000 3.87690455e-001 1.33922875e-001 4.65301961e-001
      2.68142194e-001 4.53624099e-001 9.14857164e-002 9.58897471e-001
      5.53493500e-001 6.53292239e-001 1.35135651e+000 5.49509283e-003
      3.35032716e-002 6.64243937e-001 7.83463418e-001 3.49408239e-001
      9.32482444e-003 2.75200218e-001 1.81492314e-001 1.46624580e-001
      7.17246890e-001 9.18995678e-001 1.06523371e+000 9.71040666e-001
      5.17881334e-001 7.79682165e-003 1.27843106e-002 1.00655866e+000
      9.79000051e-003 8.92913222e-001 5.30623123e-002 1.24889636e+000
      1.40009391e+000 7.32675552e-001 8.52897644e-001 1.26380253e+000
      6.91987723e-002 3.10115844e-001 3.36876363e-001 3.98717761e-001
      3.11127782e-001 1.67774603e-001 5.41190505e-002 5.47979623e-002
      3.08923811e-001 1.43960655e-001 6.15627766e-001 8.48409116e-001
      5.95948100e-003 3.20562690e-001 7.15269297e-002 1.34837210e-001
      2.72197515e-001 1.38794303e-001 1.68528020e-001 1.88983798e-001
      1.61063932e-002 4.79516864e-001 3.73988092e-001 9.25646648e-002
      4.16196167e-001 5.46144396e-002 1.09404516e+000 2.72963643e-001
      2.05018148e-002 2.12008953e-002 3.02128610e-003 8.32305372e-001
      1.66266888e-001 2.74153948e-001 4.65609550e-001 7.12077022e-001
      4.48711008e-001 1.62505563e-002 8.12562585e-001 5.70046119e-002
      1.36910662e-001 6.27066195e-002 8.09728086e-001 3.32065850e-001
      6.53973520e-002 3.02795563e-002 2.97140867e-001 7.62423456e-001
      2.13969088e+000 1.72434366e+000 3.97906780e-001 2.79159516e-001
      1.42372280e-001 3.31587978e-002 6.06177002e-002 1.41420698e+000
      4.79368597e-001 1.39084399e-001 1.44470990e-001 4.73413765e-002
      3.33121985e-001 1.59529243e-002 1.39920342e+000 8.76537442e-001
      8.00262809e-001 1.55424285e+000 1.14206195e-001 5.21645546e-001
      4.23306320e-003 1.31445145e-002 1.01943292e-001 7.60499060e-001
      6.36344373e-001 3.76550376e-001 7.25440979e-001 1.10441291e+000
      1.06084573e+000 9.19770300e-001 9.89190996e-001 8.48205268e-001 0.
      0. 0. 0. 0. 0. 0. 0. 0. 0. 0. 0. 0. 0. 0. 0. 0. 0. 0. 0. 0. 0. 0.
      0. 0. 0. 0. 0. 0. 0. 0. 0. 0. 0. 0. 0. 0. 0. 0. 0. 0. 0. 0. 0. 0.
      0. 0. 0. 0. 0. 0. 0. 0. 0. 0. 0. 0. 0. 0. 0. 0. 0. 0. 0. 0. 0. 0.
      0. 0. 0. 0. 0. 0. 0. 0. 0. 0. 0. 0. 0. 0. 0. 0. 0. 0. 0. 0. 0. 0.
      0. 0. 0. 0. 0. 0. 0. 0. 0. 0. 0.</_>
    <_>
      1.32150739e-001 1.22995079e+000 3.18828136e-001 6.96818173e-001
      1.99818425e-002 5.44470847e-001 2.85063446e-001 1.34063974e-001
      9.72202867e-002 1.07082570e+000 7.84841239e-001 6.73371613e-001
      6.92519009e-001 7.47732639e-001 1.59197521e+000 3.21418136e-001
      7.30734169e-001 3.89958262e-001 4.27577317e-001 5.97547233e-001
      9.00348067e-001 1.06477940e+000 7.42950857e-001 6.38511240e-001
      1.85883548e-002 3.73389989e-001 3.91139120e-001 5.63183725e-001
      3.56031984e-001 4.75087538e-002 8.45760345e-001 9.63928625e-002
      6.13844573e-001 4.38110121e-002 1.17493320e+000 5.80184400e-001
      7.78806984e-001 3.96072298e-001 5.52531779e-001 1.15076804e+000
      2.50757635e-002 6.90430760e-001 2.38321513e-001 1.55508503e-001
      1.24109089e+000 4.21741277e-001 6.68516874e-001 1.37452495e+000
      1.73169184e+000 5.33931196e-001 8.74551758e-002 1.33905721e+000
      5.28409660e-001 1.61925161e+000 5.91509402e-001 1.09331501e+000
      4.81221005e-002 8.31039369e-001 3.36065590e-002 7.92549610e-001
      1.79725456e+000 3.11807334e-001 2.37973705e-002 5.66586971e-001
      6.58778429e-001 1.25807142e+000 1.37289822e+000 6.72618568e-001
      7.99868107e-001 9.03360724e-001 1.28370988e+000 3.82046521e-001
      6.33922458e-001 1.24381018e+000 3.46008807e-001 2.73943394e-001
      3.02127004e-001 1.75576001e-001 5.07275403e-001 1.71004534e+000
      1.87717572e-001 4.10080612e-001 2.10445061e-001 7.00748861e-002
      2.19364977e+000 1.06602359e+000 1.98094677e-002 1.28203821e+000
      1.14059341e+000 2.65275145e+000 5.25826395e-001 3.63567650e-001
      5.65251112e-002 1.09047604e+000 1.27789354e+000 1.62312818e+000
      9.55070138e-001 2.08438587e+000 7.58901313e-002 2.82134950e-001
      2.23617554e+000 1.29345238e+000 1.97290987e-001 8.70498657e-001
      6.00543320e-001 8.30654800e-001 9.63962495e-001 1.96428634e-002
      9.78533924e-003 1.44333780e-001 4.31517810e-001 8.57634723e-001
      6.40717208e-001 1.30117440e+000 7.65730590e-002 6.88451156e-002
      2.87436068e-001 6.13774657e-001 8.55380017e-003 1.28287959e+000
      6.59430921e-001 2.79616982e-001 2.69929737e-001 7.46468222e-003
      1.31962344e-001 8.59233811e-002 1.06827557e+000 7.54469395e-001
      7.55303144e-001 6.69161916e-001 2.05892310e-001 6.27954602e-001
      1.62949394e-002 6.27437055e-001 2.52643198e-001 3.82638037e-001
      7.46926248e-001 5.26796803e-002 6.68906271e-001 5.06424069e-001
      4.52175111e-001 5.99568605e-001 3.77403259e-001 3.66193980e-001
      1.62145877e+000 7.24300370e-002 1.37533486e-001 1.14537323e+000
      2.13280559e-001 1.31204471e-001 7.20183074e-001 2.51398945e+000
      1.02550447e+000 9.85142171e-001 8.13235343e-001 5.31752765e-001
      3.90584499e-001 9.95668173e-001 4.12188619e-001 3.75692844e-002
      3.22361976e-001 2.86153350e-002 2.42023021e-001 6.63744450e-001
      1.16832800e-001 6.94620073e-001 1.38329268e+000 2.05676258e-001
      1.24052219e-001 3.89119506e-001 1.24690092e+000 1.12843804e-001
      6.01243138e-001 1.75187051e-001 1.00533199e+000 6.26224875e-002
      5.23811340e-001 1.40070951e+000 4.63265926e-001 6.33528680e-002
      2.02512722e-002 3.54038663e-002 8.24991941e-001 3.91222239e-001
      7.85845160e-001 3.91042113e-001 2.62516230e-001 7.28327215e-001
      4.94825840e-001 1.62940323e-001 2.26259947e-001 1.02695453e+000
      4.94581282e-001 1.72530782e+000 2.38666534e-001 3.38621251e-002
      7.20194876e-002 1.04929686e+000 6.90103352e-001 4.58523691e-001
      8.61417968e-003 4.30440426e-001 2.03935638e-001 2.22318262e-001
      1.78321004e+000 8.73586118e-001 8.59492183e-001 1.02743435e+000
      4.05295670e-001 2.15339139e-001 3.29622887e-002 4.90532696e-001
      1.38852581e-001 8.98826420e-001 7.61820376e-002 1.13543940e+000
      6.56610668e-001 5.89074433e-001 4.72555369e-001 1.27485979e+000
      1.74707055e-001 6.89790130e-001 1.70768368e+000 1.68544352e+000
      3.04809481e-001 1.38267010e-001 6.65159971e-002 5.61941080e-002
      7.06745386e-001 1.80107370e-001 2.98579514e-001 5.41370988e-001
      5.91597334e-003 5.42039752e-001 1.00260280e-001 9.59015608e-001
      6.84477687e-001 4.27829891e-001 1.88697830e-001 1.89885706e-001
      2.36573666e-002 3.63995850e-001 2.49617815e-001 1.44504398e-001
      3.28157663e-001 2.17455607e-002 1.61938596e+000 1.20119721e-001
      2.12795194e-002 5.09508431e-001 8.64537060e-003 3.36624533e-001
      1.26732737e-001 6.29704297e-001 4.49094594e-001 2.46494603e+000
      3.62964988e-001 2.75043305e-002 2.72370934e+000 2.02060148e-001
      1.48624286e-001 6.11229911e-002 1.47428811e+000 6.19132221e-001
      1.73649311e-001 2.70348787e-001 5.41543365e-001 1.38692963e+000
      1.60216248e+000 5.82654655e-001 3.32906842e-001 5.26665509e-001
      8.42081249e-001 5.64365312e-002 5.22213615e-002 5.05167127e-001
      3.65642935e-001 1.34015262e-001 2.77849227e-001 4.35946211e-002
      1.33670664e+000 6.46963203e-003 7.09777594e-001 1.89105168e-001
      9.43394840e-001 1.58181655e+000 7.30843544e-002 1.55847669e+000
      8.44630320e-003 1.89726371e-002 3.15903604e-001 5.91239870e-001
      2.68420517e-001 1.03417009e-001 1.42893124e+000 1.40039837e+000
      1.54661596e+000 5.66095054e-001 9.63904560e-001 5.59463799e-001 0.
      0. 0. 0. 0. 0. 0. 0. 0. 0. 0. 0. 0. 0. 0. 0. 0. 0. 0. 0. 0. 0. 0.
      0. 0. 0. 0. 0. 0. 0. 0. 0. 0. 0. 0. 0. 0. 0. 0. 0. 0. 0. 0. 0. 0.
      0. 0. 0. 0. 0. 0. 0. 0. 0. 0. 0. 0. 0. 0. 0. 0. 0. 0. 0. 0. 0. 0.
      0. 0. 0. 0. 0. 0. 0. 0. 0. 0. 0. 0. 0. 0. 0. 0. 0. 0. 0. 0. 0. 0.
      0. 0. 0. 0. 0. 0. 0. 0. 0. 0. 0.</_>
    <_>
      9.75003988e-002 9.89853084e-001 3.06584299e-001 4.37294751e-001
      2.01967359e-002 5.11306703e-001 5.49062371e-001 1.30080938e-001
      3.25192720e-001 6.06617868e-001 8.39183271e-001 1.47126901e+000
      4.24450248e-001 3.17936093e-001 1.13288307e+000 1.68868229e-001
      2.80855626e-001 3.44493002e-001 8.36380422e-001 4.32746559e-001
      3.29914331e-001 2.26537690e-001 6.42161369e-001 4.09511298e-001
      1.58582460e-002 7.85872161e-001 3.70497078e-001 3.45981210e-001
      3.73353928e-001 5.60093112e-002 4.00760740e-001 5.07187396e-002
      3.68186474e-001 4.50428985e-002 6.31243467e-001 9.53148067e-001
      4.67661977e-001 4.39985216e-001 4.18706536e-001 1.48342371e+000
      1.75722595e-002 1.61510241e+000 2.29010224e-001 1.04758844e-001
      1.18784237e+000 1.28966606e+000 5.86388409e-001 4.57435817e-001
      1.12448657e+000 8.35413992e-001 6.02580048e-002 9.41493750e-001
      6.63848221e-001 7.10475743e-001 6.05303824e-001 8.82603049e-001
      1.16037160e-001 2.53506422e-001 9.30401869e-003 8.41652334e-001
      8.06244254e-001 2.37734008e+000 2.67990381e-002 3.76756519e-001
      4.64282960e-001 6.98436856e-001 7.61529982e-001 4.86132652e-001
      9.31389034e-001 9.80742455e-001 1.61103296e+000 1.09428144e+000
      4.93177027e-001 1.08752215e+000 9.25505996e-001 1.36732057e-001
      1.95481330e-001 1.23193932e+000 4.98772085e-001 6.74275041e-001
      1.72308311e-001 5.34914374e-001 7.45106936e-002 6.37674481e-002
      9.46854889e-001 9.68090177e-001 5.13307899e-002 1.60736233e-001
      1.21164596e+000 1.01862729e+000 4.30250764e-001 2.88591474e-001
      2.94530511e-001 5.63854694e-001 8.16450894e-001 6.38163805e-001
      8.54423106e-001 9.57311273e-001 1.01374157e-001 1.45745218e+000
      8.32428038e-001 9.70301986e-001 1.47612587e-001 3.40729743e-001
      3.20541024e-001 9.32053149e-001 6.61362648e-001 4.91288602e-002
      3.47884744e-002 1.26490399e-001 3.82812709e-001 1.06758380e+000
      7.88465291e-002 1.12882197e+000 5.59792481e-002 2.78237555e-002
      1.85139641e-001 3.41410100e-001 1.16017871e-002 9.44122314e-001
      9.50208068e-001 6.40856087e-001 2.89542854e-001 5.01473341e-003
      5.25589585e-001 4.62131947e-002 1.03333700e+000 7.31473804e-001
      5.59057355e-001 5.46603084e-001 1.37240931e-001 1.14454401e+000
      9.12962109e-002 5.19255996e-001 1.26849845e-001 6.21077299e-001
      6.67740166e-001 4.29572128e-002 5.55302322e-001 6.78349137e-001
      2.93847442e-001 5.12786269e-001 3.97290319e-001 3.03778410e-001
      8.46851051e-001 1.73312455e-001 1.29524156e-001 4.19124782e-001
      1.35088265e-001 7.14215860e-002 4.65374589e-001 6.95230722e-001
      3.21187288e-001 1.29344976e+000 5.50784588e-001 3.05577815e-001
      2.81113952e-001 3.43012899e-001 9.21317995e-001 5.69046624e-002
      1.14741039e+000 2.50548627e-002 2.57728934e-001 1.21508348e+000
      1.19903810e-001 7.45049715e-001 1.42338717e+000 1.48472056e-001
      1.86782524e-001 4.22103196e-001 9.64415491e-001 1.35874808e-001
      2.48094842e-001 4.84768063e-001 6.02829218e-001 6.39153719e-002
      3.63305926e-001 8.37950706e-001 2.18045250e-001 4.97507863e-002
      1.87733769e-002 7.03883395e-002 4.19548988e-001 3.57323140e-001
      1.03142667e+000 3.56540918e-001 1.93408236e-001 1.39192975e+000
      5.58974087e-001 7.64246583e-001 1.20153889e-001 1.00987959e+000
      1.59777117e+000 2.36028761e-001 1.20416009e+000 9.03880969e-003
      2.36991663e-002 8.14655721e-001 8.16113651e-001 4.64114517e-001
      1.16246212e-002 3.37230742e-001 1.58280745e-001 3.21450621e-001
      6.14010632e-001 5.47292173e-001 6.35893404e-001 7.00590491e-001
      6.01441920e-001 7.25509524e-002 1.78109445e-002 7.56834388e-001
      6.26170039e-002 4.52223301e-001 6.96315169e-002 6.62643194e-001
      1.80274534e+000 1.16201651e+000 5.25086999e-001 5.91868043e-001
      2.30538979e-001 4.45119292e-001 8.07799041e-001 6.43634379e-001
      7.42809594e-001 1.49181530e-001 6.68836907e-002 4.96898592e-002
      3.03886116e-001 1.29534051e-001 2.56291842e+000 1.04828703e+000
      4.45605256e-002 2.83430874e-001 3.66046071e-001 3.61941069e-001
      4.30470914e-001 3.50831062e-001 1.67506278e-001 4.38710749e-001
      1.37074338e-002 3.82046133e-001 4.97365922e-001 1.05957069e-001
      6.27085745e-001 7.80244470e-002 9.67321217e-001 9.78317738e-001
      2.74051633e-002 1.87258437e-001 6.58306479e-003 1.00093269e+000
      2.34529883e-001 3.33880007e-001 1.54492211e+000 1.76838720e+000
      1.09147632e+000 1.62504874e-002 1.02774441e+000 5.59579805e-002
      1.53785095e-001 5.94328158e-002 4.64116633e-001 5.90944529e-001
      1.20947801e-001 1.66738480e-001 4.24155056e-001 1.20006597e+000
      1.28167808e+000 2.00247002e+000 3.49939108e-001 3.74189109e-001
      5.28605044e-001 2.85777628e-001 7.36034811e-002 1.25204134e+000
      6.15275919e-001 1.58910900e-001 2.51167238e-001 1.61640763e-001
      3.10894907e-001 4.28797044e-002 1.20790529e+000 6.64525688e-001
      6.74443126e-001 8.42956066e-001 1.72990620e-001 7.58162379e-001
      7.24281976e-003 2.13042703e-002 6.33594513e-001 3.83547634e-001
      2.37351567e-001 1.88343868e-001 9.58043575e-001 1.21379435e+000
      1.00804150e+000 1.09006441e+000 6.27609730e-001 6.13082886e-001 0.
      0. 0. 0. 0. 0. 0. 0. 0. 0. 0. 0. 0. 0. 0. 0. 0. 0. 0. 0. 0. 0. 0.
      0. 0. 0. 0. 0. 0. 0. 0. 0. 0. 0. 0. 0. 0. 0. 0. 0. 0. 0. 0. 0. 0.
      0. 0. 0. 0. 0. 0. 0. 0. 0. 0. 0. 0. 0. 0. 0. 0. 0. 0. 0. 0. 0. 0.
      0. 0. 0. 0. 0. 0. 0. 0. 0. 0. 0. 0. 0. 0. 0. 0. 0. 0. 0. 0. 0. 0.
      0. 0. 0. 0. 0. 0. 0. 0. 0. 0. 0.</_>
    <_>
      9.50025991e-002 1.03417313e+000 2.79473156e-001 1.88085839e-001
      1.76356193e-002 4.26992238e-001 3.27806503e-001 2.45386019e-001
      1.19459964e-001 9.90873456e-001 8.67964983e-001 1.00992870e+000
      6.24352515e-001 1.07964694e+000 8.59599292e-001 2.05727980e-001
      6.08825147e-001 4.51677263e-001 1.71758854e+000 3.73133212e-001
      4.06575322e-001 7.00288534e-001 6.16197288e-001 3.18447500e-001
      1.23986546e-002 2.74990946e-001 2.73226678e-001 6.31230354e-001
      5.95285058e-001 4.86038066e-002 3.97184163e-001 4.57455516e-002
      5.64939022e-001 4.47778329e-002 1.81377041e+000 9.53885496e-001
      3.15279752e-001 2.69640028e-001 5.40649235e-001 9.96075392e-001
      2.19798945e-002 1.33039802e-001 2.45828748e-001 1.21608958e-001
      1.21005404e+000 2.25933284e-001 7.10179567e-001 3.69248092e-001
      1.21495497e+000 1.40862787e+000 6.30419701e-002 3.32087994e-001
      1.60406077e+000 1.45169270e+000 5.44942677e-001 8.20497215e-001
      4.87123467e-002 5.68413019e-001 4.39323150e-002 4.31535184e-001
      8.20256948e-001 9.28934455e-001 3.17267552e-002 3.41840625e-001
      3.43000472e-001 1.22226131e+000 8.86155546e-001 3.20775479e-001
      9.60757613e-001 1.08137965e+000 1.12150764e+000 1.11354542e+000
      1.40353954e+000 2.90578157e-001 6.11428440e-001 2.08279029e-001
      4.76870507e-001 1.70243114e-001 3.18446189e-001 8.93756032e-001
      7.00878799e-002 2.08773494e-001 2.90758818e-001 7.67763555e-002
      2.15382504e+000 4.31186944e-001 1.52406199e-002 1.38030231e+000
      2.33000779e+000 1.87217271e+000 8.95708978e-001 2.75698513e-001
      3.17452215e-002 1.17915106e+000 5.38192213e-001 8.12233448e-001
      8.35276783e-001 1.75598872e+000 5.08536883e-002 2.18916744e-001
      1.91528440e+000 1.18408370e+000 1.27565861e-001 7.49466479e-001
      8.20874810e-001 1.01417100e+000 2.54032421e+000 2.30319202e-002
      5.37059084e-003 1.45431817e-001 3.00063699e-001 7.66886652e-001
      7.00652301e-001 9.24228966e-001 4.66893278e-002 7.40061551e-002
      2.26345450e-001 3.64096820e-001 8.41818005e-003 1.15801358e+000
      4.80591655e-001 4.38390851e-001 3.97583395e-001 5.84339490e-003
      1.44115582e-001 4.25640345e-002 1.31716871e+000 4.06692326e-001
      9.14913118e-001 6.11797392e-001 9.41302255e-002 2.23256037e-001
      1.52801406e-002 3.04371297e-001 1.35792807e-001 3.01391244e-001
      1.19694364e+000 4.60621864e-002 4.77851421e-001 7.19141901e-001
      3.05235267e-001 5.76534033e-001 3.55119288e-001 4.95409876e-001
      2.97043145e-001 7.34533593e-002 1.05768196e-001 9.27323699e-001
      1.31267995e-001 7.83770084e-002 3.64195943e-001 1.30530345e+000
      7.46494114e-001 4.82473731e-001 1.14461553e+000 3.40151012e-001
      4.08787936e-001 7.14688361e-001 3.93557817e-001 3.23686413e-002
      9.79390323e-001 2.80058682e-002 4.44559216e-001 6.59712374e-001
      8.29987004e-002 5.14818847e-001 1.03699875e+000 1.83871567e-001
      6.27451986e-002 4.94650722e-001 2.44933391e+000 3.05504739e-001
      5.91049194e-001 4.18832213e-001 8.06482732e-001 4.90846671e-002
      4.70266670e-001 8.54757547e-001 3.00761789e-001 4.64617983e-002
      1.41212260e-002 3.29870023e-002 1.56108284e+000 2.61645526e-001
      6.38206542e-001 3.39384377e-001 1.57647878e-001 1.26416087e+000
      2.81739622e-001 2.14241371e-001 1.24748722e-001 5.92219412e-001
      1.16098595e+000 1.78955555e+000 1.78302646e-001 4.42164987e-002
      6.67322800e-002 1.11249197e+000 2.78705925e-001 3.18242401e-001
      8.44330247e-003 3.65520269e-001 1.25480831e-001 1.79778069e-001
      8.42461407e-001 1.18742228e+000 5.79590201e-001 7.01610684e-001
      5.85814238e-001 2.98041314e-001 3.51294316e-002 3.38284552e-001
      1.85016945e-001 8.98128808e-001 5.44471182e-002 8.59549880e-001
      7.76851475e-001 1.25596523e+000 1.51057601e+000 1.28780794e+000
      1.20296031e-001 4.33025062e-001 1.26782095e+000 1.49883831e+000
      1.94880858e-001 1.23911969e-001 5.31720147e-002 4.15206850e-002
      7.87169099e-001 1.12296671e-001 8.27605247e-001 1.20394778e+000
      1.46633508e-002 2.49327630e-001 1.20952763e-001 5.58383465e-001
      2.15625429e+000 7.23640800e-001 1.31114259e-001 1.15753680e-001
      2.35183481e-002 2.39912868e-001 2.68401623e-001 1.02749094e-001
      6.99216068e-001 1.76669396e-002 1.31005967e+000 6.70880154e-002
      1.43357459e-002 7.40443349e-001 6.94271410e-003 3.93823057e-001
      1.12743355e-001 1.05271792e+000 1.39586222e+000 2.65596080e+000
      3.44810605e-001 2.21659485e-002 1.20383358e+000 2.93957949e-001
      1.56114116e-001 4.93816063e-002 5.92264712e-001 7.31838048e-001
      1.57984138e-001 2.77407706e-001 1.19049513e+000 1.15024567e+000
      1.27147734e+000 2.00309291e-001 3.41088176e-001 6.16361499e-001
      1.04925489e+000 3.72227915e-002 4.43570279e-002 4.42055434e-001
      3.52299362e-001 1.14478290e-001 5.69301546e-001 1.18158847e-001
      9.65853095e-001 5.13621420e-003 1.29173160e+000 1.23259559e-001
      3.29727560e-001 1.22507644e+000 9.18235853e-002 1.14714646e+000
      8.30645673e-003 1.66568719e-002 5.05222738e-001 5.04262507e-001
      2.67124236e-001 4.63769771e-002 4.63238358e-001 1.09910989e+000
      4.88071859e-001 1.69755888e+000 7.90028214e-001 2.56206900e-001 0.
      0. 0. 0. 0. 0. 0. 0. 0. 0. 0. 0. 0. 0. 0. 0. 0. 0. 0. 0. 0. 0. 0.
      0. 0. 0. 0. 0. 0. 0. 0. 0. 0. 0. 0. 0. 0. 0. 0. 0. 0. 0. 0. 0. 0.
      0. 0. 0. 0. 0. 0. 0. 0. 0. 0. 0. 0. 0. 0. 0. 0. 0. 0. 0. 0. 0. 0.
      0. 0. 0. 0. 0. 0. 0. 0. 0. 0. 0. 0. 0. 0. 0. 0. 0. 0. 0. 0. 0. 0.
      0. 0. 0. 0. 0. 0. 0. 0. 0. 0. 0.</_>
    <_>
      1.36082992e-001 1.10660350e+000 4.60891306e-001 5.42959630e-001
      2.67139077e-002 5.08885384e-001 3.81146997e-001 4.35675144e-001
      1.43420964e-001 1.27733779e+000 1.22439742e+000 1.62527478e+000
      1.46219397e+000 5.09500384e-001 6.87885702e-001 1.62036747e-001
      6.45491540e-001 2.86524534e-001 1.01893461e+000 7.81786323e-001
      5.44493794e-001 3.46793681e-001 1.02915788e+000 3.71238440e-001
      3.29132937e-002 5.23570001e-001 4.37000811e-001 8.35681856e-001
      5.27549386e-001 6.99562505e-002 6.42523408e-001 1.63268372e-001
      7.77907073e-001 1.22344568e-001 5.92713058e-001 1.27525377e+000
      5.69982469e-001 4.44382727e-001 4.01432097e-001 1.13655293e+000
      3.18566710e-002 6.74146891e-001 2.72088021e-001 1.45514414e-001
      1.50951827e+000 9.35115337e-001 1.56247199e+000 9.93831635e-001
      1.30101430e+000 3.73238623e-001 5.77496812e-002 1.47066379e+000
      1.38569546e+000 8.57969165e-001 6.87520802e-001 1.12881327e+000
      8.47850516e-002 4.02601033e-001 4.41381428e-003 6.19272888e-001
      7.07810819e-001 3.35758626e-001 5.83360810e-003 5.17682254e-001
      3.20107013e-001 1.29242802e+000 1.19286036e+000 6.48499846e-001
      1.08526719e+000 2.12156630e+000 1.46203363e+000 1.32498801e+000
      6.73389673e-001 1.58751678e+000 4.36876595e-001 1.99878946e-001
      4.71652932e-002 1.25450838e+000 4.22610104e-001 9.15618539e-001
      2.61828393e-001 8.41137469e-001 1.59802958e-002 1.30739272e-001
      2.07139373e+000 1.11101067e+000 3.28500755e-002 2.35406145e-001
      9.43643153e-001 9.91010904e-001 3.06426883e-001 2.79462516e-001
      4.00478430e-002 1.16608334e+000 1.49574959e+000 8.53995919e-001
      1.71894944e+000 1.36672688e+000 1.61498711e-001 4.53134894e-001
      2.11789942e+000 1.21244323e+000 1.66524187e-001 3.67408872e-001
      8.23435605e-001 1.24404275e+000 7.80642509e-001 4.25061435e-002
      1.12786321e-002 1.00618608e-001 4.73078787e-001 1.02935922e+000
      1.56887963e-001 6.92731380e-001 6.96843788e-002 2.23371144e-002
      2.01173708e-001 9.49051440e-001 3.05680372e-002 8.34064901e-001
      6.74813747e-001 5.77226460e-001 1.42968193e-001 8.61745048e-003
      1.03858337e-001 1.68499798e-001 1.63101268e+000 3.29879254e-001
      1.12105680e+000 2.14364693e-001 1.55978963e-001 4.45687324e-001
      3.17155495e-002 7.55064726e-001 2.58295566e-001 4.42812532e-001
      1.24689269e+000 4.59236987e-002 3.45638096e-001 3.74473363e-001
      2.84410655e-001 2.33750209e-001 3.31980467e-001 2.77365595e-001
      2.38997650e+000 1.46755487e-001 1.10556826e-001 9.72558439e-001
      1.50306225e-001 8.50588530e-002 5.98138511e-001 1.11589539e+000
      1.06345856e+000 9.03849959e-001 1.73519230e+000 4.33469176e-001
      4.00117904e-001 1.58564603e+000 5.43834627e-001 7.17021897e-002
      2.33912364e-001 7.48896450e-002 3.53432804e-001 1.54870760e+000
      1.52473450e-001 1.28557861e+000 1.18022645e+000 2.72195429e-001
      2.91423261e-001 9.04173613e-001 6.74870849e-001 4.52540755e-001
      3.64839196e-001 2.74381161e-001 1.05584693e+000 6.28038570e-002
      4.05645281e-001 5.19878864e-001 3.12191308e-001 5.81757985e-002
      2.13594586e-002 6.25917912e-002 3.89999837e-001 5.17146051e-001
      4.44653958e-001 2.74519622e-001 1.65331468e-001 1.58346379e+000
      6.09014332e-001 3.69119406e-001 1.82745308e-001 1.20259619e+000
      7.64362574e-001 5.00020921e-001 1.20928800e+000 4.42409096e-003
      2.47815028e-002 7.75428951e-001 2.57737589e+000 2.67715186e-001
      3.08592804e-002 3.35042983e-001 2.51239717e-001 2.13723198e-001
      8.43518794e-001 8.37163270e-001 7.61476696e-001 6.12578154e-001
      2.76875854e-001 1.65941026e-002 2.27515828e-002 5.57709157e-001
      1.44819049e-002 1.10182476e+000 7.31572807e-002 1.46200061e+000
      9.47601914e-001 1.61350882e+000 3.22516233e-001 1.00277770e+000
      7.62005448e-002 6.78170562e-001 1.47175729e+000 1.22910511e+000
      3.24347854e-001 1.57914460e-001 5.14181107e-002 5.83892129e-002
      4.90895480e-001 1.13794290e-001 4.37129855e-001 1.22329199e+000
      6.33957749e-003 5.12723148e-001 1.83486506e-001 8.38959217e-001
      8.99211347e-001 5.44758260e-001 1.41759679e-001 2.24407405e-001
      2.32118051e-002 3.62247765e-001 2.34611347e-001 2.44949132e-001
      1.60369843e-001 3.64978127e-002 9.66757119e-001 1.49096861e-001
      2.28080694e-002 5.37775792e-002 7.84782693e-003 7.05513597e-001
      1.76201805e-001 8.59529436e-001 1.28676510e+000 5.68305135e-001
      5.23552895e-001 2.74053998e-002 1.54938209e+000 5.89731298e-002
      1.40108213e-001 6.52033016e-002 6.94625974e-001 5.15420020e-001
      1.01920731e-001 3.81507799e-002 4.55725849e-001 1.21079326e+000
      1.74423110e+000 6.32051349e-001 3.19970548e-001 6.62562609e-001
      1.08712721e+000 3.91278267e-002 5.36854826e-002 4.19244796e-001
      7.06156611e-001 1.56421602e-001 2.61240900e-001 5.02946414e-002
      4.58750576e-001 1.01884864e-002 3.59391004e-001 7.26078451e-001
      7.51827180e-001 1.43090856e+000 1.38219714e-001 8.73825371e-001
      6.40034862e-003 2.41673402e-002 3.58196050e-001 5.76573312e-001
      1.88424394e-001 2.35408112e-001 2.14472890e+000 1.69826591e+000
      8.14979196e-001 1.26800561e+000 1.11662161e+000 7.00092793e-001 0.
      0. 0. 0. 0. 0. 0. 0. 0. 0. 0. 0. 0. 0. 0. 0. 0. 0. 0. 0. 0. 0. 0.
      0. 0. 0. 0. 0. 0. 0. 0. 0. 0. 0. 0. 0. 0. 0. 0. 0. 0. 0. 0. 0. 0.
      0. 0. 0. 0. 0. 0. 0. 0. 0. 0. 0. 0. 0. 0. 0. 0. 0. 0. 0. 0. 0. 0.
      0. 0. 0. 0. 0. 0. 0. 0. 0. 0. 0. 0. 0. 0. 0. 0. 0. 0. 0. 0. 0. 0.
      0. 0. 0. 0. 0. 0. 0. 0. 0. 0. 0.</_>
    <_>
      9.46224108e-002 1.39399052e+000 2.81057149e-001 3.98233116e-001
      8.14686064e-003 2.94710338e-001 2.65688628e-001 2.75435686e-001
      2.21603274e-001 7.26694226e-001 1.61349118e-001 2.84255594e-001
      1.05821371e+000 1.01173115e+000 3.12848687e-001 2.75236756e-001
      2.32424766e-001 8.06645527e-002 1.13206494e+000 2.12171271e-001
      6.08323574e-001 9.65360552e-002 1.87328994e-001 2.44823992e-001
      1.01083703e-002 2.15545401e-001 1.51804850e-001 2.62754560e-001
      2.87303418e-001 4.45577316e-002 4.01067436e-001 1.63161978e-001
      2.81149894e-001 6.61818609e-002 5.89011967e-001 1.95568994e-001
      3.86175394e-001 2.40998402e-001 2.09708884e-001 1.18320525e+000
      1.46746179e-002 9.21380818e-001 2.20693275e-001 1.38818637e-001
      1.68414366e+000 6.72122419e-001 1.78791022e+000 9.35439110e-001
      1.38159573e+000 5.13570964e-001 3.76017280e-002 4.53243345e-001
      1.32374847e+000 2.24131972e-001 2.08531350e-001 1.50493771e-001
      7.38740712e-002 1.65475234e-001 5.96380932e-003 7.66136229e-001
      1.38531458e+000 1.12705982e+000 5.68788918e-003 3.29193234e-001
      2.58086532e-001 5.01435459e-001 1.52832910e-001 3.00762236e-001
      6.52654648e-001 1.56827033e+000 1.22521043e+000 2.22366497e-001
      5.43272674e-001 4.08174664e-001 1.18740571e+000 1.40039906e-001
      4.71552312e-002 6.18413568e-001 3.34715277e-001 1.59106672e+000
      1.20531157e-001 3.96937728e-001 2.01357529e-002 8.75894725e-002
      5.93504369e-001 1.00612581e+000 4.13010009e-002 2.91871548e-001
      2.02817988e+000 4.99242753e-001 9.28481758e-001 2.63602853e-001
      5.97105250e-002 7.45109200e-001 3.70802581e-001 1.55788839e+000
      1.69413757e+000 7.43195236e-001 1.09761879e-001 5.10234475e-001
      8.33618402e-001 5.98914683e-001 7.62014613e-002 8.45534354e-002
      3.76515508e-001 1.40045488e+000 1.13306284e+000 2.40789037e-002
      1.96228717e-002 1.42899245e-001 1.97839275e-001 4.43889409e-001
      1.32854998e-001 1.10822582e+000 3.15994248e-002 2.95638852e-002
      6.56367913e-002 3.40502471e-001 1.29428385e-002 8.82560134e-001
      7.43528903e-001 7.89309442e-001 5.64945459e-001 2.63655651e-003
      3.39835107e-001 8.08453634e-002 4.77327317e-001 2.90206283e-001
      6.39560401e-001 4.75203246e-001 1.10595010e-001 5.39486110e-001
      2.74685174e-002 1.63794592e-001 1.08258054e-001 2.86533058e-001
      1.66868269e-001 5.60232177e-002 1.26955420e-001 2.06847787e-001
      1.81357339e-001 4.69649017e-001 2.93191046e-001 3.81424665e-001
      4.14620489e-001 2.02041745e-001 1.09915234e-001 9.50226843e-001
      6.72933310e-002 2.87647359e-002 6.66411698e-001 5.38793564e-001
      3.53479356e-001 3.20149213e-001 9.88685071e-001 3.79243106e-001
      1.37674168e-001 2.51404881e+000 2.97925055e-001 2.71488689e-002
      1.34700549e+000 4.63694148e-002 1.49606079e-001 5.74730933e-001
      8.86701271e-002 8.16187382e-001 1.56383884e+000 8.52824748e-002
      1.30855322e-001 4.73683238e-001 3.11739683e-001 2.19972029e-001
      3.36044163e-001 3.55456203e-001 7.85033286e-001 2.67066807e-002
      1.05381779e-001 6.03345096e-001 2.28364021e-001 3.28771025e-002
      1.06748212e-002 4.66603674e-002 3.91341567e-001 3.28663319e-001
      4.94275689e-001 4.11952525e-001 1.15465052e-001 1.68945730e-001
      3.17522466e-001 1.63042635e-001 8.27814564e-002 3.68930966e-001
      8.93659830e-001 4.90121871e-001 6.33186877e-001 6.01588516e-003
      3.22119035e-002 1.14885080e+000 4.45224822e-001 2.37106860e-001
      1.29622892e-002 2.72351235e-001 1.21935256e-001 1.73941180e-001
      4.74321097e-001 7.59990454e-001 2.29570195e-001 7.41675019e-001
      4.81959045e-001 1.90841239e-002 7.68991793e-003 2.16893107e-001
      1.23265814e-002 1.89907587e+000 2.73321960e-002 1.70410144e+000
      3.36224467e-001 1.45964339e-001 6.24346137e-001 3.59891891e-001
      2.55417764e-001 3.03446949e-001 4.22751069e-001 1.62747657e+000
      4.64646906e-001 2.56355941e-001 3.38446051e-002 1.84030086e-002
      2.93337345e-001 8.35126266e-002 7.75231481e-001 1.50825515e-001
      4.56190854e-003 1.85071051e-001 1.54978946e-001 2.52276123e-001
      1.65092146e+000 2.23463535e-001 1.19909070e-001 1.37976289e-001
      1.09724980e-002 2.52272338e-001 2.67593861e-001 1.33670494e-001
      4.55351591e-001 3.51657197e-002 4.94705915e-001 2.78808445e-001
      3.86479348e-002 5.56185804e-002 3.09172599e-003 2.82575130e-001
      8.98156986e-002 8.55844319e-001 3.31797212e-001 1.06543052e+000
      1.04166043e+000 1.24484235e-002 5.24269819e-001 5.27615845e-002
      2.91367948e-001 4.18529361e-002 6.64056420e-001 6.06374681e-001
      9.53622758e-002 5.35543039e-002 9.85031664e-001 1.84082603e+000
      1.09134090e+000 1.11046720e+000 4.30192560e-001 6.65655255e-001
      8.06686521e-001 6.45329431e-002 3.90330404e-002 1.05518341e+000
      2.93560505e-001 1.18157946e-001 1.90136150e-001 4.77999821e-002
      3.58398229e-001 1.17872832e-002 1.26965630e+000 1.89202070e-001
      6.19473100e-001 8.81662369e-001 7.04653040e-002 1.27608025e+000
      3.14557413e-003 7.83632416e-003 5.52003026e-001 2.44662166e-001
      2.31237769e-001 1.27265170e-001 1.38667917e+000 4.89557594e-001
      5.15087962e-001 6.20681882e-001 2.98410445e-001 1.59331352e-001 0.
      0. 0. 0. 0. 0. 0. 0. 0. 0. 0. 0. 0. 0. 0. 0. 0. 0. 0. 0. 0. 0. 0.
      0. 0. 0. 0. 0. 0. 0. 0. 0. 0. 0. 0. 0. 0. 0. 0. 0. 0. 0. 0. 0. 0.
      0. 0. 0. 0. 0. 0. 0. 0. 0. 0. 0. 0. 0. 0. 0. 0. 0. 0. 0. 0. 0. 0.
      0. 0. 0. 0. 0. 0. 0. 0. 0. 0. 0. 0. 0. 0. 0. 0. 0. 0. 0. 0. 0. 0.
      0. 0. 0. 0. 0. 0. 0. 0. 0. 0. 0.</_>
    <_>
      1.55143574e-001 8.59477341e-001 4.99939233e-001 3.89897764e-001
      2.66024433e-002 3.22309405e-001 8.06792080e-001 2.59523302e-001
      2.17032939e-001 1.36814415e+000 8.87325108e-001 1.28273404e+000
      1.47829723e+000 2.80090451e-001 8.70037079e-001 2.18035221e-001
      5.64991236e-001 2.43837431e-001 1.10491788e+000 7.73393452e-001
      6.21801913e-001 3.63054365e-001 1.23412144e+000 4.23563212e-001
      1.73160601e-002 1.91673434e+000 3.49205732e-001 1.30340135e+000
      4.58215326e-001 5.22209182e-002 4.13822800e-001 1.17954902e-001
      9.82755423e-001 7.35833719e-002 5.24437666e-001 5.71141899e-001
      4.71327871e-001 5.49167514e-001 4.11657125e-001 8.81249964e-001
      1.95043180e-002 1.16691148e+000 2.42616892e-001 1.48322642e-001
      1.80084860e+000 9.87623632e-001 8.49417508e-001 8.12375128e-001
      1.30478489e+000 1.03919744e+000 4.62814271e-002 6.99701726e-001
      1.44559777e+000 6.10140145e-001 7.24991560e-001 5.35563350e-001
      2.39346176e-001 3.68314058e-001 4.29112762e-002 8.94458234e-001
      1.39437068e+000 1.64653492e+000 5.10924570e-002 6.05933726e-001
      3.43405068e-001 8.21413696e-001 6.41923130e-001 4.20120925e-001
      1.36378956e+000 1.06767559e+000 1.09941220e+000 6.41109884e-001
      7.80095458e-001 1.14656639e+000 6.78415537e-001 2.07302570e-001
      8.37825760e-002 1.15767229e+000 3.23491961e-001 1.44763196e+000
      4.62189376e-001 3.71045977e-001 2.41768043e-002 1.11001804e-001
      1.68864644e+000 1.00374281e+000 3.94700095e-002 2.74946421e-001
      8.38683546e-001 1.01327980e+000 5.05301356e-001 4.35348123e-001
      3.26675385e-001 8.42591584e-001 1.19611585e+000 1.22735620e+000
      1.05546331e+000 1.31821144e+000 7.66230300e-002 8.92291605e-001
      1.51734185e+000 1.52537310e+000 1.30002066e-001 2.88878798e-001
      3.39898795e-001 1.59929156e+000 9.37781096e-001 7.45982304e-002
      2.27624942e-002 1.32175997e-001 7.58031130e-001 1.84104240e+000
      4.55788732e-001 1.06285763e+000 5.83948232e-002 1.89714134e-002
      1.30243525e-001 6.71037018e-001 6.22144435e-003 1.43848658e+000
      4.40620989e-001 6.01243615e-001 2.77621418e-001 5.00294426e-003
      4.69761133e-001 1.20110363e-001 1.81215870e+000 6.45995378e-001
      5.55874646e-001 9.60548401e-001 1.12797745e-001 9.07319009e-001
      6.88098297e-002 1.48664653e+000 2.00995073e-001 2.82960087e-001
      4.96838361e-001 4.41991016e-002 2.66438246e-001 5.26066482e-001
      2.43431032e-001 9.54603136e-001 2.92042762e-001 2.53684342e-001
      1.01317394e+000 2.21749708e-001 1.21067204e-001 6.80644810e-001
      2.15648979e-001 6.58209324e-002 4.81237829e-001 1.12261069e+000
      6.52898669e-001 3.88432235e-001 2.05381799e+000 5.35010219e-001
      5.48429608e-001 1.51535773e+000 4.65166599e-001 7.99851045e-002
      5.36742747e-001 1.89997796e-002 2.82204509e-001 8.42259049e-001
      1.32218361e-001 1.26058698e+000 8.59474778e-001 2.35555515e-001
      4.06830728e-001 4.41265166e-001 9.29001987e-001 1.54219970e-001
      4.28761303e-001 2.55906075e-001 7.12259948e-001 8.81689861e-002
      2.38631561e-001 1.58462024e+000 2.55526274e-001 7.25364685e-002
      2.22931411e-002 4.08833101e-002 2.36430436e-001 4.22660053e-001
      4.88191009e-001 1.80426255e-001 1.35866448e-001 8.71373892e-001
      7.61895299e-001 5.23816943e-001 1.32865548e-001 1.74145484e+000
      1.22340059e+000 3.31840098e-001 1.08806753e+000 4.36905809e-002
      1.92430709e-002 8.21471810e-001 7.32346654e-001 3.74519825e-001
      6.22230396e-003 3.70338678e-001 3.27405423e-001 1.34474650e-001
      1.80661654e+000 1.38670468e+000 1.42671776e+000 9.80192244e-001
      3.22352290e-001 2.35019848e-002 3.38890851e-002 1.74679005e+000
      5.20368963e-002 9.23186123e-001 9.09617692e-002 1.55384207e+000
      7.07028568e-001 8.92711580e-001 6.56096578e-001 1.47081256e+000
      2.14356288e-001 5.72631896e-001 2.00316262e+000 1.44007611e+000
      3.28951776e-001 1.31959975e-001 5.89936972e-002 7.22100288e-002
      4.62563425e-001 1.86007798e-001 1.37550557e+000 7.72147715e-001
      5.06038144e-002 5.35351276e-001 2.02971488e-001 9.66021240e-001
      7.08056629e-001 3.52833152e-001 2.12350652e-001 5.34706056e-001
      3.64234969e-002 7.98374414e-001 1.58269718e-001 1.55247062e-001
      4.04283673e-001 5.69452643e-002 1.84051847e+000 5.97895622e-001
      1.74370855e-002 7.14795962e-002 7.02550588e-003 1.89414835e+000
      1.59419373e-001 3.89113843e-001 1.34072173e+000 9.44915175e-001
      6.19985640e-001 3.64160426e-002 6.28501475e-001 2.70779938e-001
      1.22411184e-001 6.37273192e-002 1.28680849e+000 6.00816369e-001
      1.20688938e-001 1.25827208e-001 9.31217849e-001 8.83273661e-001
      2.13446736e+000 1.32071638e+000 2.64684170e-001 9.30638313e-001
      2.72379875e-001 3.23105335e-001 4.71824333e-002 8.40735912e-001
      6.19453430e-001 1.11054219e-001 5.90783417e-001 3.06339562e-001
      7.53023088e-001 3.44347022e-002 4.72623318e-001 5.84209859e-001
      8.13846290e-001 1.28500926e+000 2.75058150e-001 5.06744683e-001
      1.24809006e-002 2.74336450e-002 9.26442564e-001 3.16783607e-001
      5.01849711e-001 3.76924664e-001 1.27934468e+000 2.04069638e+000
      8.67215276e-001 5.07134378e-001 7.85537302e-001 1.44398022e+000 0.
      0. 0. 0. 0. 0. 0. 0. 0. 0. 0. 0. 0. 0. 0. 0. 0. 0. 0. 0. 0. 0. 0.
      0. 0. 0. 0. 0. 0. 0. 0. 0. 0. 0. 0. 0. 0. 0. 0. 0. 0. 0. 0. 0. 0.
      0. 0. 0. 0. 0. 0. 0. 0. 0. 0. 0. 0. 0. 0. 0. 0. 0. 0. 0. 0. 0. 0.
      0. 0. 0. 0. 0. 0. 0. 0. 0. 0. 0. 0. 0. 0. 0. 0. 0. 0. 0. 0. 0. 0.
      0. 0. 0. 0. 0. 0. 0. 0. 0. 0. 0.</_>
    <_>
      2.63958246e-001 4.22998279e-001 3.67187053e-001 2.10481668e+000
      4.06199284e-002 5.61964631e-001 2.42375568e-001 1.51200756e-001
      1.85939252e-001 8.76328528e-001 1.18323553e+000 1.42130542e+000
      1.46587849e+000 1.70949832e-001 2.37015224e+000 1.12388265e+000
      9.36779261e-001 5.94226122e-001 1.64713949e-001 4.09882635e-001
      1.16331160e+000 6.00293338e-001 7.13415802e-001 2.23971546e-001
      4.94413786e-002 2.09477329e+000 6.13517880e-001 6.42811596e-001
      5.37007511e-001 5.04160784e-002 6.46528006e-001 2.06267223e-001
      6.95752740e-001 1.72811806e-001 2.80438781e-001 1.22397375e+000
      4.50136542e-001 5.59061408e-001 2.05242142e-001 5.39327264e-001
      2.06387974e-002 1.88039565e+000 3.20394307e-001 2.39733323e-001
      1.29681325e+000 1.77709711e+000 9.39266622e-001 1.37149572e+000
      1.42699206e+000 5.94944060e-001 6.24356717e-002 3.48119497e-001
      1.03826618e+000 1.17501628e+000 4.60626394e-001 1.74925089e+000
      3.40180099e-001 3.29613358e-001 5.52803883e-003 6.21287227e-001
      3.73475224e-001 2.93178827e-001 4.83813463e-003 2.69593507e-001
      2.83180118e-001 6.10906303e-001 1.72595835e+000 3.39567602e-001
      1.10320354e+000 9.58317935e-001 5.57971597e-001 1.16143680e+000
      3.30311835e-001 1.67315602e+000 1.73279524e-001 3.32966983e-001
      5.36493771e-002 7.22505033e-001 4.90088701e-001 1.49941862e+000
      5.22194743e-001 5.07275820e-001 2.86930781e-002 1.68921486e-001
      8.67145896e-001 1.44957709e+000 3.90360318e-002 3.52739334e-001
      4.59901273e-001 9.81181026e-001 9.98069346e-002 7.71637380e-001
      3.25942263e-002 4.19917643e-001 1.71953106e+000 1.34700155e+000
      1.04942465e+000 9.45968509e-001 8.87052342e-002 4.67849165e-001
      1.90026069e+000 2.56725931e+000 1.24081247e-001 4.75355238e-001
      9.05716240e-001 9.41420257e-001 1.11021709e+000 3.62652279e-002
      1.62496865e-002 9.06224474e-002 4.06523257e-001 1.97551930e+000
      1.53271645e-001 5.17528594e-001 3.20372730e-002 2.27358975e-002
      3.63189816e-001 4.80133086e-001 6.94832439e-003 2.15843582e+000
      7.98271298e-001 1.09552431e+000 8.27143788e-002 1.01194615e-002
      6.36805668e-002 2.72868246e-001 9.08413410e-001 5.52859068e-001
      1.12544048e+000 1.51160836e-001 9.71900895e-002 4.74970371e-001
      1.58368275e-002 4.28153634e-001 8.41922089e-002 4.30909276e-001
      9.40511763e-001 8.19908082e-002 2.96350002e-001 1.00134563e+000
      3.56036007e-001 1.36999667e-001 6.95060313e-001 2.58493006e-001
      8.12300920e-001 8.34540874e-002 4.81207110e-002 1.32930923e+000
      1.00071885e-001 8.45176354e-002 1.25899267e+000 7.12607801e-001
      5.48276782e-001 1.42868650e+000 2.49106669e+000 4.48671758e-001
      3.26076895e-001 1.59625256e+000 2.99860299e-001 4.76754308e-002
      1.50737002e-001 3.84520404e-002 3.50368112e-001 1.11831141e+000
      5.79998493e-002 6.04941487e-001 7.55771041e-001 3.31711560e-001
      6.83417499e-001 4.83679742e-001 1.38332570e+000 2.17167646e-001
      2.60193646e-001 9.57221568e-001 1.66295207e+000 5.23429066e-002
      4.74386305e-001 4.14185435e-001 7.34007597e-001 7.01788142e-002
      1.52164660e-002 4.80604097e-002 1.43740907e-001 5.95678151e-001
      9.75259364e-001 1.86461300e-001 1.25954941e-001 2.38754749e+000
      8.03010583e-001 3.10902715e-001 1.34004295e-001 1.87464058e+000
      6.40286386e-001 5.15115798e-001 7.47393191e-001 5.31883957e-003
      2.35116184e-002 1.74191877e-001 7.16937304e-001 6.12153769e-001
      6.96355943e-003 6.30046189e-001 4.58958447e-001 6.36907443e-002
      1.11412215e+000 7.66851604e-001 5.90769827e-001 4.03049469e-001
      1.12513848e-001 2.89338361e-002 3.18793580e-002 1.55535305e+000
      2.18671877e-002 3.31953049e+000 6.16988242e-002 1.63544464e+000
      9.99635398e-001 9.67229366e-001 6.88060939e-001 5.59983075e-001
      5.11915207e-001 3.03259015e-001 2.14457607e+000 4.19304252e-001
      5.22461712e-001 1.69503987e-001 3.75841893e-002 5.92920259e-002
      7.91244268e-001 1.46373853e-001 2.65298873e-001 9.58667994e-001
      1.10618565e-002 2.35641986e-001 8.86238143e-002 8.10304523e-001
      3.82997006e-001 7.93462098e-001 1.07201084e-001 1.64939940e-001
      2.28344556e-002 5.94289005e-001 3.49312276e-001 3.33549917e-001
      7.51343817e-002 2.55623646e-002 2.24934840e+000 7.10074529e-002
      4.57194187e-002 6.44592494e-002 1.20138079e-002 7.26058424e-001
      9.28715169e-002 1.19142699e+000 9.25152421e-001 7.56515384e-001
      2.28325772e+000 2.46471241e-002 1.62128532e+000 6.59161881e-002
      1.81464911e-001 7.68556073e-002 4.98009205e-001 5.98323286e-001
      2.69017309e-001 6.56204075e-002 2.33128279e-001 5.02592444e-001
      1.94019246e+000 1.43435156e+000 1.17810205e-001 5.38576782e-001
      1.15494800e+000 3.39882448e-002 3.10937408e-002 5.77985048e-001
      4.24508065e-001 6.24026619e-002 6.80525482e-001 4.18250188e-002
      4.84148622e-001 5.16270939e-003 1.69942394e-001 4.54130769e-001
      4.98862207e-001 8.04440498e-001 1.20568335e-001 1.24495840e+000
      5.03167557e-003 3.61363403e-002 1.74344108e-001 6.28733337e-001
      1.72108424e+000 6.07355237e-001 1.12356710e+000 2.44346023e+000
      7.00552344e-001 8.88640404e-001 3.21247339e+000 4.43167567e-001 0.
      0. 0. 0. 0. 0. 0. 0. 0. 0. 0. 0. 0. 0. 0. 0. 0. 0. 0. 0. 0. 0. 0.
      0. 0. 0. 0. 0. 0. 0. 0. 0. 0. 0. 0. 0. 0. 0. 0. 0. 0. 0. 0. 0. 0.
      0. 0. 0. 0. 0. 0. 0. 0. 0. 0. 0. 0. 0. 0. 0. 0. 0. 0. 0. 0. 0. 0.
      0. 0. 0. 0. 0. 0. 0. 0. 0. 0. 0. 0. 0. 0. 0. 0. 0. 0. 0. 0. 0. 0.
      0. 0. 0. 0. 0. 0. 0. 0. 0. 0. 0.</_>
    <_>
      1.14682913e-001 4.17852551e-001 3.38147730e-001 5.46479523e-001
      2.62175705e-002 4.29654151e-001 4.37072366e-001 1.76908761e-001
      8.01819339e-002 7.35449255e-001 6.28464758e-001 6.40325129e-001
      8.75561297e-001 5.23815215e-001 1.26306021e+000 2.78344542e-001
      2.35605747e-001 6.07638538e-001 9.46759403e-001 4.41797286e-001
      3.08284730e-001 2.26439089e-001 4.82878447e-001 3.82865220e-001
      1.08767822e-002 8.02180469e-001 2.75128692e-001 4.12453175e-001
      5.31946838e-001 2.81834565e-002 3.55628461e-001 3.02069746e-002
      4.27651048e-001 5.68968430e-002 3.70222390e-001 1.21612573e+000
      4.70507145e-001 3.38962972e-001 3.02121043e-001 2.90146589e+000
      1.52899949e-002 3.05220962e-001 5.88037848e-001 1.07559927e-001
      8.94851983e-001 1.07844484e+000 1.31985903e+000 3.91159296e-001
      1.35249817e+000 5.07619679e-001 4.11803909e-002 4.29677516e-001
      8.06596696e-001 4.09062028e-001 5.72214186e-001 4.30716664e-001
      5.94426617e-002 8.86105835e-001 6.54503750e-003 2.72107387e+000
      7.09914207e-001 7.78516471e-001 8.80655646e-003 5.37509620e-001
      2.48660728e-001 4.13811415e-001 4.52414930e-001 3.07240695e-001
      1.94628370e+000 8.13715160e-001 2.77731729e+000 6.30110264e-001
      6.83457017e-001 1.36772537e+000 1.05271804e+000 1.58274859e-001
      4.10756841e-002 2.86900461e-001 3.24300915e-001 1.00096989e+000
      1.68998569e-001 5.85646033e-001 1.11214258e-002 1.60484850e-001
      1.25521135e+000 9.12667394e-001 1.05271842e-002 3.48042160e-001
      1.77716947e+000 1.07123470e+000 6.26326859e-001 3.92770082e-001
      7.62592554e-002 2.59204078e+000 3.88779998e-001 9.69184935e-001
      1.50359678e+000 9.76990640e-001 5.93968295e-002 1.52370632e-001
      1.44255042e+000 9.58407938e-001 2.80539632e-001 4.05828267e-001
      1.99110001e-001 9.46132064e-001 8.79961371e-001 4.41846065e-002
      4.76237014e-003 9.42146778e-002 5.15365899e-001 1.14544773e+000
      1.36055306e-001 6.36299074e-001 2.91757323e-002 2.88060736e-002
      1.08501278e-001 3.44965011e-001 5.67129999e-003 1.37279236e+000
      4.32873160e-001 1.55176103e+000 3.63589406e-001 4.66823345e-003
      1.68198854e-001 4.08647619e-002 1.01377416e+000 4.98018563e-001
      2.75791824e-001 3.41798216e-001 1.61119774e-001 2.00886250e-001
      1.46544082e-002 4.71575767e-001 1.25706360e-001 5.06371796e-001
      5.35171807e-001 4.08591293e-002 9.13368762e-001 2.27228308e+000
      2.48435438e-001 4.26772535e-001 2.59316146e-001 1.50633410e-001
      8.56020868e-001 1.09523907e-001 8.50339830e-002 5.38657486e-001
      7.59986788e-002 6.61196858e-002 2.56403387e-001 6.05104923e-001
      6.06804729e-001 2.25677562e+000 6.35679424e-001 2.64192134e-001
      3.22346419e-001 4.88414258e-001 9.11997795e-001 3.37666720e-002
      1.42562962e+000 2.28731073e-002 6.14686847e-001 6.09299064e-001
      1.68321759e-001 6.89967990e-001 2.14485073e+000 1.95160165e-001
      1.65283769e-001 5.43227494e-001 9.31830525e-001 1.27698228e-001
