<?xml version="1.0"?>
<opencv_storage>
<my_svm type_id="opencv-ml-svm">
  <svm_type>EPS_SVR</svm_type>
  <kernel><type>RBF</type>
    <gamma>6.0240099999999998e-002</gamma></kernel>
  <C>15.</C>
  <p>1.0000000000000001e-001</p>
  <term_criteria><epsilon>4.9999998882412910e-003</epsilon>
    <iterations>2147483647</iterations></term_criteria>
  <var_all>400</var_all>
  <var_count>400</var_count>
  <sv_total>180</sv_total>
  <support_vectors>
    <_>
      1.40540317e-001 5.72003663e-001 2.00422812e+000 6.57041132e-001
      2.40543690e-002 3.98253262e-001 1.06645644e+000 2.80773968e-001
      2.67109990e-001 1.81986868e+000 6.08475685e-001 1.12669122e+000
      9.80840623e-001 7.99525857e-001 7.90291369e-001 1.67506194e+000
      2.33693138e-001 2.61948377e-001 2.96902627e-001 4.96629059e-001
      2.53109813e-001 2.83916175e-001 1.12592256e+000 2.49447748e-001
      1.88020524e-002 9.91262555e-001 5.60882807e-001 1.25419390e+000
      1.12031889e+000 7.83267319e-002 5.24444938e-001 5.36561646e-002
      1.27476609e+000 7.58677870e-002 1.27889574e+000 2.68645787e+000
      4.58068192e-001 6.17283583e-001 2.93286860e-001 2.94160128e-001
      2.04016343e-002 3.80949289e-001 4.85988706e-001 1.32589370e-001
      9.60198224e-001 1.33449554e-001 1.75878271e-001 6.89694166e-001
      9.83116150e-001 9.70922470e-001 1.42644703e-001 1.41969311e+000
      1.75463188e+000 1.26253581e+000 5.09701014e-001 2.51669616e-001
      1.45488650e-001 4.24038917e-001 7.58638280e-003 3.98631953e-002
      1.18184221e+000 1.45426914e-001 8.73827748e-003 4.70021456e-001
      3.43916476e-001 2.39958477e+000 3.61383438e-001 6.03992105e-001
      7.96942949e-001 4.03400987e-001 3.05123240e-001 3.86629701e+000
      4.52249140e-001 1.32743061e+000 2.00316176e-001 3.48541737e-001
      6.38148263e-002 1.54656029e+000 3.63708705e-001 9.10228312e-001
      1.28197744e-001 3.00039947e-001 2.23870818e-002 9.22720432e-002
      1.24333608e+000 7.85197377e-001 9.25474539e-002 4.44992408e-002
      4.34027046e-001 1.81971943e+000 2.07745862e+000 5.91207385e-001
      7.49787614e-002 2.72558749e-001 1.26262569e+000 8.45752060e-001
      2.04187796e-001 1.26405406e+000 1.06603123e-001 1.83657005e-001
      8.95861268e-001 1.53408539e+000 3.45479101e-001 3.20866942e-001
      1.79010630e-001 1.01275241e+000 1.02766323e+000 3.74453701e-002
      3.30350436e-002 9.69359204e-002 5.25003254e-001 1.55946410e+000
      1.58234894e-001 1.66554809e+000 3.63750309e-002 1.37202665e-002
      1.06457151e-001 4.47712839e-001 1.17130987e-002 7.56524801e-001
      1.03034461e+000 3.94338429e-001 2.19714507e-001 7.60028139e-003
      1.12723544e-001 1.02864631e-001 2.30516505e+000 4.22710955e-001
      9.62059498e-001 7.78028369e-001 1.93633109e-001 1.73358276e-001
      2.30539404e-002 1.82562602e+000 2.04356134e-001 5.19255579e-001
      4.63544279e-001 5.95903844e-002 4.14017141e-001 4.94275212e-001
      3.35171819e-001 9.37647462e-001 2.65095413e-001 3.21624041e-001
      2.64997792e+000 9.01869386e-002 8.56368691e-002 3.65957439e-001
      1.55636802e-001 3.47591639e-002 6.81952417e-001 7.44901955e-001
      3.46825004e-001 1.21131897e+000 1.86610007e+000 3.62931728e-001
      6.46603882e-001 4.83039945e-001 4.82753813e-001 3.91225666e-002
      5.55449486e-001 4.09172997e-002 1.10255384e+000 2.51145744e+000
      1.78138867e-001 5.64214945e-001 4.00683939e-001 2.59121001e-001
      4.20772702e-001 1.41699076e+000 1.20674860e+000 1.72344506e-001
      4.44355071e-001 6.10355079e-001 8.95149887e-001 4.70254645e-002
      3.69720608e-001 1.14803481e+000 6.09726012e-001 5.48752435e-002
      2.39770394e-002 3.25022303e-002 1.20664728e+000 3.13435793e-001
      9.97503519e-001 1.64823264e-001 2.28591874e-001 1.84453487e+000
      9.54968452e-001 2.61631697e-001 2.49483794e-001 8.03719461e-001
      2.60417509e+000 3.15633304e-002 1.33700383e+000 7.74562638e-003
      1.23093650e-002 1.24717355e+000 1.72367465e+000 3.04649442e-001
      1.16583873e-002 5.56229770e-001 7.09555268e-001 2.26765588e-001
      2.36000013e+000 1.62556255e+000 1.15238702e+000 1.06306601e+000
      1.99403957e-001 2.29936112e-002 1.66302118e-002 7.24936068e-001
      2.05507595e-002 1.16410780e+000 3.95476371e-002 8.73935401e-001
      6.87326789e-001 2.36375022e+000 1.10767376e+000 1.00195694e+000
      1.20934665e+000 5.55869102e-001 5.86809695e-001 7.17493355e-001
      1.39368445e-001 1.35895237e-001 4.74610217e-002 6.53277561e-002
      6.09641910e-001 1.28674135e-001 2.44674906e-001 2.69997883e+000
      8.26110877e-003 8.25244606e-001 3.20361555e-001 5.33540368e-001
      2.79023856e-001 4.24397111e-001 1.21574290e-001 1.28643155e-001
      1.11517580e-002 1.74339867e+000 6.46363676e-001 2.51412779e-001
      3.37447613e-001 4.35477234e-002 8.29034150e-001 7.86789507e-002
      1.10679165e-001 5.76449633e-002 7.67408637e-003 1.87688315e+000
      1.25392497e-001 4.60728794e-001 4.01163673e+000 4.46905233e-002
      3.58080000e-001 1.75541323e-002 1.08401597e+000 8.36299062e-002
      1.50817662e-001 6.70904145e-002 7.59382069e-001 4.77298021e-001
      2.14650109e-001 4.81221937e-002 1.49024978e-001 5.42390585e-001
      2.60556126e+000 3.19325060e-001 1.49274126e-001 1.46022812e-001
      9.62286711e-001 7.99141303e-002 3.73361260e-002 5.72287925e-002
      7.85789371e-001 5.42190522e-002 6.36066735e-001 1.17765337e-001
      9.49636009e-003 5.69696538e-003 7.81498671e-001 4.96674120e-001
      5.13460100e-001 1.39283407e+000 1.23853184e-001 7.63680935e-001
      3.22330557e-003 2.42899787e-002 4.95265871e-001 5.91777027e-001
      1.66201866e+000 3.68760884e-001 3.18940252e-001 1.45587945e+000
      1.07775497e+000 3.08847618e+000 1.58803785e+000 1.64628804e+000 0.
      0. 0. 0. 0. 0. 0. 0. 0. 0. 0. 0. 0. 0. 0. 0. 0. 0. 0. 0. 0. 0. 0.
      0. 0. 0. 0. 0. 0. 0. 0. 0. 0. 0. 0. 0. 0. 0. 0. 0. 0. 0. 0. 0. 0.
      0. 0. 0. 0. 0. 0. 0. 0. 0. 0. 0. 0. 0. 0. 0. 0. 0. 0. 0. 0. 0. 0.
      0. 0. 0. 0. 0. 0. 0. 0. 0. 0. 0. 0. 0. 0. 0. 0. 0. 0. 0. 0. 0. 0.
      0. 0. 0. 0. 0. 0. 0. 0. 0. 0. 0.</_>
    <_>
      1.67847514e-001 6.33526087e-001 1.13420081e+000 1.19000423e+000
      1.89613309e-002 2.28839207e+000 3.49282980e-001 3.68575960e-001
      7.75529593e-002 1.78664899e+000 4.76513594e-001 6.70246184e-001
      1.56551313e+000 5.41201770e-001 2.09192753e+000 1.61794102e+000
      1.54788136e-001 3.72289687e-001 1.19329536e+000 6.86296642e-001
      7.83403039e-001 1.60912484e-001 1.17195487e+000 7.75604188e-001
      8.03753808e-002 9.32564914e-001 4.39851522e-001 1.39506245e+000
      5.30266345e-001 7.10334033e-002 5.84445477e-001 3.61539364e-001
      1.55030537e+000 2.70000219e-001 1.20233095e+000 6.03655577e-001
      6.05412722e-001 5.79427958e-001 3.30950677e-001 8.18726242e-001
      2.08275504e-002 9.30000305e-001 2.81764179e-001 1.95373729e-001
      1.69891524e+000 7.09298790e-001 2.61163092e+000 1.53647578e+000
      1.27261388e+000 8.98208499e-001 4.41361554e-002 1.35798860e+000
      1.29740489e+000 4.58936870e-001 3.67887944e-001 2.36407593e-001
      5.26538529e-002 2.34865844e-001 1.31974174e-002 5.39207339e-001
      1.21335363e+000 4.57789958e-001 1.66517720e-002 3.64742607e-001
      5.07887125e-001 7.48190880e-001 2.51557946e-001 6.33193910e-001
      5.32464445e-001 1.30090225e+000 1.05511999e+000 6.31014466e-001
      5.48681557e-001 2.62839246e+000 8.31777275e-001 1.39762864e-001
      5.15354089e-002 1.53434777e+000 4.32655722e-001 1.97777951e+000
      1.72676548e-001 1.08673716e+000 2.66270135e-002 1.36244074e-001
      2.52371764e+000 1.11217570e+000 1.35333994e-002 2.33518600e-001
      7.20318377e-001 1.83901596e+000 4.41006720e-001 3.60924184e-001
      1.00325570e-001 1.39204514e+000 3.82164389e-001 1.62810779e+000
      2.94385362e+000 1.40615332e+000 1.52438015e-001 5.37918031e-001
      3.13577318e+000 1.51164603e+000 9.65108275e-002 2.90386379e-001
      1.89340070e-001 1.36235392e+000 1.04247916e+000 4.17068265e-002
      5.55148395e-003 1.15754865e-001 3.58082324e-001 1.63449657e+000
      1.05316281e-001 1.00012708e+000 4.85222600e-002 5.46888821e-002
      1.29928172e-001 6.55678689e-001 1.86441392e-002 2.48216963e+000
      6.63004041e-001 5.76484084e-001 3.13510954e-001 5.32122841e-003
      2.81142324e-001 3.80294859e-001 1.72440279e+000 4.07097429e-001
      3.83807510e-001 2.76786476e-001 1.74781099e-001 1.00592220e+000
      1.92609392e-002 6.57955587e-001 1.78684935e-001 6.04890049e-001
      5.80697417e-001 7.86449984e-002 4.32745516e-001 7.01920331e-001
      5.22822738e-001 2.91451514e-001 5.51879883e-001 2.02122524e-001
      2.08584857e+000 2.44824931e-001 1.27959564e-001 1.28772032e+000
      2.31120661e-001 4.90062758e-002 1.11900222e+000 1.13347113e+000
      6.22151434e-001 5.05068064e-001 2.17941618e+000 4.90020573e-001
      4.09587234e-001 1.95278132e+000 8.75508964e-001 6.87557459e-002
      5.86742878e-001 7.86821917e-002 1.87691927e-001 8.08039486e-001
      1.71481431e-001 9.28426802e-001 6.88609242e-001 1.55746341e-001
      1.93523288e-001 6.48688734e-001 5.05669415e-001 3.77618760e-001
      3.83056402e-001 4.00206357e-001 4.64123458e-001 6.92885742e-002
      2.92609215e-001 6.37876213e-001 2.14051008e-001 7.06740692e-002
      2.34803893e-002 6.36986941e-002 5.76070130e-001 5.41442215e-001
      7.70387232e-001 3.65319610e-001 1.71510458e-001 4.15790021e-001
      5.08635223e-001 2.39616901e-001 1.01547085e-001 1.71355319e+000
      5.95991433e-001 3.29808742e-001 1.38365471e+000 1.35096619e-002
      5.22481650e-002 8.93004596e-001 2.83349514e+000 4.82500255e-001
      1.86786130e-002 4.10020202e-001 3.32490534e-001 2.05664992e-001
      6.34243429e-001 1.41175818e+000 1.51942611e+000 8.61744583e-001
      5.09048283e-001 2.75827534e-002 2.01879125e-002 1.04564881e+000
      1.40596265e-002 2.90541887e+000 8.40912610e-002 1.22511041e+000
      1.33394623e+000 7.13686526e-001 5.40549695e-001 2.41900826e+000
      1.99843615e-001 4.58430380e-001 2.04912528e-001 2.46867204e+000
      2.99345165e-001 3.59528005e-001 5.63627221e-002 5.54247536e-002
      8.75779688e-001 1.84498951e-001 9.41086769e-001 7.97869623e-001
      2.08876971e-002 6.34085238e-001 1.50535002e-001 1.15551002e-001
      1.07138991e+000 1.28032759e-001 1.85192108e-001 2.23717824e-001
      2.39853822e-002 7.19101310e-001 2.70240545e-001 4.52149391e-001
      3.74989212e-001 2.03103516e-002 1.25235891e+000 2.01538101e-001
      1.26331775e-002 6.82306662e-002 4.63215029e-003 1.15492690e+000
      1.87628672e-001 1.32678187e+000 9.35684919e-001 6.97830617e-001
      6.86552763e-001 2.64952537e-002 9.22958136e-001 6.62330389e-002
      3.79791230e-001 9.10625532e-002 8.80073726e-001 4.49692756e-001
      1.45925835e-001 4.09378745e-002 7.37195194e-001 6.64398670e-001
      2.55396056e+000 7.73952603e-001 3.50473642e-001 5.31437039e-001
      9.26839828e-001 1.03714965e-001 7.22021461e-002 8.57401192e-001
      6.38007700e-001 2.28161514e-001 2.07214713e-001 7.31678009e-002
      4.16095257e-001 6.85474090e-003 7.34758973e-001 4.15726095e-001
      8.57608557e-001 1.40502203e+000 1.95845068e-001 1.06355929e+000
      8.24728794e-003 1.88051164e-002 5.20905495e-001 8.84301722e-001
      1.07821178e+000 1.90644473e-001 2.40269566e+000 2.18563533e+000
      1.62032390e+000 8.17454576e-001 6.81013644e-001 6.42260551e-001 0.
      0. 0. 0. 0. 0. 0. 0. 0. 0. 0. 0. 0. 0. 0. 0. 0. 0. 0. 0. 0. 0. 0.
      0. 0. 0. 0. 0. 0. 0. 0. 0. 0. 0. 0. 0. 0. 0. 0. 0. 0. 0. 0. 0. 0.
      0. 0. 0. 0. 0. 0. 0. 0. 0. 0. 0. 0. 0. 0. 0. 0. 0. 0. 0. 0. 0. 0.
      0. 0. 0. 0. 0. 0. 0. 0. 0. 0. 0. 0. 0. 0. 0. 0. 0. 0. 0. 0. 0. 0.
      0. 0. 0. 0. 0. 0. 0. 0. 0. 0. 0.</_>
    <_>
      1.73031777e-001 3.48311520e+000 2.20286012e-001 1.72363743e-001
      1.65852774e-002 3.53385031e-001 2.74015218e-001 4.99147058e-001
      2.64231060e-002 1.93565512e+000 8.57919693e-001 7.77582049e-001
      6.36031747e-001 2.71550393e+000 1.22413921e+000 1.44786179e-001
      4.32778567e-001 2.81219542e-001 7.48594701e-001 4.50755954e-001
      7.21988142e-001 3.70569140e-001 6.61043465e-001 4.76695567e-001
      2.89557651e-002 2.10938200e-001 2.20799744e-001 9.90160584e-001
      9.64103937e-001 5.02662770e-002 6.47502542e-001 1.80800855e-001
      8.55468929e-001 1.81425676e-001 1.05317497e+000 9.71485734e-001
      6.96955442e-001 7.18718112e-001 3.68010432e-001 9.87910151e-001
      1.68036614e-002 8.42354059e-001 2.03925714e-001 2.17769802e-001
      1.35332632e+000 2.71077812e-001 3.88810277e-001 8.08904648e-001
      1.80879402e+000 1.17832983e+000 9.34293270e-002 1.19019926e+000
      2.88067985e+000 8.41991425e-001 6.61335468e-001 1.98448211e-001
      4.19699773e-002 8.00237596e-001 4.66122665e-002 3.74941170e-001
      2.36347675e+000 2.31937933e+000 4.05706167e-002 4.86826628e-001
      3.23642761e-001 9.49146867e-001 2.34657884e-001 5.58384478e-001
      1.45802522e+000 7.51899362e-001 1.66507804e+000 7.45866895e-001
      5.38484752e-001 2.27129531e+000 8.17798734e-001 1.46951377e-001
      1.54075801e-001 1.59546420e-001 8.00333321e-001 1.69990361e+000
      1.27600253e-001 8.45103443e-001 5.79777174e-002 1.45021379e-001
      1.72213757e+000 7.25406885e-001 1.41949784e-002 8.23017731e-002
      1.01437843e+000 1.78599441e+000 7.14596927e-001 1.93392709e-001
      1.31704822e-001 8.19455504e-001 2.09757298e-001 1.52863562e+000
      3.61494571e-001 2.66510010e+000 1.52582571e-001 4.02881861e-001
      2.16020942e+000 2.26877761e+000 1.77187130e-001 3.94275099e-001
      1.17162079e-001 1.89654052e+000 1.24782610e+000 5.67776226e-002
      4.78573330e-003 2.78896481e-001 2.45088875e-001 1.22355545e+000
      4.63247359e-001 1.74984109e+000 9.43909734e-002 5.80408610e-002
      1.17246069e-001 9.25625682e-001 2.08948646e-002 1.12963033e+000
      3.20532233e-001 3.56428176e-001 7.76041567e-001 6.11399207e-003
      2.98396617e-001 1.54012218e-001 1.01346970e+000 6.62514567e-001
      1.37697971e+000 1.31608188e+000 1.48016259e-001 3.66091609e-001
      2.30258834e-002 4.12575752e-001 1.66233599e-001 8.29386950e-001
      2.56674528e-001 8.75135213e-002 6.78730011e-001 8.70990455e-001
      3.10097218e-001 1.47350132e+000 5.19464254e-001 6.30989015e-001
      1.32885396e+000 1.14973776e-001 2.13477507e-001 1.17799222e+000
      1.28697067e-001 1.11578748e-001 5.00890315e-001 2.25131106e+000
      1.11861670e+000 5.83745539e-001 1.47198367e+000 5.89402854e-001
      6.08701468e-001 1.78685760e+000 9.33315217e-001 5.68206534e-002
      6.37983739e-001 9.48137268e-002 2.93334991e-001 7.21536160e-001
      1.49249822e-001 4.50372547e-001 1.00023043e+000 1.65746748e-001
      1.22456968e-001 9.38689709e-001 7.13235438e-001 5.28108180e-001
      3.90975922e-001 2.71364838e-001 1.29352188e+000 6.34953231e-002
      4.94070768e-001 1.68671548e+000 2.24058449e-001 5.94889931e-002
      3.01859733e-002 6.64938465e-002 8.71645331e-001 5.40582299e-001
      5.75396061e-001 5.68940341e-001 1.61853388e-001 8.58155251e-001
      3.43043178e-001 1.37723133e-001 1.93258598e-001 8.83781195e-001
      8.06590438e-001 1.28093734e-001 1.70661911e-001 4.71334644e-002
      5.59166893e-002 1.72235286e+000 1.51697350e+000 3.85461867e-001
      2.09086817e-002 4.78783518e-001 1.66037172e-001 3.19691211e-001
      8.69011402e-001 1.99323606e+000 7.07693934e-001 9.77367640e-001
      4.91133213e-001 5.45934811e-002 2.10250802e-002 2.91427940e-001
      7.99432322e-002 9.38224792e-001 6.80443272e-002 2.04386234e+000
      1.22147453e+000 1.36863935e+000 6.88567758e-001 1.51090562e+000
      8.14097822e-002 6.62813127e-001 2.67540693e-001 3.12240648e+000
      2.01859176e-001 3.71809125e-001 8.91209021e-002 5.79353236e-002
      1.16567755e+000 4.63093370e-002 4.52753925e+000 1.25238764e+000
      2.74591595e-002 3.68011683e-001 2.56416649e-001 2.49343693e-001
      1.09883273e+000 4.93261218e-001 2.55552143e-001 1.45753875e-001
      3.14248092e-002 1.51495934e-001 3.67602825e-001 4.00796980e-001
      4.40703392e-001 1.54482732e-002 2.13693333e+000 9.83820707e-002
      2.61728857e-002 6.49804100e-002 5.49343089e-003 6.48799062e-001
      1.32247701e-001 4.78722662e-001 7.12462425e-001 2.72975564e-001
      4.35051024e-001 3.20066400e-002 2.85135984e+000 2.98075050e-001
      4.05160308e-001 8.87548402e-002 4.05582339e-001 1.38957655e+000
      8.62359405e-002 1.90263882e-001 5.17566741e-001 3.93165612e+000
      1.37449968e+000 4.21200782e-001 4.63772893e-001 1.15201509e+000
      8.03476274e-001 1.42146885e-001 7.42383748e-002 2.68692076e-001
      9.08543527e-001 1.97672471e-001 2.76629001e-001 2.24614337e-001
      1.41760266e+000 5.96914161e-003 2.02110267e+000 2.87129998e-001
      5.10568917e-001 1.94698155e+000 1.15406334e-001 1.40156186e+000
      9.51277278e-003 1.63891874e-002 4.09414917e-001 4.76234645e-001
      1.49461657e-001 9.48510915e-002 2.33060455e+000 1.07164562e+000
      3.33316267e-001 1.93779397e+000 4.32942003e-001 3.69512320e-001 0.
      0. 0. 0. 0. 0. 0. 0. 0. 0. 0. 0. 0. 0. 0. 0. 0. 0. 0. 0. 0. 0. 0.
      0. 0. 0. 0. 0. 0. 0. 0. 0. 0. 0. 0. 0. 0. 0. 0. 0. 0. 0. 0. 0. 0.
      0. 0. 0. 0. 0. 0. 0. 0. 0. 0. 0. 0. 0. 0. 0. 0. 0. 0. 0. 0. 0. 0.
      0. 0. 0. 0. 0. 0. 0. 0. 0. 0. 0. 0. 0. 0. 0. 0. 0. 0. 0. 0. 0. 0.
      0. 0. 0. 0. 0. 0. 0. 0. 0. 0. 0.</_>
    <_>
      9.48235542e-002 8.32114577e-001 8.90997529e-001 6.08053446e-001
      3.38815227e-002 3.94729078e-001 8.98938358e-001 1.03334472e-001
      8.63385275e-002 7.75171399e-001 1.08081055e+000 9.08321500e-001
      8.68274868e-001 9.29939508e-001 1.78883505e+000 3.29844415e-001
      3.60667288e-001 4.61932123e-001 1.34365714e+000 4.09910828e-001
      6.87450528e-001 2.45289564e-001 1.05581176e+000 4.67853665e-001
      2.74769347e-002 9.83770370e-001 2.72323519e-001 7.81066120e-001
      5.60066044e-001 4.08516452e-002 4.41883028e-001 8.83173570e-002
      7.38007486e-001 8.49493966e-002 1.00983226e+000 1.40456295e+000
      5.29423773e-001 4.95294809e-001 5.30336440e-001 1.12637544e+000
      2.14773417e-002 5.37211001e-001 4.21994805e-001 1.48605004e-001
      1.30108297e+000 3.88946950e-001 1.60717988e+000 8.44746530e-001
      1.38677812e+000 2.16259927e-001 6.18626736e-002 8.04817796e-001
      9.53126371e-001 3.02086413e-001 7.59069443e-001 1.08613098e+000
      4.36236076e-002 3.34358543e-001 9.26415436e-003 1.73061466e+000
      2.40318251e+000 9.99370396e-001 7.67718069e-003 6.55102611e-001
      4.27381814e-001 1.00090754e+000 8.86489332e-001 6.57992661e-001
      1.23199594e+000 2.50434899e+000 1.58537173e+000 1.31226671e+000
      2.00598788e+000 9.55944955e-001 6.11172318e-001 2.48960644e-001
      8.89379010e-002 3.81489277e-001 5.33137858e-001 1.34012353e+000
      7.79947564e-002 6.88134551e-001 3.19354720e-002 7.86665082e-002
      1.78698468e+000 1.33715296e+000 1.23147769e-002 1.75267071e-001
      7.31894493e-001 9.77412403e-001 4.56258506e-001 6.20637298e-001
      7.18828216e-002 7.83457220e-001 1.11769938e+000 1.24921918e+000
      1.81707120e+000 1.05104041e+000 1.43087149e-001 3.28399569e-001
      1.87080741e+000 6.56272054e-001 2.04459652e-001 3.46193433e-001
      3.74562651e-001 1.06083381e+000 1.08222878e+000 3.41710597e-002
      3.54147330e-003 9.79209319e-002 7.61878788e-001 7.31515944e-001
      1.43181279e-001 1.01835907e+000 5.41397519e-002 2.92414222e-002
      1.96434766e-001 4.09298062e-001 1.55603224e-002 2.02758193e+000
      5.18795371e-001 1.12133992e+000 3.63647193e-001 6.64772745e-003
      2.03316495e-001 1.12048283e-001 1.11677229e+000 6.73001945e-001
      6.47894800e-001 1.04475963e+000 9.06836316e-002 4.27833200e-001
      9.83184669e-003 1.00594473e+000 1.84442207e-001 9.37230825e-001
      4.37565297e-001 5.19888923e-002 1.12394118e+000 1.61933792e+000
      2.80090749e-001 7.83575773e-001 2.30769992e-001 3.01985383e-001
      5.14591992e-001 2.05404326e-001 1.20457932e-001 9.16428804e-001
      1.58806428e-001 7.35402405e-002 6.46586418e-001 1.41705441e+000
      5.72914124e-001 8.14155519e-001 9.22953725e-001 4.60151821e-001
      6.77029312e-001 9.33732927e-001 1.75482154e+000 5.53556532e-002
      7.79443562e-001 3.59425507e-002 4.18739855e-001 1.22267103e+000
      1.28185645e-001 1.63374424e+000 1.24941730e+000 2.45529756e-001
      1.09672390e-001 5.09073019e-001 7.74792075e-001 1.19002715e-001
      4.44505274e-001 5.93560219e-001 4.87870693e-001 1.00721359e-001
      7.05035448e-001 8.69089007e-001 4.15525615e-001 5.12954257e-002
      1.75820235e-002 4.07065824e-002 6.53934836e-001 3.88852119e-001
      1.18150795e+000 3.06324989e-001 1.41288698e-001 1.58240771e+000
      4.15210843e-001 2.24793240e-001 2.60662168e-001 1.18180764e+000
      5.33626139e-001 9.54275846e-001 3.86253387e-001 9.66312550e-003
      2.85118576e-002 1.17582572e+000 3.96099001e-001 3.60681325e-001
      1.56435277e-002 3.24623972e-001 6.38034761e-001 4.09824044e-001
      5.83211064e-001 6.24613583e-001 1.26055002e+000 1.10704017e+000
      5.25637388e-001 3.23825926e-002 4.19307724e-002 9.98986483e-001
      3.41551267e-002 1.13230872e+000 9.10934582e-002 7.00910807e-001
      3.48959017e+000 2.83293271e+000 7.19212770e-001 6.34746492e-001
      2.01768339e-001 5.01024127e-001 1.04674149e+000 2.88858128e+000
      1.09451711e+000 1.32859394e-001 5.33561260e-002 4.70014326e-002
      5.54919183e-001 1.87532648e-001 3.73146534e-001 2.17985606e+000
      7.24920491e-003 3.68641645e-001 4.61277455e-001 3.84289682e-001
      2.54601407e+000 5.32288671e-001 1.74066007e-001 1.02549963e-001
      3.67932022e-002 6.15429282e-001 5.28574586e-001 2.19216228e-001
      7.10178971e-001 1.20866653e-002 4.99581724e-001 1.26532361e-001
      1.73591599e-002 7.81382322e-002 7.77869811e-003 1.36061275e+000
      1.27894372e-001 7.91506112e-001 1.62524438e+000 3.63490391e+000
      1.50021791e+000 2.69434694e-002 8.84527504e-001 6.28777146e-002
      1.24721050e-001 5.53566739e-002 4.50244129e-001 5.49351275e-001
      2.69162774e-001 6.52272031e-002 1.59770775e+000 9.11207974e-001
      1.13359749e+000 1.04991281e+000 2.62109995e-001 5.84415972e-001
      6.21939719e-001 7.65061826e-002 4.25645076e-002 1.97425294e+000
      6.69849694e-001 8.31218883e-002 2.77689844e-001 6.13933168e-002
      5.50763369e-001 3.60097829e-003 1.00498080e+000 5.10107338e-001
      3.64629894e-001 1.42290592e+000 2.18924120e-001 8.98797691e-001
      8.09370447e-003 3.66335995e-002 4.49441314e-001 4.83209342e-001
      5.43670654e-001 1.09691620e-001 2.48521066e+000 7.95125365e-001
      1.30172813e+000 4.76245165e-001 6.67152107e-001 8.73109937e-001 0.
      0. 0. 0. 0. 0. 0. 0. 0. 0. 0. 0. 0. 0. 0. 0. 0. 0. 0. 0. 0. 0. 0.
      0. 0. 0. 0. 0. 0. 0. 0. 0. 0. 0. 0. 0. 0. 0. 0. 0. 0. 0. 0. 0. 0.
      0. 0. 0. 0. 0. 0. 0. 0. 0. 0. 0. 0. 0. 0. 0. 0. 0. 0. 0. 0. 0. 0.
      0. 0. 0. 0. 0. 0. 0. 0. 0. 0. 0. 0. 0. 0. 0. 0. 0. 0. 0. 0. 0. 0.
      0. 0. 0. 0. 0. 0. 0. 0. 0. 0. 0.</_>
    <_>
      1.48011312e-001 1.66870797e+000 8.93229723e-001 4.08758610e-001
      2.21775845e-002 3.98319125e-001 3.53108644e-001 2.51996517e-001
      6.19095750e-002 2.18061924e+000 1.18492401e+000 1.21443319e+000
      1.58528805e+000 1.25369740e+000 2.10187364e+000 3.78284484e-001
      3.17226589e-001 4.58327115e-001 1.27691865e+000 7.63926506e-001
      8.25528800e-001 4.94234860e-001 1.49770141e+000 5.77147126e-001
      2.98219565e-002 1.99421823e+000 3.38543743e-001 1.01836658e+000
      6.17039740e-001 6.46175444e-002 6.96815610e-001 2.19349667e-001
      9.63717997e-001 8.19694027e-002 1.26289499e+000 3.56048703e-001
      6.77656472e-001 7.10680723e-001 3.92515749e-001 1.09729302e+000
      3.37592065e-002 1.33606839e+000 3.29553276e-001 2.33095527e-001
      1.27612817e+000 3.50531429e-001 1.00878501e+000 1.23357463e+000
      2.03916049e+000 7.56139338e-001 6.64514154e-002 1.38938141e+000
      2.86782241e+000 1.08697021e+000 9.15825725e-001 9.99833763e-001
      7.92175978e-002 5.61274469e-001 5.06678876e-003 9.69545662e-001
      2.97558218e-001 2.68193513e-001 5.74494479e-003 5.73490024e-001
      3.93702865e-001 7.41136372e-001 9.58727956e-001 6.77903652e-001
      5.04246354e-001 1.91929007e+000 1.55333853e+000 6.61502302e-001
      3.15042406e-001 9.52305257e-001 8.26883972e-001 2.03736871e-001
      4.63148132e-002 7.25841582e-001 6.74710512e-001 1.60890126e+000
      3.23229879e-001 5.18467844e-001 8.85782298e-003 7.39911124e-002
      3.59934688e+000 8.38286996e-001 1.49340369e-002 1.21873870e-001
      2.00688910e+000 2.59585094e+000 7.06562400e-001 1.96036413e-001
      5.87659180e-002 2.58317739e-001 7.28565872e-001 1.57243800e+000
      1.46838248e+000 1.23698080e+000 1.18836142e-001 6.93255723e-001
      3.00067115e+000 1.71232677e+000 1.37067571e-001 4.41519707e-001
      3.81025016e-001 2.03195000e+000 1.35278404e+000 2.96576135e-002
      8.27186741e-003 1.83499739e-001 7.32053697e-001 7.35983193e-001
      9.27090123e-002 9.03198242e-001 8.68130550e-002 2.19860412e-002
      2.00292587e-001 1.10962915e+000 1.07281003e-002 2.55691504e+000
      3.67766619e-001 3.98869485e-001 4.87818778e-001 6.81957696e-003
      8.35413709e-002 1.51524723e-001 2.19275713e+000 3.05168062e-001
      6.91774964e-001 2.93667942e-001 2.17259601e-001 9.08137977e-001
      2.85663269e-002 2.19476628e+000 2.36888766e-001 4.14126039e-001
      2.43712261e-001 8.93875584e-002 4.13100123e-001 5.66139102e-001
      3.23540300e-001 3.47390532e-001 3.84708136e-001 4.28282499e-001
      2.08091116e+000 1.99746937e-001 2.01838568e-001 1.16642785e+000
      1.64160475e-001 1.05755337e-001 9.61778760e-001 1.04927814e+000
      1.45824838e+000 1.12316918e+000 2.62136245e+000 5.01305878e-001
      7.15631545e-001 2.24468851e+000 3.93929720e-001 3.60727608e-002
      7.49984145e-001 5.37503920e-002 1.98530599e-001 1.25080919e+000
      1.03036903e-001 1.99104857e+000 1.29926777e+000 1.63558975e-001
      3.23626548e-001 5.20512283e-001 9.60900426e-001 2.17028961e-001
      6.34982049e-001 4.12485749e-001 7.08411217e-001 4.92685139e-002
      4.06089544e-001 4.47502345e-001 3.94681752e-001 8.55415985e-002
      3.14507782e-002 7.25482330e-002 7.21643388e-001 3.49441260e-001
      2.87049383e-001 4.32221144e-001 2.83775359e-001 1.69616187e+000
      2.49422610e-001 1.77449152e-001 1.48861200e-001 1.63475943e+000
      1.00333261e+000 2.36518800e-001 5.77727079e-001 5.15038148e-003
      2.33350378e-002 1.61982727e+000 1.13911951e+000 2.56537855e-001
      1.06612192e-002 3.42079341e-001 6.29152060e-001 2.52138853e-001
      1.00394368e+000 2.47743678e+000 2.32632589e+000 1.16764748e+000
      6.35963678e-001 9.42952838e-003 1.11398343e-002 1.40650475e+000
      1.00163398e-002 2.10338736e+000 4.49024253e-002 1.29663670e+000
      4.58432049e-001 3.63260835e-001 1.02249193e+000 2.42873764e+000
      8.91818255e-002 6.71286464e-001 2.65554994e-001 2.54144698e-001
      3.94898713e-001 2.74642080e-001 9.11055207e-002 6.39056265e-002
      9.86615777e-001 1.88118041e-001 2.59592891e-001 4.55190927e-001
      6.71134423e-003 8.28234494e-001 1.43214643e-001 2.58630544e-001
      2.28237122e-001 3.56389999e-001 2.32347205e-001 3.13206345e-001
      2.02262681e-002 9.36783373e-001 3.06778163e-001 1.29943103e-001
      5.08538127e-001 2.35786270e-002 1.17160988e+000 1.86599731e-001
      1.60767063e-002 4.04248051e-002 7.49711553e-003 1.56020784e+000
      1.44718707e-001 2.87979871e-001 1.07497537e+000 6.56062484e-001
      3.75408113e-001 3.60981077e-002 2.35143781e+000 5.30909449e-002
      3.12731266e-001 8.39884579e-002 4.18123275e-001 9.93784368e-001
      8.77357200e-002 4.22854647e-002 1.69090271e-001 1.59206057e+000
      9.69834685e-001 1.02529407e+000 5.07703602e-001 1.90287679e-001
      3.09429288e-001 5.28561659e-002 7.43163601e-002 6.07922912e-001
      8.44272971e-001 1.50663227e-001 3.47685397e-001 7.08047748e-002
      3.14904422e-001 9.11743194e-003 1.51923835e+000 3.07657301e-001
      5.00802338e-001 2.12401390e+000 2.37495795e-001 2.33082747e+000
      5.82086807e-003 2.39100959e-002 1.96107984e-001 3.26168180e-001
      3.94410431e-001 2.89233148e-001 7.78300107e-001 1.21695852e+000
      1.08999252e+000 7.18692422e-001 9.62269306e-001 2.11822534e+000 0.
      0. 0. 0. 0. 0. 0. 0. 0. 0. 0. 0. 0. 0. 0. 0. 0. 0. 0. 0. 0. 0. 0.
      0. 0. 0. 0. 0. 0. 0. 0. 0. 0. 0. 0. 0. 0. 0. 0. 0. 0. 0. 0. 0. 0.
      0. 0. 0. 0. 0. 0. 0. 0. 0. 0. 0. 0. 0. 0. 0. 0. 0. 0. 0. 0. 0. 0.
      0. 0. 0. 0. 0. 0. 0. 0. 0. 0. 0. 0. 0. 0. 0. 0. 0. 0. 0. 0. 0. 0.
      0. 0. 0. 0. 0. 0. 0. 0. 0. 0. 0.</_>
    <_>
      1.50236502e-001 6.75356567e-001 4.74606186e-001 6.69409752e-001
      1.72319431e-002 4.45542514e-001 3.40761006e-001 1.12102851e-001
      3.18517722e-002 9.66900945e-001 1.45465004e+000 1.94840419e+000
      3.44877988e-001 5.59548318e-001 1.00233853e+000 5.20515084e-001
      3.22752804e-001 5.33558547e-001 9.32829797e-001 2.28495985e-001
      4.78224218e-001 5.96146822e-001 6.68303370e-001 2.92101115e-001
      2.27120444e-002 7.36376047e-001 2.46359870e-001 4.06438649e-001
      5.40390491e-001 4.37844694e-002 2.17111588e-001 8.96131471e-002
      4.51175332e-001 6.49581328e-002 2.97101080e-001 1.88039494e+000
      1.87296927e-001 2.16137573e-001 1.95640102e-001 6.52828097e-001
      1.24054970e-002 4.26405281e-001 4.31475312e-001 8.37291256e-002
      5.80508471e-001 1.48622203e+000 7.69289076e-001 6.16460025e-001
      6.37014568e-001 1.72097731e+000 3.35742682e-002 1.20118260e+000
      9.40081418e-001 1.21537888e+000 5.46292365e-001 1.47057879e+000
      1.05004251e-001 5.07832110e-001 8.89022555e-003 1.11432695e+000
      8.87628078e-001 1.42791235e+000 6.27517141e-003 2.72457480e-001
      1.71523929e-001 8.87727022e-001 1.65341711e+000 2.64535189e-001
      1.79868782e+000 7.35195935e-001 6.30979061e-001 1.99603283e+000
      1.47968400e+000 7.19357252e-001 3.36592704e-001 1.22218236e-001
      6.11500368e-002 9.68585789e-001 4.75499094e-001 5.12174547e-001
      2.33148813e-001 1.92657411e-001 2.54300982e-002 8.68413672e-002
      1.61683559e+000 6.34374559e-001 1.28721213e-002 3.47862512e-001
      1.05345345e+000 8.89425933e-001 2.27591202e-001 3.64868790e-001
      6.19015172e-002 1.20736694e+000 1.33286250e+000 3.87426823e-001
      7.03307748e-001 1.14371073e+000 4.29989658e-002 2.31647804e-001
      1.40957808e+000 3.46856415e-001 1.58303455e-001 3.70096415e-001
      3.53438109e-001 6.27528667e-001 1.34841764e+000 2.13807914e-002
      3.44108907e-003 1.08337827e-001 3.41622710e-001 1.47122681e+000
      1.31960973e-001 4.48147058e-001 2.13084575e-002 3.32987458e-002
      1.55514181e-001 2.40121394e-001 6.62167976e-003 8.90620410e-001
      4.10432100e-001 1.01310861e+000 1.49038553e-001 4.06635134e-003
      2.58928329e-001 1.01261392e-001 9.31377947e-001 3.53605568e-001
      5.56359768e-001 3.46732259e-001 7.61217624e-002 3.59972090e-001
      1.51119558e-002 9.68623281e-001 1.10671200e-001 3.97146732e-001
      7.56577611e-001 3.52803916e-002 2.83612072e-001 2.31563354e+000
      2.15912476e-001 3.65547091e-001 4.03805822e-001 2.29093999e-001
      1.16424775e+000 1.50486097e-001 5.49673922e-002 6.82727993e-001
      9.75902602e-002 5.66052720e-002 6.62502587e-001 1.70989227e+000
      3.08974057e-001 7.64400661e-001 8.34931195e-001 2.24515840e-001
      3.47097218e-001 8.89556110e-001 4.18334931e-001 4.51564267e-002
      4.63250339e-001 2.22048685e-002 4.40337628e-001 1.24847150e+000
      9.17889997e-002 9.72489476e-001 6.70947611e-001 1.38059795e-001
      2.01919317e-001 4.04095173e-001 1.49952447e+000 1.02900207e-001
      2.19702721e-001 3.66654634e-001 6.31448805e-001 4.47111577e-002
      4.03941214e-001 2.61977315e-001 5.42204738e-001 3.08806524e-002
      1.16796736e-002 2.62605213e-002 3.19377989e-001 1.83734059e-001
      2.05194092e+000 2.71953881e-001 5.61048500e-002 1.36214423e+000
      7.61020958e-001 1.36769980e-001 1.71434492e-001 1.16468263e+000
      8.45557809e-001 6.98476672e-001 9.02744174e-001 8.94223154e-003
      3.62980068e-002 5.72913229e-001 9.62915123e-001 2.74508357e-001
      6.58063171e-003 3.00489455e-001 2.44072735e-001 1.38846770e-001
      9.63513196e-001 8.58692527e-001 8.02702188e-001 5.19484878e-001
      2.00487107e-001 2.53399611e-002 2.09886841e-002 6.29949331e-001
      3.05243395e-002 5.13891637e-001 4.39177342e-002 8.20765495e-001
      1.90850866e+000 1.62221777e+000 6.83266640e-001 7.19913661e-001
      1.38766423e-001 2.92371392e-001 8.72245908e-001 1.04958129e+000
      6.31797254e-001 1.56100363e-001 2.79099531e-002 2.43263096e-002
      2.88039863e-001 6.97685257e-002 1.80003226e+000 1.74966300e+000
      5.71544142e-003 4.16126579e-001 1.13772556e-001 3.30536932e-001
      1.11142516e+000 4.21017379e-001 1.08882934e-001 1.90716639e-001
      1.37359165e-002 3.59448642e-001 5.12826324e-001 9.55144614e-002
      2.51069903e-001 1.12829525e-002 2.59825289e-001 1.24832422e-001
      1.44843375e-002 5.85794300e-002 5.00106439e-003 1.31414139e+000
      7.36669526e-002 7.79185891e-001 1.82168365e+000 1.22734272e+000
      1.84310925e+000 1.06378011e-002 7.37097740e-001 5.22696935e-002
      1.56836793e-001 4.07779068e-002 5.25893927e-001 2.52778530e-001
      1.21010974e-001 7.78860524e-002 1.01616406e+000 7.21571445e-001
      1.34832191e+000 3.60999495e-001 2.10742593e-001 3.86111706e-001
      5.15030682e-001 6.69203550e-002 2.16872487e-002 1.45577645e+000
      3.63831758e-001 7.29549751e-002 7.50650406e-001 6.77557513e-002
      4.61324841e-001 4.37270151e-003 9.37705040e-001 3.50959390e-001
      4.40740943e-001 1.31959367e+000 1.00874372e-001 4.29211646e-001
      4.03647544e-003 1.82003640e-002 3.58896047e-001 3.94874603e-001
      6.41303897e-001 2.00154528e-001 4.21903163e-001 1.73887992e+000
      8.74969780e-001 6.54687583e-001 5.55098832e-001 1.04628658e+000 0.
      0. 0. 0. 0. 0. 0. 0. 0. 0. 0. 0. 0. 0. 0. 0. 0. 0. 0. 0. 0. 0. 0.
      0. 0. 0. 0. 0. 0. 0. 0. 0. 0. 0. 0. 0. 0. 0. 0. 0. 0. 0. 0. 0. 0.
      0. 0. 0. 0. 0. 0. 0. 0. 0. 0. 0. 0. 0. 0. 0. 0. 0. 0. 0. 0. 0. 0.
      0. 0. 0. 0. 0. 0. 0. 0. 0. 0. 0. 0. 0. 0. 0. 0. 0. 0. 0. 0. 0. 0.
      0. 0. 0. 0. 0. 0. 0. 0. 0. 0. 0.</_>
    <_>
      1.95444837e-001 1.29170549e+000 2.04484391e+000 5.59872210e-001
      3.41565236e-002 1.82715639e-001 6.13886178e-001 1.63022891e-001
      8.46065208e-002 2.61123037e+000 7.85157859e-001 1.31700301e+000
      3.99244130e-001 4.10857826e-001 8.52017760e-001 1.24292171e+000
      6.48231506e-001 4.77129519e-001 1.86925459e+000 1.04777408e+000
      4.19903934e-001 3.78702581e-001 2.34141088e+000 5.90517700e-001
      2.88334154e-002 2.80404210e+000 6.15561604e-001 1.73252249e+000
      3.21682304e-001 4.01221775e-002 4.51442689e-001 9.71260071e-002
      1.76693988e+000 7.89329112e-002 8.31422746e-001 1.82144129e+000
      4.54358995e-001 8.44062150e-001 6.70356929e-001 1.26808774e+000
      2.84585636e-002 1.11177377e-001 4.23149228e-001 1.33035272e-001
      1.57644689e+000 8.20346847e-002 4.54157621e-001 2.46957272e-001
      1.03775907e+000 1.94152212e+000 4.28590216e-002 5.65939665e-001
      2.51727700e+000 4.59347636e-001 6.86244130e-001 6.96340680e-001
      6.16092868e-002 9.10735190e-001 7.02406652e-003 6.45231426e-001
      7.57956028e-001 6.98060215e-001 6.01473311e-003 6.40968025e-001
      4.72368032e-001 5.24585068e-001 7.17507839e-001 6.88078463e-001
      3.22709060e+000 3.87068272e-001 1.76732075e+000 9.09176469e-001
      7.04733133e-001 1.22118878e+000 1.39824641e+000 3.87785703e-001
      6.19627349e-002 5.57888150e-001 8.92336965e-001 2.71791637e-001
      1.14597917e-001 3.07581097e-001 1.77323632e-002 1.21667080e-001
      3.00649881e+000 1.56394482e+000 1.26971817e-002 9.48002487e-002
      1.10987210e+000 1.60212529e+000 6.05015397e-001 6.41693115e-001
      3.93383205e-002 8.21611464e-001 2.57980704e+000 2.79419214e-001
      4.04806703e-001 6.98197067e-001 9.69770998e-002 4.90511179e-001
      1.83831871e+000 1.65847838e+000 3.06062162e-001 4.11313027e-001
      3.94866705e-001 1.45010746e+000 5.48171997e-001 2.89773662e-002
      4.16492624e-003 1.75238833e-001 1.15210271e+000 1.55559075e+000
      2.10169524e-001 9.01321709e-001 7.35969692e-002 5.91165833e-002
      2.09871426e-001 7.20603704e-001 1.05262790e-002 9.92869735e-001
      7.90442705e-001 1.25357747e+000 3.73035312e-001 1.09112486e-002
      9.06236842e-002 9.66420025e-002 2.21189380e+000 7.23335564e-001
      5.14283121e-001 4.49113667e-001 2.78540015e-001 5.19133270e-001
      1.71653796e-002 3.00604558e+000 1.68095484e-001 7.73101985e-001
      4.89772171e-001 8.40320215e-002 9.29467022e-001 1.55132127e+000
      3.89759094e-001 4.03438628e-001 5.28815746e-001 2.08599806e-001
      1.14124691e+000 1.36644483e-001 2.11238682e-001 3.25453699e-001
      2.79145509e-001 1.05592176e-001 3.08225662e-001 5.55889368e-001
      4.74588990e-001 1.68881607e+000 1.99689949e+000 3.45204294e-001
      8.35901499e-001 7.26901889e-001 1.46013582e+000 4.19629663e-002
      1.60166276e+000 2.60724109e-002 5.78103900e-001 1.07093859e+000
      1.06488772e-001 3.55157763e-001 1.17712593e+000 3.01154196e-001
      1.83197036e-001 4.56557810e-001 9.14571762e-001 1.19373672e-001
      5.23535132e-001 1.04341257e+000 4.25112337e-001 4.79411110e-002
      6.74691737e-001 1.14471340e+000 5.04652023e-001 8.58325288e-002
      2.70377640e-002 5.33551313e-002 4.01434094e-001 5.46732605e-001
      9.73686337e-001 4.69517976e-001 2.11057946e-001 7.30988383e-001
      5.85206032e-001 2.64563322e-001 3.56352925e-001 2.77740860e+000
      1.32115945e-001 1.66531205e-001 5.20140886e-001 7.21138855e-003
      5.15549518e-002 1.15274894e+000 1.28121400e+000 3.94197613e-001
      1.05955265e-002 4.57954913e-001 1.00300598e+000 3.09688836e-001
      2.56626773e+000 1.98234057e+000 2.58860779e+000 4.47226614e-001
      1.06139684e+000 1.70943961e-002 1.65658761e-002 3.24415588e+000
      1.42129613e-002 7.64143705e-001 5.19654825e-002 1.94943929e+000
      2.84023881e+000 2.27976203e+000 4.86795217e-001 1.78356147e+000
      2.64622718e-001 7.76053250e-001 2.02904725e+000 7.18239963e-001
      7.43942797e-001 9.70648974e-002 8.37936550e-002 8.07930976e-002
      2.83629179e-001 3.46994936e-001 2.52875626e-001 2.24411201e+000
      3.62782786e-003 6.28039718e-001 3.66419405e-001 1.10074615e+000
      1.11873555e+000 3.78681511e-001 2.46072382e-001 1.37135312e-001
      1.54315019e-002 2.35467124e+000 5.13123691e-001 1.32977679e-001
      1.09577668e+000 1.57478452e-002 1.66745353e+000 1.61547810e-001
      1.22534251e-002 6.19595870e-002 1.03972768e-002 1.66756630e+000
      1.16098486e-001 3.57272834e-001 3.53313565e-001 6.31592691e-001
      1.92030013e+000 3.32890600e-002 1.05759835e+000 3.82625237e-002
      1.00221083e-001 8.72931182e-002 5.69979846e-001 6.95969403e-001
      1.18150204e-001 5.46753481e-002 8.53017926e-001 1.39064121e+000
      1.69309068e+000 1.08209625e-001 5.63561857e-001 2.06461087e-001
      1.78499550e-001 3.91491391e-002 6.82433248e-002 1.06610715e+000
      8.68253708e-001 2.65282482e-001 4.46152896e-001 3.62441540e-002
      3.84015590e-001 4.79163975e-003 1.52373159e+000 3.75743985e-001
      5.06087422e-001 2.05310965e+000 1.26463786e-001 9.51745808e-001
      5.78444079e-003 3.43678333e-002 2.54011989e-001 1.02376044e+000
      1.94952929e+000 1.50238797e-001 5.66152275e-001 2.58226776e+000
      1.20410490e+000 5.63030899e-001 9.16048765e-001 2.94087434e+000 0.
      0. 0. 0. 0. 0. 0. 0. 0. 0. 0. 0. 0. 0. 0. 0. 0. 0. 0. 0. 0. 0. 0.
      0. 0. 0. 0. 0. 0. 0. 0. 0. 0. 0. 0. 0. 0. 0. 0. 0. 0. 0. 0. 0. 0.
      0. 0. 0. 0. 0. 0. 0. 0. 0. 0. 0. 0. 0. 0. 0. 0. 0. 0. 0. 0. 0. 0.
      0. 0. 0. 0. 0. 0. 0. 0. 0. 0. 0. 0. 0. 0. 0. 0. 0. 0. 0. 0. 0. 0.
      0. 0. 0. 0. 0. 0. 0. 0. 0. 0. 0.</_>
    <_>
      1.37445554e-001 7.59864509e-001 7.16167510e-001 6.04207039e-001
      2.31272373e-002 4.28938717e-001 4.18113410e-001 2.49200627e-001
      6.48000240e-002 1.10833836e+000 5.32230794e-001 2.78050900e-001
      7.09378839e-001 8.37991834e-001 1.37880433e+000 5.72283626e-001
      1.29363894e-001 5.86108625e-001 1.75442958e+000 3.51948202e-001
      2.25719437e-001 1.92214966e-001 7.34097540e-001 5.52851856e-001
      1.27545502e-002 1.33385193e+000 3.41640502e-001 6.78067505e-001
      5.02163708e-001 4.04928476e-002 3.11139613e-001 4.96748276e-002
      6.17724657e-001 4.24585417e-002 4.11004931e-001 2.26391983e+000
      3.00785005e-001 6.74179077e-001 4.06172693e-001 1.25939739e+000
      1.62664931e-002 2.48224791e-002 4.50434774e-001 9.41799656e-002
      4.66415137e-001 0. 1.89684808e+000 1.21420979e+000 1.40016651e+000
      5.22407949e-001 3.60150039e-002 1.69335830e+000 1.19363379e+000
      4.39112216e-001 5.92898965e-001 1.42941311e-001 1.02009237e-001
      5.53566635e-001 3.29950685e-003 2.28174782e+000 1.67750001e-001
      1.47626257e+000 7.89714884e-003 4.35881078e-001 2.10126415e-001
      2.09180188e+000 1.42414466e-001 4.98870581e-001 3.48327851e+000
      6.47018194e-001 1.08511162e+000 1.35702229e+000 1.35873139e-001
      1.70564604e+000 1.35036552e+000 9.62087139e-002 7.32684806e-002
      1.67042005e+000 2.84307212e-001 3.34204853e-001 2.46772081e-001
      5.77856660e-001 8.95651244e-003 3.50823611e-001 1.36439550e+000
      7.31554031e-001 8.16800166e-003 2.46328339e-001 2.08882046e+000
      8.95163536e-001 2.98271298e-001 5.39601624e-001 5.91140017e-002
      2.72191215e+000 2.48642534e-001 3.46188843e-001 1.59491098e+000
      1.16466570e+000 1.17007852e-001 1.59473285e-001 2.17282319e+000
      9.39597130e-001 1.20605662e-001 4.49972391e-001 7.79412016e-002
      7.24081993e-001 1.01493609e+000 7.67124146e-002 2.08917051e-003
      1.52926341e-001 9.59225059e-001 7.35427380e-001 1.51327074e-001
      6.09750509e-001 3.58318165e-002 2.62933318e-002 5.62031455e-002
      4.30485845e-001 1.15141133e-002 1.94668758e+000 7.09243476e-001
      2.01741266e+000 3.14772457e-001 5.61920600e-003 1.75190687e-001
      4.65532392e-002 1.06712925e+000 5.15742183e-001 2.73243934e-001
      2.72090048e-001 2.12910235e-001 3.01105469e-001 1.61713902e-002
      1.72578430e+000 1.15803562e-001 4.86428410e-001 3.00859451e-001
      4.13838662e-002 6.10424757e-001 1.74606466e+000 2.51374990e-001
      2.96294540e-001 3.54748964e-001 4.53471541e-001 2.87676620e+000
      1.69258550e-001 8.61260593e-002 1.12748623e+000 8.23010877e-002
      6.59122616e-002 3.18416297e-001 8.42973709e-001 4.25755352e-001
      6.17749512e-001 1.17100716e+000 3.13039482e-001 6.33387506e-001
      9.85890150e-001 6.24909937e-001 6.59462586e-002 9.61472273e-001
      4.34297882e-002 5.75956285e-001 4.35156852e-001 3.66462648e-001
      5.80783308e-001 1.17895436e+000 9.67930704e-002 3.67178321e-001
      4.07489300e-001 3.57992738e-001 2.41494924e-001 2.72165656e-001
      5.08373082e-001 2.81756163e-001 3.51531766e-002 4.18509632e-001
      8.03369582e-001 3.70197475e-001 4.01207916e-002 1.17087523e-002
      3.56361046e-002 6.28333032e-001 3.35919857e-001 2.12063932e+000
      5.75654984e-001 1.97926328e-001 6.77102268e-001 6.62046015e-001
      1.74826965e-001 1.95957839e-001 7.43048191e-001 1.23403251e+000
      5.11931896e-001 1.33865118e+000 3.23439296e-003 2.43404824e-002
      1.00931787e+000 2.31680799e+000 2.15493053e-001 1.15267765e-002
      2.68884987e-001 5.50559580e-001 2.76489884e-001 3.88718605e-001
      1.17706323e+000 7.82132804e-001 3.45219642e-001 6.27813756e-001
      8.12835991e-003 1.57376193e-002 1.70449698e+000 5.98474406e-003
      5.55633366e-001 5.91310784e-002 1.35764623e+000 1.31144857e+000
      2.58926940e+000 1.21903503e+000 1.09813893e+000 2.38868758e-001
      3.96547467e-001 2.00636968e-001 1.15202613e-001 1.38505721e+000
      1.64444521e-001 4.33586277e-002 4.11123186e-002 5.50770342e-001
      1.75149709e-001 1.43637383e+000 2.65853596e+000 7.56875845e-003
      1.27584362e+000 5.13491750e-001 1.20240197e-001 0. 1.28499717e-001
      1.36759728e-001 1.57703832e-001 1.60189439e-002 6.82824373e-001
      9.91426349e-001 2.03302130e-001 5.71447194e-001 1.06649585e-002
      7.85498798e-001 1.16861105e-001 1.28707718e-002 8.31761211e-002
      6.03811815e-003 1.27695262e+000 1.94678426e-001 2.04098865e-001
      1.75020516e+000 1.33458948e+000 1.56561577e+000 1.82361621e-002
      8.75320077e-001 5.12647368e-002 1.23337895e-001 5.43567911e-002
      1.19787610e+000 2.86031991e-001 1.48580775e-001 5.97661994e-002
      4.35350209e-001 7.79550195e-001 1.75325346e+000 0. 3.13267827e-001
      5.04316211e-001 1.11348890e-001 5.96262440e-002 4.68290523e-002
      2.77613902e+000 5.06685615e-001 1.49390116e-001 3.35090786e-001
      7.21759945e-002 6.29632771e-001 6.01149211e-003 2.22617960e+000
      5.89031339e-001 6.90971434e-001 1.33848476e+000 1.46215007e-001
      6.06280923e-001 4.86609014e-003 2.35220846e-002 8.03555772e-002
      7.15711832e-001 8.02736819e-001 3.13968152e-001 6.91515565e-001
      6.47939146e-001 6.87167466e-001 1.12073028e+000 9.91669774e-001
      1.46603739e+000 0. 0. 0. 0. 0. 0. 0. 0. 0. 0. 0. 0. 0. 0. 0. 0. 0.
      0. 0. 0. 0. 0. 0. 0. 0. 0. 0. 0. 0. 0. 0. 0. 0. 0. 0. 0. 0. 0. 0.
      0. 0. 0. 0. 0. 0. 0. 0. 0. 0. 0. 0. 0. 0. 0. 0. 0. 0. 0. 0. 0. 0.
      0. 0. 0. 0. 0. 0. 0. 0. 0. 0. 0. 0. 0. 0. 0. 0. 0. 0. 0. 0. 0. 0.
      0. 0. 0. 0. 0. 0. 0. 0. 0. 0. 0. 0. 0. 0. 0. 0. 0.</_>
    <_>
      1.18624240e-001 3.51756573e-001 1.14681292e+000 1.70416415e-001
      2.32209824e-002 1.27927125e-001 3.89595956e-001 1.48134574e-001
      6.37118891e-002 1.41617513e+000 1.48557651e+000 1.27303100e+000
      2.18077636e+000 1.98047593e-001 1.33306468e+000 2.89757580e-001
      5.19525170e-001 6.71037257e-001 1.83453333e+000 5.59690952e-001
      1.63301840e-001 8.45029712e-001 2.08662343e+000 7.68244505e-001
      3.01897097e-002 2.99537754e+000 6.81977868e-001 2.97215194e-001
      2.62158841e-001 6.60343096e-002 2.81995386e-001 7.93956965e-002
      2.08312050e-001 1.04338974e-001 3.53964925e-001 1.04974508e+000
      2.10146382e-001 2.15855375e-001 6.73399091e-001 7.92241871e-001
      1.58743281e-002 1.95366466e+000 1.90061122e-001 7.90558085e-002
      5.69080949e-001 1.38612902e+000 1.08809197e+000 2.08855763e-001
      6.05521441e-001 4.53793794e-001 4.63033356e-002 1.51928353e+000
      1.24056959e+000 1.74078000e+000 9.29694831e-001 1.29051983e+000
      9.97229218e-002 9.56306458e-001 2.12740526e-002 6.46193445e-001
      1.18055964e+000 6.96415305e-001 3.03199701e-002 2.41814077e-001
      1.54920831e-001 1.00693047e+000 1.66424179e+000 3.15512955e-001
      9.65591490e-001 1.38155973e+000 7.46380627e-001 1.02992439e+000
      7.15459704e-001 9.61818218e-001 2.47426915e+000 1.60347030e-001
      8.36303458e-002 1.95193923e+000 8.95838916e-001 1.73127532e-001
      2.87253439e-001 1.21033204e+000 4.79907840e-002 1.53639212e-001
      1.31540596e+000 4.49885428e-001 1.26708401e-002 3.27266127e-001
      3.38028169e+000 1.30744767e+000 8.73472631e-001 4.92646426e-001
      2.47063518e-001 5.56758583e-001 1.19909751e+000 1.57333419e-001
      1.44393539e+000 1.43955827e+000 7.92031363e-002 5.76864302e-001
      1.19765425e+000 2.59949595e-001 1.57300889e-001 8.29691947e-001
      4.33177739e-001 4.58223701e-001 2.54473948e+000 4.08989340e-002
      4.26382944e-003 1.41739339e-001 1.32705009e+000 3.29196382e+000
      2.52563089e-001 1.63407409e+000 6.06220067e-002 4.05107997e-002
      2.28966147e-001 1.85333952e-001 6.52868627e-003 6.17471814e-001
      6.34447753e-001 7.67303884e-001 6.04925632e-001 7.60160247e-003
      3.75362992e-001 1.06500983e-001 9.89726305e-001 2.52901435e-001
      7.09874570e-001 8.27742577e-001 1.16083995e-001 7.98781633e-001
      1.42959403e-002 3.43778563e+000 8.57688338e-002 5.44752479e-001
      1.05197632e+000 2.32606325e-002 6.40025258e-001 8.62858593e-001
      1.31095991e-001 9.01755333e-001 7.56144226e-001 9.87625539e-001
      1.00673079e+000 1.70921952e-001 1.91167638e-001 3.22725534e-001
      1.76928237e-001 1.22476876e-001 6.21589601e-001 1.69057429e+000
      6.78147197e-001 1.93952751e+000 1.26395988e+000 1.23385601e-001
      8.03236187e-001 5.42710543e-001 6.64151430e-001 6.02952875e-002
      2.24265909e+000 2.67446376e-002 4.84097511e-001 6.64107859e-001
      1.38655230e-001 1.15049458e+000 8.51939738e-001 1.96153626e-001
      2.59774774e-001 4.12288845e-001 1.69488204e+000 1.57216668e-001
      2.10151359e-001 2.47380778e-001 8.36035788e-001 5.82379363e-002
      5.02816617e-001 2.35539839e-001 2.70237684e-001 6.40157536e-002
      2.28496902e-002 7.44965523e-002 9.97823030e-002 1.32929102e-001
      1.21897840e+000 5.24696648e-001 1.74681023e-001 1.42729187e+000
      9.10522819e-001 2.09679022e-001 1.89722106e-001 2.32865596e+000
      1.13384497e+000 5.92602253e-001 1.85992396e+000 2.20723953e-002
      4.14229818e-002 4.23786283e-001 1.08640552e+000 4.16773707e-001
      6.52705599e-003 2.01765612e-001 8.97185862e-001 1.84332952e-001
      1.80205905e+000 1.25580168e+000 2.74893761e+000 1.92914128e-001
      1.21350873e+000 4.86239530e-002 2.93534044e-002 3.53960705e+000
      2.43227072e-002 4.28047031e-001 9.08250958e-002 5.41536629e-001
      1.08695054e+000 1.00935602e+000 2.54595494e+000 6.81763768e-001
      2.66126662e-001 3.84331256e-001 1.52417541e+000 1.35725188e+000
      3.88420612e-001 3.56620789e-001 8.02748203e-002 6.94102272e-002
      3.82167876e-001 2.47146934e-001 7.74072111e-001 1.17025280e+000
      3.33388112e-002 4.14852291e-001 3.84143472e-001 5.88754952e-001
      6.07210398e-001 4.37582612e-001 1.24182522e-001 1.17378250e-001
      2.50811558e-002 1.19394660e+000 5.47034025e-001 2.69850135e-001
      9.98323441e-001 1.23030348e-002 1.90550014e-001 2.32756272e-001
      1.28677944e-002 1.45686224e-001 7.22863711e-003 1.64747465e+000
      1.87382907e-001 4.04149085e-001 1.36446166e+000 5.05251706e-001
      4.93626297e-001 2.33300645e-002 1.95752847e+000 1.86163113e-001
      3.13172609e-001 7.79774264e-002 2.72510648e-001 2.09059536e-001
      1.75808191e-001 5.08622825e-002 7.32782960e-001 3.75214428e-001
      1.05403817e+000 1.46348739e+000 7.47051775e-001 3.28515589e-001
      6.16629779e-001 2.51855284e-001 8.97370055e-002 5.75517476e-001
      6.56619787e-001 1.51376471e-001 1.85209170e-001 2.48203844e-001
      4.89363313e-001 5.31174941e-003 4.00408506e+000 6.22494817e-001
      8.13783944e-001 1.13088834e+000 1.58494577e-001 3.81912768e-001
      7.80404452e-003 2.46401094e-002 7.48035550e-001 5.29081762e-001
      7.33406007e-001 2.55239367e-001 8.55431736e-001 2.48855209e+000
      4.63161767e-001 1.05767715e+000 7.13214159e-001 2.43708062e+000 0.
      0. 0. 0. 0. 0. 0. 0. 0. 0. 0. 0. 0. 0. 0. 0. 0. 0. 0. 0. 0. 0. 0.
      0. 0. 0. 0. 0. 0. 0. 0. 0. 0. 0. 0. 0. 0. 0. 0. 0. 0. 0. 0. 0. 0.
      0. 0. 0. 0. 0. 0. 0. 0. 0. 0. 0. 0. 0. 0. 0. 0. 0. 0. 0. 0. 0. 0.
      0. 0. 0. 0. 0. 0. 0. 0. 0. 0. 0. 0. 0. 0. 0. 0. 0. 0. 0. 0. 0. 0.
      0. 0. 0. 0. 0. 0. 0. 0. 0. 0. 0.</_>
    <_>
      9.23083052e-002 6.20271802e-001 4.49613690e-001 5.42375505e-001
      1.97370574e-002 3.24380696e-001 5.65739214e-001 1.26087293e-001
      1.07492812e-001 8.21035087e-001 8.36458147e-001 9.26833928e-001
      3.97612423e-001 5.78552186e-001 9.90008473e-001 1.70865327e-001
      4.77750003e-001 5.09241521e-001 1.45697999e+000 2.61988968e-001
      3.81734520e-001 4.45822299e-001 1.20427108e+000 3.55790079e-001
      1.94833055e-002 6.62142158e-001 3.22775871e-001 3.82134080e-001
      5.70476174e-001 4.20258231e-002 1.82311341e-001 7.10911378e-002
      4.17489290e-001 5.71651272e-002 6.35055006e-001 1.60052657e+000
      3.48224849e-001 3.83947730e-001 3.31088066e-001 1.14263701e+000
      1.85226854e-002 8.91510189e-001 3.37445706e-001 1.28201336e-001
      6.17114961e-001 1.13224828e+000 1.06061995e+000 6.91937268e-001
      1.89393878e+000 2.44534588e+000 4.31861021e-002 1.06180942e+000
      9.79999840e-001 6.76311076e-001 5.73338389e-001 1.08958268e+000
      2.84665793e-001 7.42925882e-001 5.75388689e-003 8.18111598e-001
      8.62258315e-001 5.67433834e-001 4.84812865e-003 2.98730850e-001
      2.06436738e-001 1.08281136e+000 1.24458897e+000 3.25247526e-001
      1.73534214e+000 1.14838564e+000 9.58579361e-001 1.08247876e+000
      6.55227542e-001 1.87857962e+000 6.87534094e-001 1.14099488e-001
      6.12533428e-002 2.28119087e+000 2.88283646e-001 6.27955079e-001
      4.57502007e-001 3.90465856e-001 3.74496914e-002 1.47381097e-001
      1.38944840e+000 6.42118454e-001 2.61972081e-002 5.61512589e-001
      1.59579313e+000 1.38029361e+000 3.75956684e-001 3.01203579e-001
      7.19801709e-002 1.19345999e+000 1.74214172e+000 6.58560872e-001
      1.05247724e+000 1.02697539e+000 5.00191972e-002 4.59828734e-001
      1.40707147e+000 3.79369766e-001 1.48093134e-001 5.52814603e-001
      4.66061413e-001 4.78138506e-001 6.67825997e-001 3.00800819e-002
      1.04578119e-002 1.03306606e-001 6.98238432e-001 7.65045404e-001
      1.32947996e-001 4.45868284e-001 4.07893732e-002 5.22884578e-002
      1.28731951e-001 3.31482023e-001 5.24511887e-003 1.70494437e+000
      5.29142261e-001 1.56971455e+000 3.54446769e-001 5.05587971e-003
      2.20852211e-001 5.24591096e-002 5.08170545e-001 2.66575426e-001
      1.42657709e+000 3.97562414e-001 1.16828255e-001 3.76331389e-001
      1.30577637e-002 1.72366667e+000 8.15010741e-002 4.32222724e-001
      1.54983532e+000 4.24580872e-002 8.85344386e-001 1.53916097e+000
      1.95519730e-001 4.80517268e-001 4.24669355e-001 2.52906233e-001
      1.14474607e+000 1.02595940e-001 1.35279730e-001 5.31234026e-001
      1.46799520e-001 5.09835817e-002 5.18321693e-001 8.90526175e-001
      3.60219210e-001 1.78990865e+000 7.16179252e-001 2.07301110e-001
      2.63620406e-001 8.65949869e-001 5.71706474e-001 5.29923327e-002
      4.34648722e-001 1.74964163e-002 3.41184497e-001 1.52967548e+000
      1.45530030e-001 8.70472610e-001 1.17213595e+000 1.40837878e-001
      5.05996406e-001 4.59163547e-001 9.11144376e-001 2.44577587e-001
      3.89787227e-001 3.41590077e-001 1.40225244e+000 4.40630205e-002
      5.83627999e-001 3.73053312e-001 3.59315962e-001 4.90220673e-002
      1.33939842e-002 5.76712675e-002 5.96688926e-001 2.30421260e-001
      1.38821650e+000 4.25852746e-001 1.62263945e-001 7.26512492e-001
      4.36814249e-001 1.27640933e-001 1.62889078e-001 8.96119237e-001
      1.67803645e+000 8.92642319e-001 2.14047027e+000 5.71870664e-003
      5.54543324e-002 8.87365758e-001 1.45449758e+000 1.55335277e-001
      5.22097759e-003 1.73602164e-001 1.75145417e-001 1.57475457e-001
      1.11095035e+000 8.01037669e-001 1.57358086e+000 5.74092329e-001
      3.40645224e-001 3.83982062e-002 1.95538327e-002 5.23722708e-001
      2.08773091e-002 1.27625418e+000 6.09457642e-002 8.53857756e-001
      1.62033522e+000 1.08800268e+000 4.81174439e-001 7.04049170e-001
      2.68531889e-001 3.44484895e-001 1.32100379e+000 6.87843680e-001
      2.54429132e-001 1.53313518e-001 4.36391830e-002 4.40558791e-002
      5.41008234e-001 1.82172820e-001 6.16625249e-001 1.50869298e+000
      4.73484956e-003 4.97341126e-001 1.68142065e-001 6.06987119e-001
      1.01244795e+000 8.63730133e-001 1.03050485e-001 2.47620061e-001
      1.48753254e-002 3.45106333e-001 3.91266406e-001 9.44117382e-002
      3.27054173e-001 2.02191658e-002 4.58959639e-001 2.13169932e-001
      3.01371571e-002 8.73298571e-002 5.09898923e-003 1.92217970e+000
      1.86888799e-001 1.27594280e+000 1.29705584e+000 1.02903390e+000
      1.16261363e+000 1.63734835e-002 1.10541654e+000 4.88688909e-002
      1.44341037e-001 3.60658057e-002 6.04802430e-001 2.79974192e-001
      1.23612203e-001 5.47069497e-002 7.12841749e-001 5.98982096e-001
      1.39322221e+000 8.08162749e-001 3.60609770e-001 3.95764172e-001
      1.04455614e+000 7.15739653e-002 4.80358824e-002 7.48899221e-001
      3.76883209e-001 1.56869739e-001 3.89883727e-001 4.74244244e-002
      4.24631268e-001 6.27940428e-003 8.42355907e-001 5.63861549e-001
      3.94511700e-001 9.97832179e-001 1.03657596e-001 1.21728957e+000
      4.25271271e-003 1.94106381e-002 3.78193647e-001 4.44413781e-001
      2.63174623e-001 4.92455930e-001 9.95569289e-001 7.23560750e-001
      3.71140122e-001 5.14467955e-001 4.32963282e-001 1.71925902e+000 0.
      0. 0. 0. 0. 0. 0. 0. 0. 0. 0. 0. 0. 0. 0. 0. 0. 0. 0. 0. 0. 0. 0.
      0. 0. 0. 0. 0. 0. 0. 0. 0. 0. 0. 0. 0. 0. 0. 0. 0. 0. 0. 0. 0. 0.
      0. 0. 0. 0. 0. 0. 0. 0. 0. 0. 0. 0. 0. 0. 0. 0. 0. 0. 0. 0. 0. 0.
      0. 0. 0. 0. 0. 0. 0. 0. 0. 0. 0. 0. 0. 0. 0. 0. 0. 0. 0. 0. 0. 0.
      0. 0. 0. 0. 0. 0. 0. 0. 0. 0. 0.</_>
    <_>
      1.73450023e-001 8.80354404e-001 1.31928492e+000 1.28432810e+000
      2.87682656e-002 1.18859172e+000 4.38201100e-001 9.36583579e-002
      9.85969827e-002 1.55376744e+000 1.09891081e+000 1.29577243e+000
      1.68380404e+000 1.19872689e+000 1.59100568e+000 8.22987437e-001
      7.97915637e-001 8.07884991e-001 1.20386612e+000 7.04943955e-001
      3.38044673e-001 4.76957142e-001 2.09890747e+000 4.26979899e-001
      2.12689508e-002 1.87295353e+000 5.41687906e-001 2.17105961e+000
      1.54826477e-001 4.69984971e-002 5.71069360e-001 7.69278333e-002
      2.26769853e+000 6.86293170e-002 1.21930301e+000 1.18369770e+000
      7.58692265e-001 4.80106741e-001 5.43653309e-001 4.63221192e-001
      2.91843936e-002 3.69733453e-001 4.72162455e-001 1.58673912e-001
      1.39216435e+000 2.82699496e-001 9.07037497e-001 8.83869648e-001
      6.34013593e-001 1.56899929e+000 7.26449117e-002 2.16250157e+000
      2.14356971e+000 4.62932855e-001 7.56587029e-001 1.33608627e+000
      2.17995495e-001 1.21469235e+000 5.14101004e-003 1.45924973e+000
      6.86553344e-002 5.89893684e-002 4.68447944e-003 5.70553064e-001
      6.21176541e-001 2.14793444e+000 1.56039059e+000 7.12980688e-001
      1.68956494e+000 3.08301657e-001 5.61484456e-001 3.04160863e-001
      6.60704896e-002 3.21003050e-001 1.37030375e+000 1.47120759e-001
      4.99953888e-002 1.28629375e+000 9.87813830e-001 1.10660970e+000
      3.97978455e-001 8.89060855e-001 1.81123763e-002 1.14861339e-001
      2.09516883e+000 9.85311806e-001 1.54079050e-002 2.15076640e-001
      1.79649639e+000 9.58965540e-001 1.59603643e+000 7.86386907e-001
      2.42667850e-002 8.88964310e-002 1.36206651e+000 1.04418755e+000
      8.52627337e-001 2.74895668e+000 7.92456269e-002 1.86742365e-001
      1.69717956e+000 8.82595241e-001 3.09812367e-001 5.05093396e-001
      4.33135182e-001 8.66036057e-001 2.90654111e+000 4.40784432e-002
      5.04599418e-003 1.18466765e-001 5.41561127e-001 3.69655061e+000
      1.47406951e-001 1.44189978e+000 5.23829758e-002 5.03707752e-002
      2.44316339e-001 3.15703988e-001 8.34805798e-003 1.42640746e+000
      1.96003959e-001 1.85037136e+000 6.37857854e-001 8.15077405e-003
      7.67981485e-002 8.49650353e-002 1.35377157e+000 4.45039779e-001
      7.83687353e-001 1.73544466e-001 1.15142748e-001 1.66071445e-001
      1.56717282e-002 1.70419264e+000 2.58153588e-001 7.79239595e-001
      1.65504706e+000 7.98658356e-002 7.71193743e-001 1.24117398e+000
      4.62272108e-001 2.94826508e-001 9.15454507e-001 6.50299430e-001
      1.33658671e+000 1.10455230e-001 1.41460478e-001 6.52264357e-001
      1.91275969e-001 8.52367133e-002 9.78795707e-001 1.94395387e+000
      5.78958333e-001 2.84534192e+000 1.68254042e+000 2.62007654e-001
      5.57181418e-001 1.66423762e+000 1.42799509e+000 5.97212315e-002
      1.77394986e+000 2.50231437e-002 4.74273980e-001 5.69756091e-001
      2.49636859e-001 2.45385155e-001 3.62589687e-001 2.01229423e-001
      3.93660188e-001 2.81828225e-001 9.23481524e-001 9.04467031e-002
      8.06316793e-001 1.34304559e+000 1.26825833e+000 4.94613014e-002
      6.37322664e-001 8.83192241e-001 3.67894143e-001 8.19793046e-002
      1.46437241e-002 3.73416618e-002 1.04110336e+000 2.88141370e-001
      1.21406996e+000 3.93090308e-001 1.51014611e-001 1.17861128e+000
      9.27102506e-001 1.83245137e-001 3.01304519e-001 3.43853974e+000
      1.75198138e-001 3.89669061e-001 1.30527377e+000 5.25315804e-003
      4.39220592e-002 1.82142198e+000 8.62950087e-001 8.03279221e-001
      8.39062128e-003 4.90715653e-001 5.65627396e-001 2.71786630e-001
      1.24590981e+000 1.59041798e+000 2.50540709e+000 1.42464817e+000
      7.15345681e-001 1.86633300e-002 1.65008008e-002 1.75205445e+000
      2.25273445e-002 2.50215721e+000 5.70067763e-002 7.21504867e-001
      2.34256911e+000 1.25002575e+000 2.16134739e+000 1.25384426e+000
      2.46086732e-001 9.97008145e-001 8.91432822e-001 6.37020245e-002
      1.12286353e+000 2.23326012e-001 4.78479750e-002 7.07868040e-002
      5.33220887e-001 2.44910628e-001 6.69932365e-002 1.18916786e+000
      5.83671220e-003 6.96438789e-001 3.23004782e-001 7.18569696e-001
      6.81516603e-002 4.15376723e-001 2.61620730e-001 1.21790029e-001
      1.27261663e-002 1.10595298e+000 4.67196167e-001 2.37749338e-001
      6.77028835e-001 1.68980099e-002 9.64960873e-001 1.05454192e-001
      1.59707274e-002 5.18871248e-002 7.83338398e-003 1.66991353e+000
      1.25645012e-001 1.97725606e+000 3.44154686e-001 1.27297148e-001
      2.46010590e+000 2.41709296e-002 1.36648929e+000 3.54093760e-002
      2.33182043e-001 1.00423448e-001 1.01397979e+000 4.17612702e-001
      1.69203147e-001 5.74335866e-002 8.22688043e-002 1.07012749e+000
      2.82463759e-001 3.78776342e-001 3.50605488e-001 1.75422549e-001
      1.01513612e+000 2.42444761e-002 4.17069234e-002 2.20132351e+000
      7.14479625e-001 1.22068062e-001 3.54463995e-001 3.10730226e-002
      5.09004056e-001 4.86618374e-003 2.12410092e+000 1.92404956e-001
      9.42159235e-001 1.41494918e+000 1.08550817e-001 1.50713933e+000
      4.02889401e-003 3.01844385e-002 4.11803611e-002 8.23739111e-001
      8.51020157e-001 4.02504921e-001 7.04766512e-001 3.09071159e+000
      1.53498006e+000 1.73401251e-001 1.14610744e+000 2.00855803e+000 0.
      0. 0. 0. 0. 0. 0. 0. 0. 0. 0. 0. 0. 0. 0. 0. 0. 0. 0. 0. 0. 0. 0.
      0. 0. 0. 0. 0. 0. 0. 0. 0. 0. 0. 0. 0. 0. 0. 0. 0. 0. 0. 0. 0. 0.
      0. 0. 0. 0. 0. 0. 0. 0. 0. 0. 0. 0. 0. 0. 0. 0. 0. 0. 0. 0. 0. 0.
      0. 0. 0. 0. 0. 0. 0. 0. 0. 0. 0. 0. 0. 0. 0. 0. 0. 0. 0. 0. 0. 0.
      0. 0. 0. 0. 0. 0. 0. 0. 0. 0. 0.</_>
    <_>
      3.08456793e-002 3.10840964e-001 3.32963049e-001 4.09566998e-001
      1.49875330e-002 3.48511457e-001 7.13101506e-001 6.12922199e-002
      1.72518846e-002 6.06524289e-001 3.55122119e-001 4.14084941e-001
      3.30983311e-001 3.10389817e-001 3.63610655e-001 3.10192883e-001
      1.07874937e-001 1.45812154e-001 3.10518324e-001 2.80759215e-001
      1.11744054e-001 1.26098245e-001 1.18697321e+000 1.18225314e-001
      2.98591871e-002 4.24955934e-001 1.14193283e-001 6.40397191e-001
      1.04851685e-001 1.41465375e-002 2.98400551e-001 3.13258432e-002
      5.63782513e-001 7.03962296e-002 4.14939374e-001 3.64193499e-001
      2.19937235e-001 1.15281284e-001 1.00089535e-001 3.25815588e-001
      8.86449497e-003 2.69943476e-001 7.18079269e-001 4.80989739e-002
      3.62200737e-001 1.92347020e-001 6.16878033e-001 2.86921769e-001
      3.21176946e-001 4.83494341e-001 1.63804833e-002 1.98971495e-001
      5.27103782e-001 6.00476623e-001 3.63663226e-001 4.43988621e-001
      2.39811614e-002 1.48081914e-001 3.13703925e-003 3.81789088e-001
      8.46679449e-001 9.01143193e-001 4.46550408e-003 4.43794310e-001
      2.31886730e-001 2.89912820e-001 4.03043479e-001 3.31945866e-001
      3.93094569e-001 1.61690831e+000 2.63693154e-001 4.04573351e-001
      1.85806096e+000 2.70603389e-001 3.27598661e-001 1.20046675e-001
      3.25418040e-002 2.78560877e-001 1.86003029e-001 1.07199264e+000
      4.72382829e-002 8.41893628e-002 1.16331689e-002 2.00843424e-001
      7.59655297e-001 3.35828364e-001 5.72749740e-003 1.50764018e-001
      2.91283935e-001 5.44615507e-001 2.60100663e-001 3.35148603e-001
      3.94108035e-002 1.90685880e+000 3.41698200e-001 1.10964847e+000
      3.66304964e-001 2.72702813e-001 2.88674440e-002 1.13398299e-001
      5.70101857e-001 4.08075958e-001 3.54001187e-002 1.32736295e-001
      1.11579753e-001 4.94472504e-001 2.55448371e-001 9.18115377e-002
      1.46529428e-003 3.48510444e-002 5.03108144e-001 8.74012470e-001
      1.82059661e-001 3.75580400e-001 1.98915806e-002 2.92963963e-002
      4.24457118e-002 1.14072375e-001 4.68063727e-003 4.38707232e-001
      1.69759586e-001 6.64921999e-001 1.04132384e-001 2.09410652e-003
      1.73545510e-001 3.61326374e-002 4.11469102e-001 1.13185123e-001
      4.07398731e-001 4.22539622e-001 2.03885566e-002 1.13181852e-001
      6.61897985e-003 6.67446971e-001 9.17858779e-002 1.29381180e-001
      5.55921793e-001 3.13490555e-002 1.36549652e-001 3.79087478e-001
      2.12161809e-001 3.28453094e-001 2.87755817e-001 1.20617129e-001
      2.30328277e-001 2.80045241e-001 6.42061904e-002 3.04183185e-001
      2.32578263e-001 2.70744301e-002 1.65988952e-001 2.08846986e-001
      2.17119336e-001 4.51090306e-001 5.49426317e-001 1.14782497e-001
      2.40429640e-001 4.09998953e-001 1.86020121e-001 7.66483769e-002
      3.38241845e-001 1.14509743e-002 1.03343010e-001 3.03885996e-001
      3.66317853e-002 1.57576025e+000 2.91180313e-001 1.34539858e-001
      4.36142907e-002 1.67828083e-001 4.64400232e-001 5.97755387e-002
      1.75761804e-001 5.91701269e-001 2.83506572e-001 9.73232538e-002
      1.14036746e-001 3.02837193e-001 4.44130123e-001 3.38767171e-002
      6.90889359e-003 1.12001356e-002 3.07353914e-001 9.12388414e-002
      3.19619745e-001 1.15319744e-001 2.43068710e-002 4.10731792e-001
      5.30736327e-001 5.06483428e-002 3.79064679e-002 1.06369615e+000
      3.74899775e-001 2.14740187e-001 2.88372785e-001 2.94208713e-003
      3.25025469e-002 4.37974632e-001 2.13284194e-001 1.22133493e-001
      4.65090200e-003 9.17966962e-002 1.65860608e-001 5.43274209e-002
      5.15752137e-001 5.26860178e-001 9.57139671e-001 7.24641979e-001
      1.15862668e-001 1.15358168e-002 1.62351783e-002 4.51596797e-001
      1.10524744e-002 5.31291425e-001 8.11399892e-002 2.63727963e-001
      5.66448331e-001 2.90216357e-001 3.71265113e-001 8.19714785e-001
      4.24713567e-002 2.27413341e-001 2.84636736e-001 1.06370938e+000
      3.18021536e-001 8.26518089e-002 2.68486757e-002 1.62979793e-002
      8.70445445e-002 1.99034303e-001 1.23850954e+000 2.69212306e-001
      7.16861663e-003 9.16490629e-002 7.39399269e-002 1.01253070e-001
      2.49157858e+000 1.07017823e-001 6.55209720e-002 2.68463995e-002
      2.75559984e-002 3.34056139e-001 1.32367119e-001 6.13328405e-002
      1.27976716e-001 6.17104676e-003 4.04407233e-001 2.82308944e-002
      8.02914239e-003 3.25324535e-002 5.08091738e-003 1.47208977e+000
      2.27039978e-002 4.26846713e-001 2.89846957e-001 1.29590347e-001
      4.83139783e-001 2.84920502e-002 5.02427042e-001 4.53743823e-002
      8.50656033e-002 2.32960973e-002 3.14518422e-001 9.94029120e-002
      1.33570418e-001 3.62644829e-002 1.64025986e+000 3.36562932e-001
      2.95276523e-001 2.03263789e-001 1.25886694e-001 7.70306647e-001
      3.67389321e-001 4.52342965e-002 1.53904418e-002 5.53559661e-001
      3.74401897e-001 2.87761316e-002 3.12157750e-001 4.17232513e-002
      2.33107790e-001 2.43942556e-003 4.31585282e-001 6.57309070e-002
      2.74029672e-001 7.31452405e-001 2.92504907e-001 5.17373860e-001
      9.41240881e-003 1.50125455e-002 2.49870330e-001 1.34404883e-001
      3.70336771e-001 4.45464626e-002 3.25145334e-001 7.32981563e-001
      4.59640235e-001 3.40561956e-001 5.63086927e-001 7.83165693e-001 0.
      0. 0. 0. 0. 0. 0. 0. 0. 0. 0. 0. 0. 0. 0. 0. 0. 0. 0. 0. 0. 0. 0.
      0. 0. 0. 0. 0. 0. 0. 0. 0. 0. 0. 0. 0. 0. 0. 0. 0. 0. 0. 0. 0. 0.
      0. 0. 0. 0. 0. 0. 0. 0. 0. 0. 0. 0. 0. 0. 0. 0. 0. 0. 0. 0. 0. 0.
      0. 0. 0. 0. 0. 0. 0. 0. 0. 0. 0. 0. 0. 0. 0. 0. 0. 0. 0. 0. 0. 0.
      0. 0. 0. 0. 0. 0. 0. 0. 0. 0. 0.</_>
    <_>
      8.88740942e-002 3.06004137e-001 9.04764414e-001 3.14917535e-001
      2.01216247e-002 4.93655384e-001 4.92319286e-001 2.59763803e-002
      5.58716469e-002 1.94419965e-001 1.07222714e-001 1.95874378e-001
      2.17897320e+000 3.51420015e-001 4.29880440e-001 3.37823421e-001
      5.32628931e-002 1.03774473e-001 1.63449764e+000 2.47070387e-001
      4.78516966e-002 8.16026032e-002 7.52689302e-001 2.81108946e-001
      2.00503543e-002 2.48911810e+000 3.98778975e-001 2.70052552e-001
      5.28009757e-002 3.25452313e-002 2.52282977e-001 3.70017588e-002
      3.47307652e-001 8.14854950e-002 4.78405446e-001 1.32894671e+000
      2.66100645e-001 2.21639127e-001 2.66137093e-001 1.01067889e+000
      8.94225575e-003 4.52708900e-001 6.01321399e-001 6.67193308e-002
      3.76879632e-001 3.75432968e-001 1.70249557e+000 6.15582988e-002
      6.81741238e-001 3.67852539e-001 3.77039053e-002 1.51353574e+000
      3.56863171e-001 4.39810045e-002 5.43769002e-001 1.65307924e-001
      1.26825050e-001 3.82133871e-001 4.48108790e-003 1.37055421e+000
      2.42707834e-001 4.63608019e-002 6.37919270e-003 2.47138306e-001
      2.29714528e-001 1.46630931e+000 1.49055615e-001 2.14988068e-001
      1.28364408e+000 8.34458113e-001 9.06993270e-001 1.33313596e+000
      1.52695388e-001 3.28435481e-001 7.96001017e-001 1.17966726e-001
      1.14506416e-001 5.83351493e-001 3.00350755e-001 3.78977388e-001
      3.41708839e-001 1.40340543e+000 2.14479621e-002 2.72560477e-001
      7.05164969e-001 4.10952955e-001 9.99845937e-003 2.67580837e-001
      2.76659441e+000 3.19599211e-001 1.63728297e-001 5.85426092e-001
      8.18740427e-002 4.84294772e-001 1.83366969e-001 3.64727020e-001
      1.58992136e+000 1.52331626e+000 4.05897945e-002 2.21894503e-001
      5.08624911e-001 2.49039233e-001 1.14150934e-001 1.78495601e-001
      1.16157696e-001 2.60675251e-001 1.34759998e+000 7.18287379e-002
      2.19689962e-003 7.03941286e-002 1.22169495e+000 1.16992569e+000
      1.61960557e-001 3.24329883e-001 2.60535311e-002 4.62709218e-002
      2.66718622e-002 1.11238725e-001 3.79289733e-003 2.99129814e-001
      4.58634615e-001 2.01560092e+000 2.43074879e-001 2.97980104e-003
      2.40712568e-001 6.41563311e-002 2.45324388e-001 1.33683458e-001
      1.73401579e-001 3.10613215e-001 1.61170766e-001 3.94791812e-001
      1.05948793e-002 2.29490399e+000 7.80642182e-002 2.39869237e-001
      9.66550484e-002 1.58638824e-002 2.91854382e-001 8.59429717e-001
      1.72658756e-001 4.28471506e-001 2.54829019e-001 6.94342256e-001
      8.81251752e-001 2.06777632e-001 9.17409584e-002 8.18030089e-002
      8.68227184e-002 4.35080826e-002 1.66557536e-001 1.54153597e+000
      1.61771312e-001 2.74048328e-001 2.28512570e-001 7.62422457e-002
      6.19208515e-001 1.07432589e-001 3.60345095e-001 6.52454346e-002
      8.86469245e-001 9.27853491e-003 4.29136068e-001 5.44995964e-002
      2.21895769e-001 6.51159286e-001 9.86816168e-001 6.71890005e-002
      2.20145896e-001 5.33833876e-002 2.97433436e-002 1.90175287e-002
      1.34233072e-001 8.89287174e-001 2.14262307e-001 4.47367653e-002
      2.23381102e-001 1.91708177e-001 3.05116266e-001 3.24255340e-002
      8.84204637e-003 4.55801114e-002 4.70977902e-001 8.74769092e-002
      1.36506236e+000 4.92282450e-001 2.12573528e-001 1.37689725e-001
      5.33251345e-001 2.22363994e-001 1.13369241e-001 1.45312417e+000
      2.09318852e+000 6.10948682e-001 8.73649776e-001 4.27561020e-003
      4.58618291e-002 5.92209578e-001 3.40242147e-001 9.95080546e-002
      3.75684490e-003 1.44913092e-001 6.42479599e-001 1.17941715e-001
      2.26744324e-001 1.63717538e-001 1.72452736e+000 2.62550294e-001
      6.23391390e-001 1.96723361e-002 1.69596542e-002 2.96416783e+000
      1.63711626e-002 1.89980567e-001 7.34007955e-002 3.87624919e-001
      1.92907244e-001 1.96673965e+000 1.70802689e+000 3.34129602e-001
      2.28342265e-001 1.24068610e-001 1.76233634e-001 2.97875643e-001
      1.31366456e+000 1.45599172e-001 2.93083210e-002 3.50129232e-002
      3.47730637e-001 2.57020056e-001 8.60192850e-002 2.34025717e+000
      9.20122676e-003 6.97484732e-001 2.33913958e-001 9.04095992e-002
      1.37423798e-001 5.11392020e-002 6.97624013e-002 1.36346400e-001
      1.60883516e-002 9.79377270e-001 4.35684592e-001 2.26685852e-001
      5.39500535e-001 6.64113369e-003 3.30055982e-001 1.15296803e-001
      1.10174259e-002 1.06794678e-001 5.14988834e-003 1.72142315e+000
      2.02622607e-001 1.50402263e-001 2.30324578e+000 3.86689097e-001
      2.23083401e+000 1.29968496e-002 4.10082340e-001 5.46589829e-002
      1.50169462e-001 2.74820980e-002 8.78979340e-002 9.98185650e-002
      1.28405303e-001 1.01191156e-001 7.84654543e-002 3.30215037e-001
      1.20763791e+000 4.38539296e-001 2.88051754e-001 7.90284276e-001
      1.29642248e-001 7.87186772e-002 4.10882495e-002 2.97855592e+000
      2.17334688e-001 1.55329004e-001 2.96588600e-001 5.05133644e-002
      5.62171876e-001 2.74272845e-003 2.64947200e+000 2.00536564e-001
      9.43949670e-002 4.33010697e-001 1.81773305e-001 2.75557041e-001
      3.15593509e-003 2.16326285e-002 7.22697750e-002 4.67039704e-001
      8.78784418e-001 2.57037163e-001 3.17907691e+000 1.38254023e+000
      3.96088660e-001 4.34831083e-002 4.61031437e-001 2.05205750e+000 0.
      0. 0. 0. 0. 0. 0. 0. 0. 0. 0. 0. 0. 0. 0. 0. 0. 0. 0. 0. 0. 0. 0.
      0. 0. 0. 0. 0. 0. 0. 0. 0. 0. 0. 0. 0. 0. 0. 0. 0. 0. 0. 0. 0. 0.
      0. 0. 0. 0. 0. 0. 0. 0. 0. 0. 0. 0. 0. 0. 0. 0. 0. 0. 0. 0. 0. 0.
      0. 0. 0. 0. 0. 0. 0. 0. 0. 0. 0. 0. 0. 0. 0. 0. 0. 0. 0. 0. 0. 0.
      0. 0. 0. 0. 0. 0. 0. 0. 0. 0. 0.</_>
    <_>
      1.92735299e-001 2.18685412e+000 4.44317400e-001 1.40774906e+000
      2.77361795e-002 4.45435852e-001 2.42217913e-001 1.24092981e-001
      4.16824073e-002 1.16264880e+000 7.42086053e-001 7.15377748e-001
      5.37977815e-001 8.93984854e-001 1.18837547e+000 3.62051696e-001
      3.88214797e-001 4.32938814e-001 1.21440971e+000 6.81024194e-001
      2.99493879e-001 5.03450811e-001 5.99872887e-001 2.92000622e-001
      2.34711394e-002 5.52247405e-001 6.19408131e-001 7.37374127e-001
      3.32715243e-001 3.49412151e-002 6.18329883e-001 7.20127076e-002
      5.59002459e-001 7.45249689e-002 1.07177329e+000 7.13761628e-001
      6.46270990e-001 4.16490018e-001 3.35519522e-001 8.85311127e-001
      1.97092723e-002 6.31624162e-001 6.30140245e-001 1.44539684e-001
      1.75227523e+000 9.47816372e-001 1.77668500e+000 5.66922307e-001
      9.50281680e-001 5.41085720e-001 4.29136120e-002 1.60606349e+000
      1.41361558e+000 6.82879269e-001 5.49844384e-001 1.26887167e+000
      1.03959233e-001 5.31077743e-001 5.50345844e-003 6.02260709e-001
      3.41345131e-001 1.30224741e+000 5.51351346e-003 8.96359622e-001
      3.60051304e-001 1.72202218e+000 1.34255612e+000 7.76638329e-001
      5.28421223e-001 3.75836670e-001 1.01201236e+000 1.00970197e+000
      1.11718488e+000 4.85314548e-001 6.56579733e-001 2.83731818e-001
      4.83921431e-002 7.65110850e-001 3.53226721e-001 1.36713707e+000
      1.86063677e-001 4.30931687e-001 1.43055832e-002 1.57800242e-001
      3.42517519e+000 1.24591362e+000 1.17090149e-002 2.47312859e-001
      1.69076753e+000 9.18990731e-001 3.04648370e-001 5.93440354e-001
      3.11595481e-002 1.86068249e+000 1.71292329e+000 1.38908648e+000
      1.89043760e+000 1.39587033e+000 4.51807305e-002 2.51589596e-001
      2.44607592e+000 1.16140723e+000 1.05867073e-001 4.68174607e-001
      7.50065804e-001 1.19602096e+000 2.39048862e+000 5.92806078e-002
      4.12067398e-003 1.87445343e-001 2.47297481e-001 1.95539975e+000
      9.40701813e-002 9.45772290e-001 3.44858356e-002 2.16728337e-002
      2.47203901e-001 6.46691740e-001 6.92514936e-003 1.24636722e+000
      2.91952550e-001 9.48091507e-001 3.92743349e-001 8.54201894e-003
      1.23722993e-001 4.57250439e-002 1.57051301e+000 3.87078077e-001
      4.97720420e-001 2.66072363e-001 8.20145309e-002 1.83266342e-001
      1.45608075e-002 7.70594001e-001 2.43992731e-001 1.79105014e-001
      6.86823785e-001 8.50057527e-002 2.36071393e-001 4.72233534e-001
      3.50674719e-001 2.25914404e-001 3.21632624e-001 3.97895187e-001
      7.79549420e-001 7.10364878e-002 1.94425792e-001 3.38676661e-001
      1.43600047e-001 9.48176906e-002 1.05579805e+000 1.56588328e+000
      9.64014351e-001 1.21110046e+000 1.00251031e+000 3.98014337e-001
      4.13099676e-001 6.29060924e-001 2.38820121e-001 2.66750399e-002
      7.86196828e-001 2.89143976e-002 2.49566749e-001 8.51792693e-001
      1.39013484e-001 3.48474860e-001 9.69461501e-001 4.03952718e-001
      2.04109609e-001 2.66184866e-001 6.06147885e-001 1.34615019e-001
      4.09100890e-001 7.65294552e-001 4.16218966e-001 5.07128946e-002
      2.31676683e-001 3.44737023e-001 6.79660201e-001 8.93277898e-002
      1.50560671e-002 3.69740352e-002 3.71347159e-001 5.17060637e-001
      4.32665676e-001 4.03042674e-001 1.09104455e-001 1.05547750e+000
      9.90818858e-001 1.17953375e-001 1.19488478e-001 1.49181044e+000
      1.30705130e+000 3.88599187e-001 7.76341021e-001 5.47537534e-003
      2.26428360e-002 9.41270888e-001 5.62807441e-001 2.82017589e-001
      6.92337658e-003 5.29363632e-001 2.52088696e-001 9.96560529e-002
      3.82855684e-001 1.18883085e+000 8.84488583e-001 6.45012319e-001
      4.99016672e-001 1.46890590e-002 2.32447498e-002 7.84338057e-001
      1.22291017e-002 6.43258095e-001 5.88211082e-002 1.11837792e+000
      4.97911811e-001 5.75115502e-001 1.47258842e+000 1.47460246e+000
      1.09595537e-001 5.77517807e-001 1.01504171e+000 3.51784021e-001
      2.53585458e-001 2.63551503e-001 6.66729733e-002 4.45659310e-002
      4.85205978e-001 1.09558888e-001 1.37504175e-001 6.67185068e-001
      1.86613714e-003 3.79668832e-001 1.73395455e-001 6.50384903e-001
      8.18505108e-001 4.66879785e-001 2.33035535e-001 8.48583430e-002
      1.90320089e-002 2.70995915e-001 2.91887969e-001 1.15981802e-001
      4.37240183e-001 1.06902886e-002 1.22405744e+000 8.84989649e-002
      1.28301391e-002 6.57542199e-002 9.07532685e-003 8.86469185e-001
      7.55283982e-002 5.19328713e-001 8.89217019e-001 1.22134519e+000
      6.94929302e-001 2.18968205e-002 1.69802868e+000 3.77205983e-002
      2.15367317e-001 9.23618898e-002 6.83366179e-001 7.17696905e-001
      1.67629480e-001 4.75193299e-002 1.08149087e+000 2.61586022e+000
      1.25152147e+000 3.73171806e-001 3.78173560e-001 1.00255299e+000
      5.35992980e-001 2.97094975e-002 3.06048747e-002 4.52363163e-001
      4.88979638e-001 9.04018506e-002 8.68047357e-001 4.35508899e-002
      4.45866644e-001 5.19841537e-003 1.38400280e+000 2.52382815e-001
      1.23613596e+000 1.56113613e+000 5.91898710e-002 1.37124979e+000
      6.13953359e-003 2.79610436e-002 3.08789074e-001 4.22286958e-001
      8.71404827e-001 2.03843310e-001 1.22084367e+000 2.93433046e+000
      9.26820159e-001 7.34672308e-001 1.60449612e+000 7.72053659e-001 0.
      0. 0. 0. 0. 0. 0. 0. 0. 0. 0. 0. 0. 0. 0. 0. 0. 0. 0. 0. 0. 0. 0.
      0. 0. 0. 0. 0. 0. 0. 0. 0. 0. 0. 0. 0. 0. 0. 0. 0. 0. 0. 0. 0. 0.
      0. 0. 0. 0. 0. 0. 0. 0. 0. 0. 0. 0. 0. 0. 0. 0. 0. 0. 0. 0. 0. 0.
      0. 0. 0. 0. 0. 0. 0. 0. 0. 0. 0. 0. 0. 0. 0. 0. 0. 0. 0. 0. 0. 0.
      0. 0. 0. 0. 0. 0. 0. 0. 0. 0. 0.</_>
    <_>
      1.04088336e-001 1.43035829e+000 4.01364625e-001 5.41685879e-001
      1.28854457e-002 9.61676121e-001 1.19669773e-001 7.47504905e-002
      3.08266468e-002 3.45064461e-001 5.47627866e-001 6.36756718e-001
      1.91509619e-001 7.24029303e-001 5.68809092e-001 5.01698732e-001
      5.10520101e-001 2.46308267e-001 5.25169492e-001 2.02407241e-001
      2.88093716e-001 2.64725149e-001 2.20617637e-001 2.51499206e-001
      7.99482595e-003 2.86325037e-001 1.37536347e-001 5.07330835e-001
      2.27626577e-001 2.71786768e-002 2.45852306e-001 4.63090800e-002
      4.51466501e-001 2.20845994e-002 8.40888619e-001 1.07038403e+000
      1.68706447e-001 1.95384517e-001 2.18820393e-001 4.87892687e-001
      1.44202979e-002 8.17194700e-001 3.73966128e-001 1.17331699e-001
      6.81745350e-001 5.10737240e-001 1.33200729e+000 7.70439684e-001
      5.47515452e-001 1.04067397e+000 2.78069824e-002 5.28730333e-001
      8.73096466e-001 4.44359094e-001 2.19175249e-001 4.30883706e-001
      1.00034736e-001 3.38689476e-001 9.17221047e-003 9.63229418e-001
      4.47634757e-001 3.53030741e-001 9.01471544e-003 1.70571476e-001
      3.77496898e-001 1.16463935e+000 4.49186176e-001 1.77370802e-001
      1.15506613e+000 8.40069652e-001 3.95836562e-001 9.79100525e-001
      4.30773139e-001 4.86791432e-001 8.30529928e-001 9.77026150e-002
      3.85467634e-002 8.04540873e-001 2.56961614e-001 6.79067969e-001
      2.79910296e-001 2.18176782e-001 1.40772229e-002 6.09037057e-002
      7.20875621e-001 5.45458972e-001 1.19385123e-002 1.70103222e-001
      1.18176293e+000 7.55768478e-001 7.70130336e-001 2.73705900e-001
      2.03290507e-002 3.35630119e-001 6.67340398e-001 6.78313255e-001
      1.25261700e+000 6.39797568e-001 4.78565544e-002 2.87502319e-001
      7.02443063e-001 3.39744627e-001 6.69426098e-002 1.79972768e-001
      4.57367063e-001 1.02242935e+000 9.63779926e-001 2.26626862e-002
      4.56879986e-003 1.38601914e-001 1.47715494e-001 6.06723070e-001
      1.13933437e-001 3.25814933e-001 3.75426747e-002 2.01467592e-002
      8.50058198e-002 4.08653468e-001 3.53923929e-003 1.06978881e+000
      1.78032547e-001 7.75897980e-001 4.38869506e-001 5.91666112e-003
      9.52842161e-002 1.77114923e-002 6.48710608e-001 2.30258703e-001
      1.19670224e+000 2.22429335e-001 6.83113486e-002 1.86831549e-001
      8.38158932e-003 2.17983708e-001 7.22649023e-002 1.99020401e-001
      8.59366298e-001 4.12629545e-002 1.98229179e-001 7.36932933e-001
      3.54738683e-001 2.35996366e-001 2.74422020e-001 2.80036867e-001
      5.07200360e-001 8.36738795e-002 9.32532847e-002 4.10991132e-001
      5.62729910e-002 4.53648902e-002 5.58227718e-001 1.38378835e+000
      4.92684364e-001 8.32460105e-001 7.20252633e-001 1.76050097e-001
      2.77124226e-001 6.12417638e-001 2.19437927e-001 2.54976060e-002
      5.31353891e-001 1.26694655e-002 3.18299443e-001 7.95576751e-001
      7.66889006e-002 6.69193029e-001 6.18614852e-001 1.19504698e-001
      2.02791020e-001 2.00650245e-001 5.91157317e-001 8.35952088e-002
      3.28753084e-001 4.15196747e-001 1.55614901e+000 2.66443025e-002
      1.96356133e-001 3.67092609e-001 4.58761424e-001 2.27541402e-002
      1.10832453e-002 3.15965265e-002 9.87141907e-001 2.04572186e-001
      5.91446519e-001 2.68951952e-001 8.16167444e-002 4.50074703e-001
      4.08560842e-001 7.79899061e-002 6.53635561e-002 4.20910001e-001
      9.35395658e-001 3.54039431e-001 1.00617158e+000 9.40463878e-003
      2.15304065e-002 9.39853966e-001 4.26854253e-001 1.63996711e-001
      3.55482474e-003 2.01420441e-001 1.92927793e-001 1.06222406e-001
      9.58526433e-001 4.53843504e-001 2.40161777e-001 7.99026489e-001
      5.45343459e-001 1.41055882e-002 9.79116559e-003 5.30180931e-001
      1.52506474e-002 7.55369842e-001 2.64555421e-002 9.69743907e-001
      6.65919840e-001 7.35738277e-001 1.85277653e+000 4.43260878e-001
      9.91142616e-002 2.65332490e-001 1.58135355e+000 5.59146464e-001
      3.62608969e-001 2.41457894e-001 2.98409630e-002 2.67899912e-002
      1.74652457e-001 5.39429039e-002 1.21396887e+000 9.05276239e-001
      5.19425701e-003 2.21540496e-001 1.18086487e-001 6.43925607e-001
      4.42043751e-001 6.72799528e-001 1.18622452e-001 2.76872247e-001
      7.77455233e-003 3.13418388e-001 1.92415059e-001 5.00389934e-002
      4.56890285e-001 9.34567768e-003 2.75206059e-001 1.54994711e-001
      8.84627271e-003 3.72522920e-002 5.29824849e-003 1.85255736e-001
      8.75829011e-002 9.27588046e-001 9.17164385e-001 4.70351964e-001
      7.92734861e-001 7.24489428e-003 9.05805469e-001 7.06443563e-002
      2.14013308e-001 4.12041247e-002 4.07169580e-001 4.62560683e-001
      1.16713531e-001 3.53877768e-002 4.01509464e-001 1.52291143e+000
      1.10750878e+000 5.00369310e-001 2.32423335e-001 2.47364983e-001
      9.68536735e-001 2.23580543e-002 3.35199609e-002 1.39775693e+000
      1.59398273e-001 1.17155582e-001 5.70648253e-001 4.01015617e-002
      3.62366557e-001 7.47099612e-003 1.13684034e+000 5.02994657e-001
      6.62819743e-001 5.08870602e-001 8.10607597e-002 6.02604747e-001
      3.16897314e-003 1.18969632e-002 3.74538749e-001 2.22695813e-001
      4.88339126e-001 1.98055863e-001 1.56130552e-001 5.85025132e-001
      8.04093957e-001 5.74533701e-001 2.76852489e-001 2.34004021e-001 0.
      0. 0. 0. 0. 0. 0. 0. 0. 0. 0. 0. 0. 0. 0. 0. 0. 0. 0. 0. 0. 0. 0.
      0. 0. 0. 0. 0. 0. 0. 0. 0. 0. 0. 0. 0. 0. 0. 0. 0. 0. 0. 0. 0. 0.
      0. 0. 0. 0. 0. 0. 0. 0. 0. 0. 0. 0. 0. 0. 0. 0. 0. 0. 0. 0. 0. 0.
      0. 0. 0. 0. 0. 0. 0. 0. 0. 0. 0. 0. 0. 0. 0. 0. 0. 0. 0. 0. 0. 0.
      0. 0. 0. 0. 0. 0. 0. 0. 0. 0. 0.</_>
    <_>
      6.50642961e-002 3.65570754e-001 1.50685504e-001 2.61464536e-001
      2.73011141e-002 3.05782050e-001 2.71512508e-001 1.90259635e-001
      7.86641091e-002 1.40760684e+000 1.01298332e+000 1.28292167e+000
      6.92889631e-001 2.64939517e-001 7.73414671e-001 1.71974778e-001
      2.04517052e-001 4.75575656e-001 1.01443100e+000 3.35050166e-001
      2.47675642e-001 3.29374522e-001 5.35343587e-001 2.77416289e-001
      1.45623898e-002 5.57204843e-001 2.07208604e-001 2.10462332e-001
      4.02608663e-001 4.59593423e-002 2.62894243e-001 5.28349578e-002
      1.97671548e-001 6.84290901e-002 9.55296993e-001 1.48013461e+000
      2.38965675e-001 3.42557222e-001 3.40074122e-001 7.54753053e-001
      9.59062483e-003 3.66572171e-001 6.86745822e-001 7.48492181e-002
      4.18206245e-001 1.07223623e-001 1.53117180e+000 3.30235988e-001
      7.89595723e-001 2.90789366e-001 5.54792508e-002 1.43384337e+000
      1.60385168e+000 1.10107410e+000 5.32609522e-001 2.38343075e-001
      1.28265217e-001 8.11860919e-001 2.67233816e-003 1.41628206e+000
      3.63016874e-001 1.36917567e+000 4.93201846e-003 3.70699525e-001
      1.12030365e-001 2.72617435e+000 2.31871739e-001 3.93958658e-001
      1.44866598e+000 7.39069521e-001 8.04007709e-001 1.86806619e+000
      5.66829622e-001 1.03075421e+000 8.89626682e-001 3.14582467e-001
      9.02678892e-002 1.38503480e+000 6.14869058e-001 3.15142751e-001
      1.51433915e-001 8.70814681e-001 1.38880461e-002 1.99992731e-001
      1.41103745e+000 3.26417655e-001 1.22088995e-002 2.02319503e-001
      1.53461003e+000 7.60694265e-001 1.17641859e-001 7.52620339e-001
      7.28088170e-002 2.43863297e+000 9.24393833e-001 2.68364012e-001
      1.81971681e+000 1.88162303e+000 1.05177559e-001 2.10884556e-001
      1.18030167e+000 4.81054544e-001 1.38065472e-001 4.56254810e-001
      1.06561124e-001 3.91515076e-001 1.67650437e+000 5.00400588e-002
      2.87857768e-003 7.00735822e-002 4.62881297e-001 2.22891474e+000
      1.39630243e-001 4.56114203e-001 3.07769608e-002 2.03075800e-002
      1.09133303e-001 1.57172546e-001 1.12736775e-002 5.71328342e-001
      6.70335233e-001 2.14347148e+000 2.02004179e-001 6.30560890e-003
      2.39248306e-001 5.95215261e-002 9.88475800e-001 3.04964066e-001
      6.24030381e-002 2.52033979e-001 1.88768864e-001 3.67505640e-001
      8.65618140e-003 6.92612231e-001 9.19034183e-002 5.05811334e-001
      7.14453757e-001 2.64457855e-002 4.78135794e-001 1.31697738e+000
      1.70251861e-001 2.53073037e-001 5.78674853e-001 7.69752920e-001
      1.57965124e+000 1.62378043e-001 5.78111634e-002 4.18541789e-001
      8.59029591e-002 9.98083279e-002 5.28665483e-001 1.09555781e+000
      3.32136780e-001 1.54137468e+000 1.06868422e+000 1.37902752e-001
      2.88663387e-001 5.85646689e-001 6.50147259e-001 5.21217249e-002
      6.52300835e-001 2.25459915e-002 6.43505156e-001 1.39793682e+000
      2.62251377e-001 7.43656158e-001 6.97107971e-001 1.93682536e-001
      2.27457792e-001 7.22955525e-001 9.93700981e-001 1.40055850e-001
      2.81441629e-001 1.00140643e+000 1.27627239e-001 2.15526931e-002
      4.09590840e-001 3.52004766e-001 3.90126944e-001 2.91261747e-002
      8.89609102e-003 4.54749279e-002 1.94750324e-001 1.29497409e-001
      1.92450821e+000 2.62452602e-001 1.92953229e-001 9.70195949e-001
      1.19433558e+000 1.61404863e-001 1.70157984e-001 9.87528265e-001
      1.81448817e+000 5.25110066e-001 1.35700119e+000 2.63278419e-003
      1.79291442e-002 5.83528459e-001 1.15482473e+000 1.72816724e-001
      1.12268347e-002 1.62830397e-001 2.96581596e-001 3.04114848e-001
      7.12322950e-001 1.25969505e+000 6.41458929e-001 2.59936243e-001
      3.38537246e-001 1.27274403e-002 2.25040354e-002 5.98520458e-001
      7.93355238e-003 3.64399672e-001 3.04810703e-002 3.82224888e-001
      1.39906466e+000 2.15805769e+000 2.38553882e+000 1.16626251e+000
      3.04245859e-001 3.53425354e-001 6.14117026e-001 2.74384797e-001
      1.44297826e+000 1.35009795e-001 2.88553201e-002 2.79620755e-002
      6.96148038e-001 1.06114261e-001 1.34803712e+000 2.28413463e+000
      7.41702737e-003 6.77755058e-001 5.86133778e-001 3.46509188e-001
      4.05597955e-001 2.53820509e-001 7.46585801e-002 1.15154371e-001
      1.25559717e-002 3.66592318e-001 8.26533318e-001 1.83922678e-001
      3.78689498e-001 1.01474598e-002 4.48776782e-001 9.70224217e-002
      1.45121561e-002 1.03738084e-001 6.61621336e-003 8.30424488e-001
      1.97608724e-001 7.84754753e-002 2.88194323e+000 9.60099339e-001
      2.35853100e+000 1.34526351e-002 1.34256601e+000 4.15253676e-002
      1.44558206e-001 3.98830883e-002 3.75388294e-001 1.08992934e-001
      9.86718237e-002 6.05390333e-002 8.79379094e-001 3.70315164e-001
      1.82131195e+000 0. 2.58218169e-001 5.13326287e-001 2.79034227e-002
      7.48531520e-002 4.58515137e-002 2.72723627e+000 4.14540440e-001
      1.53332755e-001 5.03853261e-001 5.89382164e-002 5.87651968e-001
      5.13840746e-003 1.01347566e+000 3.85302633e-001 9.91276145e-001
      8.78727436e-001 8.95618647e-002 3.41724843e-001 3.84918414e-003
      2.88480204e-002 2.47382209e-001 9.62458432e-001 2.11651564e-001
      2.68410802e-001 1.10833359e+000 2.21729159e+000 3.82664502e-001
      1.88025653e+000 3.48575056e-001 6.04884207e-001 0. 0. 0. 0. 0. 0.
      0. 0. 0. 0. 0. 0. 0. 0. 0. 0. 0. 0. 0. 0. 0. 0. 0. 0. 0. 0. 0. 0.
      0. 0. 0. 0. 0. 0. 0. 0. 0. 0. 0. 0. 0. 0. 0. 0. 0. 0. 0. 0. 0. 0.
      0. 0. 0. 0. 0. 0. 0. 0. 0. 0. 0. 0. 0. 0. 0. 0. 0. 0. 0. 0. 0. 0.
      0. 0. 0. 0. 0. 0. 0. 0. 0. 0. 0. 0. 0. 0. 0. 0. 0. 0. 0. 0. 0. 0.
      0. 0. 0. 0. 0. 0.</_>
    <_>
      1.29758179e-001 9.96472359e-001 2.13134217e+000 5.98144948e-001
      2.21883934e-002 4.39220399e-001 4.44136769e-001 9.11425129e-002
      5.46188317e-002 2.51387596e+000 5.37506878e-001 3.51901710e-001
      2.76641941e+000 6.16287887e-001 1.90951526e+000 9.30070937e-001
      4.75273967e-001 3.38367283e-001 5.56059539e-001 1.18894958e+000
      1.63935095e-001 2.66260207e-001 1.70598817e+000 2.79001951e-001
      1.58815999e-002 1.72452652e+000 5.66298246e-001 2.58679366e+000
      3.30483973e-001 4.12835516e-002 4.74482685e-001 7.59042427e-002
      2.76101542e+000 8.81542265e-002 1.11401045e+000 4.43649888e-001
      5.73793352e-001 5.43520451e-001 2.90247083e-001 7.26946890e-001
      2.89640222e-002 4.25102532e-001 1.79646671e-001 2.25952893e-001
      1.44956315e+000 3.98723572e-001 1.05829406e+000 1.94263771e-001
      5.58240592e-001 8.86309206e-001 2.68900581e-002 1.54249966e+000
      3.14642382e+000 9.22036409e-001 6.77254975e-001 2.08221689e-001
      1.36512265e-001 2.53290683e-001 5.66816702e-003 2.93223381e-001
      1.56695411e-001 5.60372412e-001 6.02754019e-003 6.31606281e-001
      3.34373653e-001 2.26037192e+000 1.89514890e-001 7.74760008e-001
      4.12129909e-001 7.98548579e-001 6.65718794e-001 4.95741904e-001
      3.51475179e-001 1.01566982e+000 7.75757968e-001 1.16941199e-001
      4.02823575e-002 1.51709580e+000 5.33606946e-001 7.70559549e-001
      3.15702558e-001 9.60797310e-001 1.10523449e-002 2.33999357e-001
      2.99508429e+000 7.67118335e-001 1.11663025e-002 7.21312910e-002
      6.57999754e-001 3.03408206e-001 1.01157546e+000 3.77073467e-001
      7.09707737e-002 1.39420855e+000 2.85753995e-001 6.84838891e-001
      1.07486546e+000 1.93056893e+000 5.01273684e-002 1.39750570e-001
      1.84594190e+000 9.28810894e-001 9.23020095e-002 2.99326628e-001
      6.36208594e-001 1.46058345e+000 2.42800713e+000 5.44677116e-002
      5.21537103e-003 2.14173153e-001 6.92025483e-001 1.64598072e+000
      1.18824221e-001 1.23937213e+000 6.30968809e-002 1.71584897e-002
      1.29859298e-001 5.86771190e-001 7.45069189e-003 1.88509679e+000
      1.85777172e-001 5.17898977e-001 4.21397418e-001 8.73287022e-003
      1.00182332e-001 7.11400807e-002 1.45114160e+000 2.79729933e-001
      4.83690113e-001 1.44095629e-001 1.39188379e-001 1.41385078e-001
      1.44479256e-002 2.40724444e+000 2.41306275e-001 3.29808503e-001
      7.00929701e-001 8.08016434e-002 3.71545970e-001 5.24608910e-001
      5.55359483e-001 2.46869102e-001 3.32800031e-001 8.13376069e-001
      1.70374131e+000 2.05090389e-001 1.18096203e-001 1.74772590e-001
      2.19540074e-001 3.32705267e-002 3.53633046e-001 2.66701984e+000
      6.04354501e-001 8.94408643e-001 2.55553889e+000 2.10677639e-001
      9.02520657e-001 7.51037538e-001 4.38123614e-001 3.84789184e-002
      8.17034304e-001 1.89565010e-002 1.97177976e-001 7.58823633e-001
      1.77458808e-001 8.73167396e-001 5.68002522e-001 1.62170216e-001
      4.40265149e-001 4.30586874e-001 7.09207654e-001 1.05777666e-001
      5.82041681e-001 3.84054363e-001 1.54504967e+000 5.06615117e-002
      3.12790602e-001 2.68274486e-001 3.04743946e-001 8.12595710e-002
      2.73080841e-002 2.66821552e-002 5.82441270e-001 5.56990623e-001
      3.60660702e-001 5.84297061e-001 1.47632942e-001 8.75171900e-001
      6.57882869e-001 1.35565355e-001 9.40493643e-002 1.96650231e+000
      3.29902440e-001 1.00970641e-001 1.43452144e+000 5.86144580e-003
      1.60795767e-002 7.38335669e-001 1.76579249e+000 4.03469473e-001
      7.46704685e-003 3.81577939e-001 8.91867459e-001 1.69237360e-001
      2.47110859e-001 1.70007718e+000 2.45123124e+000 6.51959956e-001
      3.43053132e-001 1.13724582e-002 8.64761602e-003 1.49481678e+000
      1.63979940e-002 1.93548155e+000 3.97135988e-002 9.65413392e-001
      2.89928228e-001 6.18305206e-001 3.12528157e+000 2.13104725e+000
      6.08510934e-002 6.64079845e-001 1.51713625e-001 1.26561418e-001
      2.23360360e-001 1.67335555e-001 4.88171242e-002 5.87782115e-002
      6.25129461e-001 1.67671710e-001 1.67118955e+000 5.40049911e-001
      1.43983867e-002 6.63080454e-001 1.62963718e-001 2.83363909e-001
      2.40343109e-001 1.59166709e-001 2.34340876e-001 1.83762848e-001
      1.54422736e-002 1.70703721e+000 2.76460022e-001 1.40861318e-001
      3.37031543e-001 1.41129280e-002 6.83939755e-001 5.76749109e-002
      1.09719718e-002 2.78194267e-002 9.01546702e-003 9.93953347e-001
      1.31366596e-001 2.24908328e+000 5.18168330e-001 2.03795865e-001
      6.12910986e-001 2.49120109e-002 1.14017940e+000 5.59991375e-002
      1.64374337e-001 7.65408278e-002 1.91406280e-001 6.25089765e-001
      1.67460948e-001 5.91717027e-002 5.37042677e-001 1.24513638e+000
      4.61495996e-001 3.08435649e-001 2.13644072e-001 5.95435202e-001
      1.19964719e+000 6.83782995e-002 4.22598422e-002 3.28482330e-001
      7.90212691e-001 8.13436359e-002 2.59470969e-001 6.42500743e-002
      2.75309712e-001 5.81459003e-003 1.45893288e+000 3.06059331e-001
      7.92500973e-001 1.57468474e+000 1.97287172e-001 1.62924933e+000
      4.79992479e-003 2.25205794e-002 1.59454852e-001 3.21447819e-001
      1.51175869e+000 3.79147977e-001 1.12506449e+000 1.67265749e+000
      8.81847501e-001 8.66189480e-001 1.11703897e+000 2.42794752e+000 0.
      0. 0. 0. 0. 0. 0. 0. 0. 0. 0. 0. 0. 0. 0. 0. 0. 0. 0. 0. 0. 0. 0.
      0. 0. 0. 0. 0. 0. 0. 0. 0. 0. 0. 0. 0. 0. 0. 0. 0. 0. 0. 0. 0. 0.
      0. 0. 0. 0. 0. 0. 0. 0. 0. 0. 0. 0. 0. 0. 0. 0. 0. 0. 0. 0. 0. 0.
      0. 0. 0. 0. 0. 0. 0. 0. 0. 0. 0. 0. 0. 0. 0. 0. 0. 0. 0. 0. 0. 0.
      0. 0. 0. 0. 0. 0. 0. 0. 0. 0. 0.</_>
    <_>
      2.10022673e-001 1.20548677e+000 9.47587132e-001 1.24312961e+000
      1.67074129e-002 1.36036408e+000 6.61650181e-001 1.14833787e-001
      2.15264693e-001 1.10998750e+000 2.74735808e-001 2.65163749e-001
      2.30795002e+000 6.54015958e-001 1.07297421e+000 1.42247164e+000
      5.10035276e-001 3.49751592e-001 1.31641638e+000 1.62111247e+000
      6.98466837e-001 2.82616854e-001 2.65966797e+000 5.68194926e-001
      5.01115061e-002 3.71995950e+000 1.13847625e+000 1.93819857e+000
      2.71647304e-001 3.21596265e-002 6.28364384e-001 5.05433641e-002
      2.39112663e+000 2.44580612e-001 8.09127986e-001 3.03658128e-001
      5.53338349e-001 6.08545363e-001 4.05793130e-001 5.98913252e-001
      2.39240937e-002 7.69315362e-001 5.88798463e-001 2.02127829e-001
      1.91043985e+000 7.08449006e-001 1.66741097e+000 6.19196892e-001
      5.60406208e-001 1.83757675e+000 7.34282285e-002 6.70050979e-001
      1.49533987e+000 3.30463916e-001 9.86955881e-001 5.24511039e-001
      1.02380611e-001 1.97180793e-001 4.00201418e-002 2.37466145e+000
      7.59613454e-001 1.94056165e+000 1.19772470e-002 8.48370492e-001
      7.21147835e-001 4.85535026e-001 5.85379303e-001 4.42714185e-001
      3.68076056e-001 1.07732761e+000 8.61534536e-001 2.95300186e-001
      1.04802978e+000 1.59579980e+000 7.93103933e-001 2.39373550e-001
      3.35119516e-001 2.05110955e+000 7.08666325e-001 1.81356919e+000
      2.63192028e-001 1.43811786e+000 1.04869619e-001 3.81202072e-001
      2.58590722e+000 1.46455705e+000 5.63459098e-002 5.56528330e-001
      5.95659733e-001 8.92853618e-001 5.22546709e-001 6.86748266e-001
      5.84853180e-002 1.63487077e+000 8.16775680e-001 2.00087500e+000
      1.72903144e+000 3.79990041e-001 4.53718752e-002 4.28563505e-001
      1.25045335e+000 2.71356082e+000 1.01108149e-001 1.44283503e-001
      4.25043494e-001 1.37858832e+000 5.22809088e-001 6.59674555e-002
      2.81631034e-002 1.01966761e-001 9.46824908e-001 9.73073542e-001
      2.85383165e-001 9.06799138e-001 4.17852886e-002 3.72136831e-002
      2.36365810e-001 9.34600890e-001 8.75666458e-003 1.00005138e+000
      4.32822734e-001 1.83901060e+000 3.59513789e-001 6.89619966e-003
      2.00434506e-001 2.25248724e-001 1.53977513e+000 4.21864182e-001
      1.16090190e+000 4.83746260e-001 1.36106446e-001 5.39808869e-001
      3.03834509e-002 1.27662086e+000 1.88620627e-001 2.40332082e-001
      7.42798448e-001 8.53157043e-002 1.15429133e-001 4.34247822e-001
      5.47166884e-001 4.40887809e-001 5.58499277e-001 1.97770759e-001
      1.06494534e+000 2.03640938e-001 1.20337434e-001 1.03213894e+000
      2.77327210e-001 6.37114123e-002 5.17666876e-001 5.92943907e-001
      3.32897514e-001 9.29407001e-001 1.91793942e+000 4.65305686e-001
      9.65565264e-001 1.51028132e+000 2.83275902e-001 8.44234973e-002
      1.05903578e+000 3.05374730e-002 2.99418032e-001 1.02238774e+000
      1.23687439e-001 1.03622127e+000 5.36076367e-001 2.29719475e-001
      3.08046550e-001 2.64031976e-001 2.81827986e-001 1.74335808e-001
      3.59202862e-001 9.08173978e-001 1.52340174e+000 7.95710385e-002
