<?xml version="1.0"?>
<opencv_storage>
<my_svm type_id="opencv-ml-svm">
  <svm_type>EPS_SVR</svm_type>
  <kernel><type>RBF</type>
    <gamma>4.1772500000000004e-003</gamma></kernel>
  <C>15.</C>
  <p>1.0000000000000001e-001</p>
  <term_criteria><epsilon>4.9999998882412910e-003</epsilon>
    <iterations>2147483647</iterations></term_criteria>
  <var_all>400</var_all>
  <var_count>400</var_count>
  <sv_total>117</sv_total>
  <support_vectors>
    <_>
      1.50587037e-001 4.26196843e-001 4.04846281e-001 1.03225303e+000
      2.50307452e-002 1.43492246e+000 5.57599485e-001 1.66861922e-001
      6.08689189e-002 4.35376585e-001 5.84931314e-001 9.60929573e-001
      1.38370204e+000 4.30434257e-001 7.09991574e-001 1.22744668e+000
      1.07098711e+000 1.36695072e-001 1.93428659e+000 5.67228138e-001
      4.36103791e-001 3.64287198e-001 7.36827493e-001 4.46548700e-001
      1.71593372e-002 1.18258083e+000 2.89124191e-001 3.92696023e-001
      2.83701986e-001 5.96162155e-002 5.41579902e-001 7.22085387e-002
      5.24402142e-001 7.11858422e-002 5.21231353e-001 5.75014651e-001
      3.56015980e-001 3.48166585e-001 4.29352373e-001 1.90701234e+000
      1.52143259e-002 1.07694042e+000 3.02060068e-001 1.33020639e-001
      7.41362870e-001 1.23280339e-001 1.77485323e+000 4.87522423e-001
      2.17679143e+000 4.78287697e-001 5.21767698e-002 2.28330350e+000
      1.05815160e+000 6.25115395e-001 4.32781130e-001 9.58588958e-001
      1.00124218e-001 2.87798554e-001 3.52496863e-003 1.65117729e+000
      5.15338659e-001 2.85843641e-001 3.32761509e-003 3.08407277e-001
      4.72748160e-001 1.93532574e+000 1.11018622e+000 2.52824962e-001
      6.42977357e-001 2.50813580e+000 2.45905161e+000 1.31750953e+000
      8.32878053e-001 1.47331619e+000 1.13854325e+000 1.28873795e-001
      8.07981491e-002 9.79915857e-001 5.76122820e-001 1.01197803e+000
      2.11446688e-001 1.16625094e+000 1.44603215e-002 1.46856084e-001
      1.61844611e+000 6.26247644e-001 1.99062508e-002 2.83329844e-001
      1.27674925e+000 7.76680768e-001 7.40474820e-001 5.65028846e-001
      6.29891977e-002 1.19603300e+000 1.76471698e+000 9.34769630e-001
      2.00667858e+000 2.35868716e+000 6.27279729e-002 5.03828347e-001
      5.27460814e-001 7.24235892e-001 1.56570598e-001 2.04528585e-001
      8.03288996e-001 5.77776670e-001 1.74229062e+000 4.40720879e-002
      4.76322556e-003 6.59066364e-002 5.26286185e-001 1.21912110e+000
      1.55479759e-001 1.69190466e+000 4.93046492e-002 3.55892777e-002
      2.14463130e-001 2.98793823e-001 7.62741780e-003 4.85469580e-001
      4.29893374e-001 7.46150136e-001 2.43468091e-001 4.63705789e-003
      2.14466721e-001 6.59282431e-002 1.12069499e+000 5.91981173e-001
      1.40935755e+000 4.63277102e-001 3.07599634e-001 7.54444420e-001
      1.64506678e-002 1.46724415e+000 1.48570135e-001 1.95668086e-001
      4.34980065e-001 4.59012948e-002 2.92676777e-001 3.36103499e-001
      2.98857689e-001 3.92640442e-001 4.89703804e-001 3.65602940e-001
      3.40607929e+000 1.96742386e-001 1.68238655e-001 6.24639273e-001
      1.25478685e-001 6.69101030e-002 3.63301128e-001 1.30791867e+000
      2.37297058e-001 3.73159021e-001 9.96762156e-001 2.09189221e-001
      3.34090590e-001 8.33159566e-001 1.72174096e-001 4.00899015e-002
      1.36007380e+000 1.55833056e-002 3.04324746e-001 1.03168023e+000
      1.54065043e-001 1.59484637e+000 2.00945807e+000 1.20126002e-001
      2.70116866e-001 4.41227496e-001 5.86021245e-001 1.58621490e-001
      2.13078916e-001 3.39387059e-001 1.66001332e+000 4.25868146e-002
      2.37406179e-001 5.89260280e-001 3.40261102e-001 3.80700566e-002
      1.99929159e-002 4.60838899e-002 4.55233961e-001 3.68368387e-001
      6.13464952e-001 3.52726460e-001 3.65322560e-001 8.75910521e-001
      5.73187351e-001 2.70250797e-001 1.38165489e-001 1.32136095e+000
      1.58563066e+000 3.75750363e-001 9.67079818e-001 3.54100345e-003
      3.62741761e-002 6.82903707e-001 1.82847559e+000 5.77248871e-001
      7.61583354e-003 3.52259398e-001 4.47959155e-001 1.73670053e-001
      1.22590494e+000 4.34334934e-001 1.50842357e+000 7.12916970e-001
      4.46033090e-001 1.37528926e-002 1.89673845e-002 1.19693816e+000
      1.50438957e-002 1.13339114e+000 3.76850516e-002 7.30239809e-001
      3.35791200e-001 6.17828667e-001 8.56406152e-001 1.73652244e+000
      2.14376912e-001 4.07454938e-001 1.10044110e+000 4.25100684e-001
      7.50257075e-001 1.27093673e-001 6.42297417e-002 3.85118313e-002
      5.57226181e-001 1.13383979e-001 3.61896485e-001 9.93622780e-001
      9.77273844e-003 1.22355139e+000 2.64418900e-001 1.01868248e+000
      9.47505891e-001 6.44796371e-001 1.10160634e-001 2.20192388e-001
      1.60884205e-002 9.32198703e-001 4.48307574e-001 2.47456938e-001
      7.29884028e-001 2.09039915e-002 5.36173165e-001 1.34332448e-001
      1.85980741e-002 6.95953220e-002 6.63647382e-003 1.56680107e+000
      1.49710521e-001 5.32835066e-001 1.83779311e+000 1.10642934e+000
      6.67496443e-001 1.89744085e-002 4.60891813e-001 6.71642274e-002
      1.19565181e-001 4.32121046e-002 2.62983888e-001 3.34455490e-001
      1.23549007e-001 8.59221071e-002 3.98865700e-001 4.39915776e-001
      2.39478850e+000 2.42401332e-001 3.27137470e-001 5.83162606e-001
      1.28539038e+000 6.24998286e-002 4.94193286e-002 9.95543599e-001
      2.58706719e-001 2.33190447e-001 1.96625486e-001 5.76746911e-002
      3.66471201e-001 3.13386228e-003 5.58309555e-001 2.32313290e-001
      3.03533584e-001 6.40762210e-001 9.49882790e-002 1.58958411e+000
      3.98519915e-003 2.45994385e-002 4.73703474e-001 6.42602384e-001
      7.96262622e-001 2.42663145e-001 4.16537189e+000 9.72001255e-001
      1.46648180e+000 4.04055178e-001 6.56631947e-001 1.54161727e+000 0.
      0. 0. 0. 0. 0. 0. 0. 0. 0. 0. 0. 0. 0. 0. 0. 0. 0. 0. 0. 0. 0. 0.
      0. 0. 0. 0. 0. 0. 0. 0. 0. 0. 0. 0. 0. 0. 0. 0. 0. 0. 0. 0. 0. 0.
      0. 0. 0. 0. 0. 0. 0. 0. 0. 0. 0. 0. 0. 0. 0. 0. 0. 0. 0. 0. 0. 0.
      0. 0. 0. 0. 0. 0. 0. 0. 0. 0. 0. 0. 0. 0. 0. 0. 0. 0. 0. 0. 0. 0.
      0. 0. 0. 0. 0. 0. 0. 0. 0. 0. 0.</_>
    <_>
      1.21928245e-001 1.09437847e+000 3.25551629e-001 1.11337233e+000
      1.45538505e-002 6.75033331e-001 2.71427870e-001 1.49892032e-001
      1.06055029e-001 6.84284329e-001 7.05157638e-001 8.48339140e-001
      1.21525204e+000 3.70294005e-001 1.32327640e+000 3.05664212e-001
      4.59324330e-001 3.44482303e-001 1.19748557e+000 4.98163342e-001
      4.02184278e-001 5.40995598e-001 6.05762005e-001 2.46831879e-001
      2.20821220e-002 1.16103292e+000 3.32099110e-001 4.58001465e-001
      4.82792854e-001 4.49917912e-002 5.27938664e-001 3.59946527e-002
      6.00375414e-001 8.58652145e-002 4.10162747e-001 9.96806204e-001
      3.63278657e-001 3.28348517e-001 1.94725350e-001 2.51577663e+000
      1.51995514e-002 8.23649466e-001 3.07491094e-001 9.73017588e-002
      1.53133345e+000 1.10458267e+000 1.28825045e+000 8.80690098e-001
      1.21961737e+000 1.04861999e+000 3.92308049e-002 5.65524757e-001
      9.69047785e-001 1.21201670e+000 3.82859051e-001 8.37884605e-001
      1.62422091e-001 2.78019011e-001 4.81432304e-003 1.02405643e+000
      8.25308740e-001 1.42735755e+000 1.97305325e-002 4.47632015e-001
      3.62998813e-001 8.16399872e-001 9.44415212e-001 3.90452296e-001
      1.87384093e+000 1.03027415e+000 2.89683199e+000 8.84003520e-001
      1.05314243e+000 1.27103770e+000 1.30894303e+000 1.53860122e-001
      1.10520855e-001 8.86974871e-001 3.92361909e-001 9.67264950e-001
      2.98418105e-001 7.45958984e-001 6.02589957e-002 1.40206859e-001
      2.26494050e+000 1.41256726e+000 2.29880940e-002 3.90999228e-001
      1.33686328e+000 1.04263139e+000 4.86045539e-001 3.46743286e-001
      2.42103994e-001 8.79721642e-001 1.58372331e+000 1.08433294e+000
      1.86922646e+000 1.05151880e+000 7.78275505e-002 3.68407577e-001
      1.55623233e+000 4.51977551e-001 1.13720939e-001 3.60291481e-001
      2.62411207e-001 9.76612210e-001 1.19399238e+000 5.07123098e-002
      6.66078180e-003 1.18933938e-001 2.71239609e-001 6.69569790e-001
      1.07396044e-001 3.57080400e-001 4.36195545e-002 1.93672460e-002
      1.62077010e-001 5.37684381e-001 9.84020159e-003 8.75271380e-001
      6.89550221e-001 1.03592694e+000 3.58059108e-001 5.55139640e-003
      5.21406531e-001 5.80681376e-002 1.15430212e+000 5.78917444e-001
      7.81359792e-001 3.01678479e-001 5.86550795e-002 3.79525214e-001
      1.77014917e-002 5.30064702e-001 1.41615525e-001 4.31648731e-001
      6.45347178e-001 5.06869182e-002 5.13860226e-001 9.97325122e-001
      2.97945619e-001 3.38807315e-001 3.17980498e-001 3.67703587e-001
      5.99644840e-001 1.21968530e-001 1.12615161e-001 8.90893221e-001
      1.61039412e-001 5.94250374e-002 4.16931063e-001 7.80049443e-001
      4.42079306e-001 1.73953545e+000 1.49489987e+000 3.63774449e-001
      2.00128034e-001 1.51764488e+000 7.58227706e-001 5.75142764e-002
      1.09524333e+000 3.27044949e-002 3.64702106e-001 1.68568349e+000
      8.12529549e-002 1.01511979e+000 2.15218091e+000 8.39354843e-002
      4.11804914e-001 4.14620042e-001 9.67949331e-001 1.08327180e-001
      1.88444793e-001 4.82473165e-001 1.20410657e+000 5.82586154e-002
      5.10018468e-001 8.48143339e-001 4.10098970e-001 5.01990356e-002
      1.43490117e-002 3.39277983e-002 2.40878060e-001 4.24688727e-001
      5.82317173e-001 5.40300965e-001 1.07598431e-001 8.46417189e-001
      3.08738202e-001 2.16231450e-001 1.10117517e-001 8.20489407e-001
      1.17581773e+000 9.82762158e-001 7.68284619e-001 4.80213808e-003
      1.91642810e-002 6.58070862e-001 8.83759737e-001 3.94838482e-001
      9.86491702e-003 3.69271666e-001 2.30255142e-001 1.09402359e-001
      1.25441766e+000 5.28069377e-001 6.66710138e-001 1.21255481e+000
      4.74082112e-001 6.25424609e-002 1.66604761e-002 9.77316856e-001
      3.37468348e-002 9.24977660e-001 5.57065122e-002 1.65651810e+000
      8.53794575e-001 1.00152993e+000 7.70891011e-001 1.30671167e+000
      1.86184630e-001 3.03690076e-001 1.15809464e+000 1.45886147e+000
      4.10722643e-001 9.82289612e-002 5.65577820e-002 4.28834856e-002
      4.87809986e-001 1.46242589e-001 1.55019033e+000 9.31673169e-001
      2.62422841e-002 2.64025629e-001 1.85824484e-001 5.07719278e-001
      1.08798552e+000 3.41370076e-001 1.59758091e-001 1.18028395e-001
      1.73988715e-002 4.18638319e-001 4.18510407e-001 1.44922689e-001
      3.98289561e-001 1.79713871e-002 4.35747623e-001 1.46027818e-001
      2.20434312e-002 1.67052925e-001 5.44382539e-003 8.52844954e-001
      1.44478619e-001 5.50119996e-001 8.90866756e-001 9.87658203e-001
      1.25220668e+000 1.76392589e-002 8.81866693e-001 3.61587368e-002
      9.38100219e-002 6.12345003e-002 6.79197550e-001 3.01173061e-001
      1.08085565e-001 5.21487929e-002 1.03671253e+000 1.12290680e+000
      1.52968538e+000 8.69782746e-001 3.63354653e-001 5.59903443e-001
      6.88756406e-001 2.30722040e-001 4.76989746e-002 1.06558108e+000
      4.90869075e-001 8.24837163e-002 4.97212052e-001 1.43244952e-001
      2.77495265e-001 5.26042888e-003 8.75822127e-001 4.61681128e-001
      6.18807673e-001 4.67862010e-001 9.70698744e-002 1.03747380e+000
      6.05616672e-003 1.50188385e-002 2.29349330e-001 5.79216003e-001
      4.28829998e-001 3.62748682e-001 8.08034420e-001 9.73193049e-001
      1.38330901e+000 8.49887788e-001 6.53076589e-001 5.00316560e-001 0.
      0. 0. 0. 0. 0. 0. 0. 0. 0. 0. 0. 0. 0. 0. 0. 0. 0. 0. 0. 0. 0. 0.
      0. 0. 0. 0. 0. 0. 0. 0. 0. 0. 0. 0. 0. 0. 0. 0. 0. 0. 0. 0. 0. 0.
      0. 0. 0. 0. 0. 0. 0. 0. 0. 0. 0. 0. 0. 0. 0. 0. 0. 0. 0. 0. 0. 0.
      0. 0. 0. 0. 0. 0. 0. 0. 0. 0. 0. 0. 0. 0. 0. 0. 0. 0. 0. 0. 0. 0.
      0. 0. 0. 0. 0. 0. 0. 0. 0. 0. 0.</_>
    <_>
      1.49528101e-001 1.34534013e+000 5.13079584e-001 6.10837638e-001
      2.16917098e-002 1.15780139e+000 4.30640131e-001 3.69901508e-001
      1.03805356e-001 1.50144076e+000 5.23139954e-001 3.65826011e-001
      1.38444364e+000 1.01754224e+000 2.35473156e+000 4.55453426e-001
      2.11336151e-001 5.62559962e-001 7.36173570e-001 7.13367462e-001
      7.17843413e-001 4.75538909e-001 8.31467211e-001 5.33121228e-001
      2.36064214e-002 6.37405753e-001 3.40858012e-001 9.37897503e-001
      5.54297924e-001 5.59542812e-002 5.40717721e-001 7.67034665e-002
      8.36595118e-001 7.28002563e-002 1.42106760e+000 8.33296180e-001
      5.21435380e-001 4.73166853e-001 3.83414894e-001 1.09347546e+000
      2.40962636e-002 9.11584616e-001 2.11884692e-001 1.53142259e-001
      1.88206911e+000 1.37154663e+000 6.56825662e-001 1.11816227e+000
      1.36332250e+000 9.38423574e-001 5.36229759e-002 2.93369818e+000
      1.75557995e+000 1.36085188e+000 4.31905597e-001 2.65013754e-001
      1.41139656e-001 5.00443935e-001 4.80164774e-003 9.56513703e-001
      1.36750901e+000 2.82110542e-001 3.27323703e-003 4.90741462e-001
      4.41617846e-001 1.26019382e+000 3.20400119e-001 3.72634739e-001
      4.89475727e-001 3.21305609e+000 1.22196436e+000 4.56007898e-001
      4.03497934e-001 6.91637516e-001 5.75931132e-001 1.76195875e-001
      4.95860018e-002 6.64541960e-001 4.59122211e-001 9.48517561e-001
      4.25039351e-001 6.49386585e-001 1.33788278e-002 1.43423125e-001
      3.14978528e+000 1.46046114e+000 1.45345693e-002 2.22512782e-001
      1.02730262e+000 2.08220625e+000 6.74852252e-001 2.38527864e-001
      6.14286549e-002 3.51459593e-001 4.25855041e-001 1.05926704e+000
      1.04431546e+000 1.95551503e+000 2.00278938e-001 7.06330776e-001
      2.03173780e+000 1.00579059e+000 1.07799992e-001 7.06397176e-001
      2.61735260e-001 1.58810949e+000 1.40574384e+000 4.91932780e-002
      8.35023634e-003 2.14408904e-001 4.81617481e-001 1.32552791e+000
      7.49830082e-002 8.47793698e-001 5.23901545e-002 1.59891956e-002
      1.15449376e-001 5.72674453e-001 2.82218382e-002 2.33215261e+000
      7.56659031e-001 7.84545124e-001 5.43101072e-001 4.87692188e-003
      1.56062499e-001 7.40898773e-002 1.59799135e+000 5.73598742e-001
      5.53798914e-001 4.27949935e-001 2.39036962e-001 6.42827153e-001
      3.53393294e-002 8.34462345e-001 1.93062648e-001 9.17462409e-001
      7.69199491e-001 7.20847845e-002 4.94984627e-001 8.68801892e-001
      4.90177542e-001 4.90012288e-001 4.42371547e-001 3.56795073e-001
      2.08845353e+000 1.46206036e-001 2.04398066e-001 1.27121234e+000
      1.95237577e-001 6.90048635e-002 5.00902951e-001 2.43989205e+000
      5.26678741e-001 8.26471627e-001 2.08825588e+000 3.66421610e-001
      4.46268588e-001 1.68846571e+000 1.05631673e+000 6.26550242e-002
      5.30594766e-001 5.30512892e-002 4.21788871e-001 5.76718271e-001
      1.48233131e-001 2.37642741e+000 1.22722685e+000 1.79440752e-001
      2.76749879e-001 7.05965698e-001 2.11653709e+000 2.67972708e-001
      5.34812510e-001 4.61277395e-001 5.84188938e-001 7.02608675e-002
      2.97753096e-001 6.38978183e-001 3.01060200e-001 6.18420020e-002
      2.32808255e-002 6.24447130e-002 1.28498411e+000 5.78171313e-001
      1.47269022e+000 5.08074105e-001 2.60197937e-001 6.48578942e-001
      4.56844300e-001 2.92753249e-001 1.47993132e-001 1.29126215e+000
      1.07171059e+000 4.36387777e-001 5.66658199e-001 4.80258139e-003
      1.72973070e-002 1.52365494e+000 1.06920695e+000 3.37120742e-001
      2.80994661e-002 5.78242540e-001 4.61690098e-001 4.96346742e-001
      1.08681738e+000 1.14087069e+000 8.21391463e-001 1.56093788e+000
      3.54102105e-001 1.40376184e-002 1.49561716e-002 7.83694506e-001
      1.57741643e-002 1.21349943e+000 6.40538335e-002 1.14105856e+000
      1.70207059e+000 1.23535633e+000 9.55861270e-001 2.04953361e+000
      1.84155688e-001 5.05674183e-001 5.46395183e-001 7.28508234e-001
      3.50208640e-001 3.14065307e-001 4.81934585e-002 4.53205742e-002
      5.18912494e-001 1.85928613e-001 3.09350610e-001 1.09985864e+000
      3.99964629e-003 6.25744224e-001 7.88172245e-001 1.88833088e-001
      5.10622799e-001 3.74279469e-001 2.06865519e-001 3.76447588e-001
      1.52409449e-002 6.98949099e-001 1.23517442e+000 1.90711468e-001
      3.27173501e-001 3.02934237e-002 8.01442623e-001 4.36574161e-001
      3.42552140e-002 7.03983605e-002 5.78622799e-003 1.09396207e+000
      1.47758320e-001 1.02383471e+000 9.00473773e-001 4.81386513e-001
      7.44234085e-001 2.10986286e-002 1.21161711e+000 2.91693304e-002
      2.34797642e-001 8.13412443e-002 9.71141040e-001 7.45646954e-001
      1.16421349e-001 3.79587561e-002 2.66766816e-001 1.52259254e+000
      1.02303040e+000 1.39902961e+000 3.80460829e-001 1.57982349e-001
      4.74110305e-001 6.28518239e-002 5.89046590e-002 4.74744439e-001
      6.25398993e-001 1.98246554e-001 2.83138573e-001 5.60796596e-002
      2.05137327e-001 2.03455482e-002 1.49146819e+000 5.56970537e-001
      1.18062937e+000 1.30010808e+000 1.85095996e-001 1.12752235e+000
      5.13170008e-003 2.44305246e-002 3.10118765e-001 3.98138553e-001
      4.23777729e-001 2.90225208e-001 1.52042425e+000 1.92479050e+000
      2.29962254e+000 2.43295145e+000 1.33915508e+000 8.88648689e-001 0.
      0. 0. 0. 0. 0. 0. 0. 0. 0. 0. 0. 0. 0. 0. 0. 0. 0. 0. 0. 0. 0. 0.
      0. 0. 0. 0. 0. 0. 0. 0. 0. 0. 0. 0. 0. 0. 0. 0. 0. 0. 0. 0. 0. 0.
      0. 0. 0. 0. 0. 0. 0. 0. 0. 0. 0. 0. 0. 0. 0. 0. 0. 0. 0. 0. 0. 0.
      0. 0. 0. 0. 0. 0. 0. 0. 0. 0. 0. 0. 0. 0. 0. 0. 0. 0. 0. 0. 0. 0.
      0. 0. 0. 0. 0. 0. 0. 0. 0. 0. 0.</_>
    <_>
      6.06193244e-002 5.50129592e-001 6.99660718e-001 3.28387260e-001
      1.39502389e-002 3.99774462e-001 2.96145111e-001 8.93275291e-002
      2.92563885e-001 1.22364104e+000 6.59223557e-001 9.25545871e-001
      7.27246583e-001 3.46735120e-001 5.51508009e-001 2.02134207e-001
      1.77194357e-001 1.74806356e-001 1.28133810e+000 2.75769591e-001
      1.43375471e-001 2.14760453e-001 1.01009762e+000 2.36909255e-001
      1.56485401e-002 1.92622817e+000 4.58341062e-001 7.19785273e-001
      2.78824031e-001 4.64428551e-002 2.53346920e-001 6.21568710e-002
      6.19803667e-001 8.73149782e-002 3.42337519e-001 7.73366690e-001
      2.56835163e-001 2.30453625e-001 4.13236052e-001 1.35995209e+000
      1.39029352e-002 1.25426388e+000 2.95909226e-001 6.63373396e-002
      9.51106071e-001 3.63342196e-001 1.87159860e+000 2.74482816e-001
      1.06149852e+000 4.23031181e-001 4.62380983e-002 1.82130849e+000
      8.28921020e-001 3.89082402e-001 5.03821075e-001 2.41560251e-001
      1.04907826e-001 2.65507340e-001 1.35101797e-002 1.08693802e+000
      5.14522851e-001 5.58550119e-001 1.17631042e-002 2.08251908e-001
      1.96302533e-001 1.52241576e+000 2.53909677e-001 3.14382106e-001
      9.22216892e-001 1.73925602e+000 1.20722628e+000 9.07100439e-001
      8.45821321e-001 4.86363560e-001 1.42256546e+000 7.80238882e-002
      1.32259503e-001 2.48177901e-001 3.12905401e-001 2.25996092e-001
      2.34095767e-001 5.25654197e-001 5.57979941e-002 1.64167255e-001
      7.87068188e-001 6.88071132e-001 5.03024980e-002 3.49230796e-001
      1.39431620e+000 4.93027687e-001 4.03290600e-001 2.43867919e-001
      7.90507793e-002 7.66034961e-001 7.17593193e-001 2.22973838e-001
      1.99872518e+000 1.10230446e+000 1.19103327e-001 4.45922524e-001
      1.02752757e+000 5.30356705e-001 1.10088594e-001 1.79536074e-001
      1.30742431e-001 6.51008546e-001 1.44667566e+000 3.95360813e-002
      2.46024504e-002 6.04107007e-002 6.00867808e-001 8.26592565e-001
      2.33824268e-001 1.14224184e+000 3.00336145e-002 6.76583201e-002
      5.63495755e-002 2.31518507e-001 1.64938048e-002 8.11172783e-001
      1.17652047e+000 7.41625786e-001 2.90364265e-001 4.04183380e-003
      1.61251217e-001 3.63275521e-002 5.89379132e-001 2.96300173e-001
      1.70632929e-001 2.79409468e-001 1.19823188e-001 7.37339735e-001
      3.48478183e-002 1.50398707e+000 7.41467476e-002 5.32126725e-001
      2.90349662e-001 3.28125507e-002 3.30432266e-001 1.14773560e+000
      1.77147150e-001 3.14842582e-001 2.41313934e-001 4.97010857e-001
      5.95232427e-001 1.73348501e-001 9.07987431e-002 1.74366966e-001
      1.77346691e-001 4.49220277e-002 3.27146679e-001 1.89253783e+000
      2.70303428e-001 4.27096009e-001 9.60151911e-001 1.21879272e-001
      3.36773753e-001 2.56481618e-001 5.02195597e-001 2.25654952e-002
      1.18030858e+000 3.11453212e-002 2.91101635e-001 9.14604723e-001
      1.35272518e-001 1.32503998e+000 1.19212747e+000 7.07487836e-002
      7.86210746e-002 2.51799554e-001 3.82979691e-001 1.14543401e-001
      2.30971619e-001 5.04842281e-001 3.67377728e-001 2.54393183e-002
      2.34397605e-001 3.29742521e-001 2.60669857e-001 5.11211641e-002
      1.08718853e-002 4.00958247e-002 3.26283276e-001 1.95233643e-001
      1.50164330e+000 3.33382219e-001 1.80094808e-001 6.16848171e-001
      2.97330171e-001 4.49993342e-001 1.12995207e-001 1.25734329e+000
      1.07009816e+000 3.69033515e-001 2.31521055e-001 1.32438932e-002
      6.88270777e-002 7.27194071e-001 2.01388717e-001 1.93952113e-001
      1.64235700e-002 2.15797424e-001 4.53211427e-001 3.23712736e-001
      6.45334303e-001 1.28102207e+000 1.55720770e+000 2.16385320e-001
      6.40145540e-001 5.45313843e-002 1.40967844e-002 1.88594186e+000
      5.03395163e-002 6.22214913e-001 2.99592167e-002 8.07752311e-001
      1.28824151e+000 1.05987692e+000 1.78957403e+000 9.00634587e-001
      2.04700127e-001 2.81881809e-001 4.11995411e-001 7.36774802e-001
      5.86686313e-001 4.05579776e-001 4.90932539e-002 4.13779430e-002
      4.50423419e-001 1.73795849e-001 4.33559209e-001 6.60541356e-001
      1.16952034e-002 4.77617979e-001 4.66739416e-001 1.81428194e-001
      7.43303359e-001 1.02042422e-001 8.50332454e-002 8.62750784e-002
      1.26401400e-002 7.70159602e-001 6.36484027e-001 1.46617472e-001
      6.56399429e-001 5.24980277e-002 4.66162086e-001 2.29007021e-001
      3.67407575e-002 1.60866514e-001 4.55713132e-003 8.55903625e-001
      1.10112511e-001 3.22741538e-001 1.18732178e+000 9.11897898e-001
      1.04204893e+000 1.71801727e-002 3.65667343e-001 1.17883518e-001
      3.65325868e-001 4.49109077e-002 3.74226451e-001 2.96878457e-001
      8.12800974e-002 1.00326926e-001 6.28584564e-001 6.49283350e-001
      9.46841180e-001 8.31194282e-001 3.77145946e-001 1.02587616e+000
      2.04099268e-001 8.03929344e-002 4.02169041e-002 1.28188086e+000
      4.66064245e-001 1.15590304e-001 2.76517928e-001 9.36894491e-002
      5.22265077e-001 1.06999138e-002 8.83560061e-001 1.19902104e-001
      3.66941303e-001 6.33775830e-001 9.06801373e-002 3.92139316e-001
      4.33231657e-003 1.48784118e-002 2.83856958e-001 3.08188051e-001
      2.01794535e-001 7.07707554e-002 2.42476964e+000 1.01276648e+000
      6.03812397e-001 1.29621780e+000 4.99890745e-001 1.52720892e+000 0.
      0. 0. 0. 0. 0. 0. 0. 0. 0. 0. 0. 0. 0. 0. 0. 0. 0. 0. 0. 0. 0. 0.
      0. 0. 0. 0. 0. 0. 0. 0. 0. 0. 0. 0. 0. 0. 0. 0. 0. 0. 0. 0. 0. 0.
      0. 0. 0. 0. 0. 0. 0. 0. 0. 0. 0. 0. 0. 0. 0. 0. 0. 0. 0. 0. 0. 0.
      0. 0. 0. 0. 0. 0. 0. 0. 0. 0. 0. 0. 0. 0. 0. 0. 0. 0. 0. 0. 0. 0.
      0. 0. 0. 0. 0. 0. 0. 0. 0. 0. 0.</_>
    <_>
      2.78647207e-002 1.24278188e-001 1.51716024e-001 2.17142388e-001
      3.33536067e-003 2.00820222e-001 6.19252846e-002 2.70076860e-002
      2.10971832e-002 1.99736565e-001 1.60425782e-001 1.15554094e-001
      2.09548354e-001 1.34210259e-001 1.66918248e-001 1.99566171e-001
      6.22768141e-002 5.94482236e-002 2.38423571e-001 5.17107807e-002
      2.03211129e-001 5.28177135e-002 1.28543139e-001 6.27060533e-002
      7.45900674e-003 1.46956533e-001 7.78190717e-002 1.24774024e-001
      7.28122070e-002 1.21093700e-002 5.66169359e-002 4.20119017e-002
      9.99259576e-002 1.28205270e-002 2.09094301e-001 2.25937828e-001
      5.87426573e-002 1.19330764e-001 3.69380563e-002 3.77490431e-001
      3.82193737e-003 6.03920817e-001 5.65358922e-002 1.85803510e-002
      1.76208496e-001 1.36903584e-001 2.55307168e-001 4.11602914e-001
      2.87205398e-001 1.10991865e-001 6.49950234e-003 2.06453696e-001
      1.38000354e-001 1.81937307e-001 7.29774535e-002 1.39724404e-001
      4.31842878e-002 7.33670592e-002 2.99693737e-003 1.18047565e-001
      1.30002230e-001 1.70792848e-001 1.86542305e-003 4.98256423e-002
      5.42170443e-002 1.18786231e-001 1.28831759e-001 8.35836157e-002
      2.61791945e-001 4.07489479e-001 3.93408060e-001 2.88968951e-001
      1.25470325e-001 5.13217784e-002 2.10942045e-001 1.52907763e-002
      3.04698646e-002 2.70524889e-001 4.12727110e-002 1.09377325e-001
      1.05499811e-001 9.51970741e-002 9.30249970e-003 1.72623526e-002
      1.96377188e-001 2.11802259e-001 4.63266531e-003 6.16800971e-002
      7.69223213e-001 1.69364437e-001 1.14497080e-001 4.76302430e-002
      2.33463123e-002 1.69847354e-001 2.04248726e-001 1.07477501e-001
      3.23434263e-001 1.32005647e-001 1.72608048e-002 1.01005167e-001
      1.13075949e-001 2.87345499e-001 1.77203529e-002 5.47030903e-002
      4.43227142e-002 1.57736599e-001 2.06629604e-001 8.00822023e-003
      2.44150101e-003 4.43874411e-002 1.29675642e-001 1.68020964e-001
      4.62330319e-002 8.67616311e-002 1.54408114e-002 9.02912021e-003
      2.75117364e-002 4.07858305e-002 1.85691309e-003 1.13395080e-001
      7.69743845e-002 1.47286162e-001 1.17288917e-001 9.67149448e-004
      2.38287412e-002 3.64921801e-002 1.08740270e-001 1.08863331e-001
      1.58090651e-001 7.70546496e-002 6.97396323e-002 2.72472084e-001
      1.09770605e-002 2.25225493e-001 2.16320697e-002 6.52875081e-002
      1.65645421e-001 7.87738338e-003 6.66986257e-002 1.33816794e-001
      6.03212640e-002 9.03890803e-002 6.03841692e-002 1.41336396e-001
      6.97354227e-002 4.06053662e-002 4.70680594e-002 4.33491617e-001
      4.36837934e-002 8.37357529e-003 4.06053573e-001 1.16607375e-001
      5.26240170e-002 1.16987564e-001 1.13873608e-001 1.20920658e-001
      6.15270399e-002 2.33325452e-001 7.27843344e-002 6.94048172e-003
      1.13612577e-001 4.64904448e-003 6.89045638e-002 1.68884009e-001
      4.29625772e-002 2.42880955e-001 4.61850464e-001 1.61956623e-002
      8.85179564e-002 7.07636550e-002 1.70217723e-001 2.35105902e-002
      5.66879325e-002 6.49394989e-002 1.79168060e-001 8.00009631e-003
      6.09333478e-002 2.73537755e-001 4.83991392e-002 9.82204732e-003
      4.63508721e-003 3.69861796e-002 1.14511348e-001 9.25014541e-002
      1.26728460e-001 1.34628549e-001 1.17236048e-001 1.64729714e-001
      5.80129959e-002 1.09171920e-001 1.77172404e-002 9.68202725e-002
      1.15431234e-001 1.00067630e-001 2.44916067e-001 2.91668833e-003
      9.47058853e-003 1.72995210e-001 8.22287723e-002 7.35250637e-002
      1.85679551e-003 9.69196185e-002 5.09611666e-002 3.54438983e-002
      1.47154868e-001 1.70911908e-001 1.30320042e-001 1.44564256e-001
      1.68719471e-001 8.93479958e-003 3.47260199e-003 1.70008257e-001
      1.08644823e-002 1.23718277e-001 1.16091277e-002 1.75927445e-001
      1.40596852e-001 2.97818542e-001 1.63030446e-001 1.32429823e-001
      3.85297686e-002 7.03502819e-002 1.97648048e-001 1.89295784e-001
      5.28365374e-002 4.21841666e-002 1.52471233e-002 1.44239739e-002
      1.42992884e-001 4.47874218e-002 1.69647321e-001 2.02267185e-001
      4.63258941e-003 7.91094378e-002 3.53460833e-002 5.27462736e-002
      1.96796387e-001 4.75812964e-002 1.60190277e-002 1.11275174e-001
      3.19108926e-003 2.15321556e-001 5.48486076e-002 3.69136296e-002
      9.86272544e-002 7.88481161e-003 2.01037258e-001 6.04339801e-002
      3.40871769e-003 2.29790844e-002 1.09221949e-003 1.36820093e-001
      9.58911702e-002 1.83635101e-001 2.86673278e-001 3.32461625e-001
      9.83435288e-002 4.73477319e-003 1.99224979e-001 2.25507636e-002
      4.45290916e-002 6.17399393e-003 3.46935600e-001 5.19005507e-002
      3.14063281e-002 3.25866267e-002 1.40226513e-001 1.24440432e-001
      1.18238933e-001 2.03725010e-001 1.09444275e-001 4.31248359e-002
      1.72343358e-001 2.34552473e-002 2.05895901e-002 1.68466076e-001
      5.83555363e-002 8.59045908e-002 5.36443032e-002 2.34716851e-002
      8.18745345e-002 2.68349913e-003 5.06002545e-001 1.54391706e-001
      3.77105385e-001 2.07886130e-001 1.71206854e-002 1.42856598e-001
      7.85644341e-004 3.57707357e-003 6.26218617e-002 4.65351380e-002
      2.06943110e-001 8.57099816e-002 1.59641087e-001 1.74226552e-001
      1.97908923e-001 2.40226388e-001 2.04604566e-001 2.32840642e-001 0.
      0. 0. 0. 0. 0. 0. 0. 0. 0. 0. 0. 0. 0. 0. 0. 0. 0. 0. 0. 0. 0. 0.
      0. 0. 0. 0. 0. 0. 0. 0. 0. 0. 0. 0. 0. 0. 0. 0. 0. 0. 0. 0. 0. 0.
      0. 0. 0. 0. 0. 0. 0. 0. 0. 0. 0. 0. 0. 0. 0. 0. 0. 0. 0. 0. 0. 0.
      0. 0. 0. 0. 0. 0. 0. 0. 0. 0. 0. 0. 0. 0. 0. 0. 0. 0. 0. 0. 0. 0.
      0. 0. 0. 0. 0. 0. 0. 0. 0. 0. 0.</_>
    <_>
      6.37930930e-002 5.28648376e-001 5.38684845e-001 3.00021976e-001
      2.31185816e-002 3.76957595e-001 2.34099552e-001 1.16074890e-001
      2.52880361e-002 1.97553539e+000 1.06268454e+000 1.37355101e+000
      1.02115107e+000 2.36491218e-001 1.71832836e+000 2.90229321e-001
      4.67061549e-001 2.18224421e-001 3.51263404e-001 5.41264772e-001
      1.23018906e-001 2.78752029e-001 1.16693246e+000 1.70166627e-001
      9.06566158e-003 1.69467330e-001 7.59526566e-002 7.29774714e-001
      2.21682668e-001 3.68760265e-002 2.06672773e-001 3.35755125e-002
      7.66271830e-001 5.34691401e-002 7.69662082e-001 6.19013309e-001
      2.19297901e-001 1.44929931e-001 1.82139143e-001 1.87115252e+000
      1.71886813e-002 1.28132209e-001 3.20802093e-001 8.53781998e-002
      5.14313161e-001 9.78617072e-001 2.25302413e-001 2.58790910e-001
      2.82463694e+000 7.18957722e-001 3.96817438e-002 8.21116388e-001
      1.71164870e+000 2.43790075e-001 6.92233443e-001 1.23307538e+000
      1.69299841e-001 2.59754598e-001 2.45269225e-003 8.28283548e-001
      8.51001684e-003 0. 2.31602532e-003 4.36097115e-001 2.60381132e-001
      1.05320513e+000 1.16804969e+000 3.76551419e-001 6.39144480e-001
      1.27534717e-001 1.83526230e+000 1.11683953e+000 0. 3.63160563e+000
      1.47798806e-001 3.03678095e-001 4.22802791e-002 1.19731259e+000
      4.90587473e-001 2.95514762e-001 2.15849832e-001 3.55025262e-001
      1.07465275e-002 3.57336439e-002 1.59269416e+000 4.12806183e-001
      1.02376034e-002 8.65086019e-002 8.18659186e-001 1.09003222e+000
      1.80381313e-001 3.23527306e-001 1.11376792e-002 8.71580467e-002
      2.01847982e+000 2.64526576e-001 1.95905253e-001 2.12964606e+000
      8.96755531e-002 2.28903905e-001 1.21164203e+000 2.36620471e-001
      9.39544663e-002 1.77419439e-001 4.37872589e-001 8.60812664e-001
      9.33473766e-001 1.26945591e-002 2.26125331e-003 6.68443292e-002
      1.86706156e-001 1.39912021e+000 1.07676469e-001 2.28024334e-001
      3.30594257e-002 2.37332359e-002 1.43714741e-001 1.80789441e-001
      7.85271358e-003 9.90068674e-001 5.04810095e-001 1.04610145e+000
      7.78297409e-002 5.18968748e-003 1.68911722e-002 1.95174869e-002
      9.81917143e-001 1.93218946e-001 1.39706567e-001 1.66278690e-001
      9.46939960e-002 2.02107862e-001 9.46218241e-003 7.40178943e-001
      8.54237825e-002 4.42935020e-001 5.62192976e-001 4.22410592e-002
      4.74631965e-001 8.88264000e-001 2.60506988e-001 2.16176271e-001
      5.49804688e-001 1.79080576e-001 2.32170892e+000 1.70322713e-002
      6.62173331e-002 1.56157285e-001 1.03704609e-001 7.71025792e-002
      1.71045616e-001 1.19145036e+000 3.64454448e-001 8.60567689e-001
      9.10105407e-001 1.13966480e-001 4.44184095e-001 1.15955517e-001
      6.59097016e-001 1.41085200e-002 1.56196877e-001 2.01377813e-002
      2.84960270e-001 1.20218194e+000 1.79321259e-001 7.09517002e-002
      1.43789268e+000 1.68559879e-001 3.77986073e-001 2.80768543e-001
      1.30957767e-001 1.00182176e-001 3.69480610e-001 7.34836936e-001
      1.58265576e-001 2.32912712e-002 2.40476683e-001 2.22932562e-001
      3.34119409e-001 3.19324508e-002 9.85304639e-003 3.46917547e-002
      2.31745437e-001 2.23185241e-001 1.05449927e+000 4.48598236e-001
      1.16058104e-001 1.41430724e+000 4.80951756e-001 6.49909377e-002
      1.07821889e-001 1.80387878e+000 1.10731816e+000 2.28749141e-001
      1.09957755e+000 2.50837812e-003 2.13074666e-002 8.32656264e-001
      2.08786750e+000 1.72218114e-001 7.85313081e-003 9.49726999e-002
      1.87421605e-001 2.44459182e-001 1.53427911e+000 1.43858361e+000
      1.35239732e+000 3.01313937e-001 1.28084898e-001 1.00260526e-002
      9.95318592e-003 1.91163808e-001 8.86093825e-003 4.15264457e-001
      1.96667369e-002 5.36937475e-001 1.83812177e+000 1.52588749e+000
      7.58116603e-001 1.57689548e+000 1.34804577e-001 4.17691529e-001
      1.24743938e+000 0. 6.63787365e-001 1.18538812e-001 3.24764028e-002
      1.89204179e-002 8.31966221e-001 4.59935479e-002 1.03656277e-002
      1.25844514e+000 4.90029017e-003 8.70342612e-001 3.17584962e-001
      6.38781667e-001 0. 3.24148059e-001 1.01693273e-001 1.62978217e-001
      8.63630604e-003 3.54026794e-001 3.72859478e-001 8.73289853e-002
      1.44493952e-001 6.29018992e-003 2.90976763e-001 5.93694858e-002
      9.96181555e-003 4.67815958e-002 6.60225749e-003 7.09470868e-001
      1.36233062e-001 3.19470555e-001 1.93614447e+000 1.14311481e+000
      1.59090436e+000 1.32679110e-002 1.15482497e+000 1.35771250e-002
      9.52330753e-002 4.54397574e-002 3.16107750e-001 3.39199185e-001
      8.42849389e-002 3.47506180e-002 0. 6.18931532e-001 1.62985063e+000
      2.63356566e-001 1.55693159e-001 2.96777010e-001 1.31056234e-001
      1.24767525e-002 3.33691947e-002 1.24900842e+000 5.58648705e-001
      7.52878189e-002 3.49907905e-001 1.12411128e-002 3.92007709e-001
      2.90966686e-003 2.01401144e-001 4.81614202e-001 2.25922033e-001
      1.71197009e+000 1.77566577e-002 5.13338089e-001 2.90267705e-003
      2.32888702e-002 1.39784943e-002 6.54851556e-001 2.94683367e-001
      3.52973819e-001 5.59853673e-001 2.04503703e+000 8.67473900e-001
      2.17633635e-001 2.51537770e-001 6.94502294e-001 0. 0. 0. 0. 0. 0.
      0. 0. 0. 0. 0. 0. 0. 0. 0. 0. 0. 0. 0. 0. 0. 0. 0. 0. 0. 0. 0. 0.
      0. 0. 0. 0. 0. 0. 0. 0. 0. 0. 0. 0. 0. 0. 0. 0. 0. 0. 0. 0. 0. 0.
      0. 0. 0. 0. 0. 0. 0. 0. 0. 0. 0. 0. 0. 0. 0. 0. 0. 0. 0. 0. 0. 0.
      0. 0. 0. 0. 0. 0. 0. 0. 0. 0. 0. 0. 0. 0. 0. 0. 0. 0. 0. 0. 0. 0.
      0. 0. 0. 0. 0. 0.</_>
    <_>
      5.81722856e-002 9.09591794e-001 5.57189405e-001 4.47658360e-001
      2.09773052e-002 5.05249441e-001 4.66054618e-001 2.30031267e-001
      6.61819726e-002 1.55931950e+000 1.02527499e+000 1.40686929e+000
      2.02200937e+000 1.36815512e+000 1.00530005e+000 3.95585269e-001
      6.33396387e-001 2.02499986e-001 4.61804003e-001 4.59730536e-001
      2.62002438e-001 7.35385358e-001 7.11904109e-001 3.39219391e-001
      2.48565525e-002 7.87804663e-001 1.67277873e-001 6.66758478e-001
      5.53331077e-001 4.95569482e-002 4.17045593e-001 9.47122648e-002
      6.47140145e-001 7.95193240e-002 9.87312376e-001 9.19327796e-001
      3.46208781e-001 5.11547685e-001 2.96462506e-001 9.20902252e-001
      2.25475412e-002 6.91698730e-001 3.49219054e-001 1.21374734e-001
      5.42053223e-001 1.85145760e+000 1.10592806e+000 8.48572493e-001
      2.13073850e+000 1.25269544e+000 5.74780703e-002 1.22058070e+000
      2.41874456e+000 1.32805514e+000 6.63038194e-001 1.39242792e+000
      1.61338016e-001 3.14069480e-001 1.13131115e-002 9.49690938e-001
      7.25832343e-001 5.56028187e-001 9.02814325e-003 5.05377710e-001
      2.77067453e-001 7.57620394e-001 1.57820654e+000 3.71984720e-001
      8.95854592e-001 8.50941360e-001 8.22542548e-001 1.00918090e+000
      5.40668309e-001 1.51196778e+000 5.41980088e-001 1.71227723e-001
      7.02833012e-002 1.47864473e+000 3.91790986e-001 1.12594354e+000
      2.93690532e-001 6.93200290e-001 4.05763835e-002 1.36329308e-001
      1.07859576e+000 7.05996454e-001 2.15385761e-002 3.08393806e-001
      1.17419064e+000 6.72647595e-001 6.69163167e-001 4.76044565e-001
      5.07914014e-002 9.24469054e-001 1.30242777e+000 1.08919704e+000
      1.02662015e+000 1.20498073e+000 6.62742183e-002 7.53761351e-001
      2.24235559e+000 1.00332212e+000 1.35632858e-001 5.10499239e-001
      5.79274893e-001 1.27820659e+000 1.22927332e+000 4.23436873e-002
      6.83846138e-003 7.66016617e-002 4.31884080e-001 1.00845635e+000
      1.82356670e-001 6.36681676e-001 3.81172821e-002 3.34505588e-002
      2.05058515e-001 3.58157784e-001 8.32561124e-003 1.43589830e+000
      4.06340063e-001 7.87626803e-001 6.15700185e-001 5.10870386e-003
      1.74338445e-001 9.44114327e-002 9.22145426e-001 2.88387418e-001
      1.21192849e+000 4.12666321e-001 1.29060134e-001 5.58937013e-001
      2.93072090e-002 1.43948066e+000 1.38012245e-001 4.29464459e-001
      8.07713985e-001 4.46757749e-002 3.08180004e-001 7.63233304e-001
      3.55793715e-001 4.45891261e-001 3.85295331e-001 3.44510585e-001
      1.74900937e+000 1.12370983e-001 1.57720327e-001 5.63577056e-001
      1.43634677e-001 5.46372868e-002 4.22049552e-001 9.54544187e-001
      7.78638244e-001 3.44271064e-001 1.84029067e+000 3.36053938e-001
      4.26141948e-001 1.18205905e+000 3.88947487e-001 3.94718684e-002
      4.66683567e-001 2.94666942e-002 2.51244336e-001 1.08970499e+000
      1.40420213e-001 4.86801386e-001 9.97343183e-001 2.79893130e-001
      2.27656379e-001 4.48707521e-001 8.06379855e-001 2.89035320e-001
      5.27184367e-001 3.68552476e-001 1.23396409e+000 3.39059643e-002
      2.61767089e-001 4.42293227e-001 3.75214666e-001 5.54106161e-002
      1.59318149e-002 3.93428020e-002 1.48498464e+000 2.81897128e-001
      9.17278588e-001 3.00048441e-001 1.97173744e-001 1.00873268e+000
      4.03626531e-001 2.28319705e-001 1.37168378e-001 1.31007147e+000
      8.59937310e-001 3.41282368e-001 1.07176328e+000 1.13500636e-002
      3.69562022e-002 2.01323533e+000 2.21261597e+000 2.53415346e-001
      8.24493635e-003 2.36446068e-001 3.53142112e-001 1.63688123e-001
      8.69442880e-001 1.66614771e+000 1.28574634e+000 1.13030648e+000
      2.65513837e-001 4.15164232e-002 1.82342287e-002 1.06951642e+000
      2.94788778e-002 5.11513710e-001 4.01840620e-002 1.01010180e+000
      1.43442142e+000 6.33794010e-001 7.83637106e-001 1.77781940e+000
      2.08924502e-001 5.03348053e-001 2.01323891e+000 6.78986967e-001
      3.56358439e-001 1.65901005e-001 4.29588705e-002 3.74873877e-002
      5.30165672e-001 8.70703980e-002 1.33677745e+000 8.72430205e-001
      6.17020344e-003 6.56307518e-001 1.85189322e-001 6.89042687e-001
      1.15328169e+000 5.68761706e-001 9.92516726e-002 4.56420332e-001
      1.88264139e-002 4.93943661e-001 4.24772710e-001 2.52455205e-001
      2.25246608e-001 2.28685103e-002 7.88210213e-001 2.56783068e-001
      2.40158290e-002 1.03621468e-001 6.55416353e-003 1.47858536e+000
      1.39018118e-001 6.70699120e-001 8.96495938e-001 9.16660130e-001
      7.67452836e-001 2.15881150e-002 1.35582364e+000 6.57835379e-002
      1.88595593e-001 4.94551249e-002 7.36423910e-001 5.16805112e-001
      1.54997587e-001 7.80441910e-002 6.46690309e-001 7.57127941e-001
      2.14646840e+000 2.24492431e+000 3.29965591e-001 5.55160820e-001
      7.85962939e-001 5.65592684e-002 3.98238450e-002 7.47828960e-001
      5.96825302e-001 1.72203407e-001 2.88317442e-001 5.53618632e-002
      4.80542868e-001 1.06879845e-002 1.40608108e+000 3.10353756e-001
      1.24961579e+000 1.36349702e+000 6.72362745e-002 1.03258455e+000
      5.94169833e-003 1.95716359e-002 2.64324397e-001 3.11751455e-001
      4.07308936e-001 2.31715277e-001 1.69701087e+000 8.48927200e-001
      8.33166361e-001 1.28123522e+000 7.96345115e-001 1.33020663e+000 0.
      0. 0. 0. 0. 0. 0. 0. 0. 0. 0. 0. 0. 0. 0. 0. 0. 0. 0. 0. 0. 0. 0.
      0. 0. 0. 0. 0. 0. 0. 0. 0. 0. 0. 0. 0. 0. 0. 0. 0. 0. 0. 0. 0. 0.
      0. 0. 0. 0. 0. 0. 0. 0. 0. 0. 0. 0. 0. 0. 0. 0. 0. 0. 0. 0. 0. 0.
      0. 0. 0. 0. 0. 0. 0. 0. 0. 0. 0. 0. 0. 0. 0. 0. 0. 0. 0. 0. 0. 0.
      0. 0. 0. 0. 0. 0. 0. 0. 0. 0. 0.</_>
    <_>
      9.65983793e-002 1.68898082e+000 2.72275776e-001 1.43813181e+000
      1.61437802e-002 1.49514389e+000 4.18070048e-001 3.11147809e-001
      8.38606730e-002 1.20094550e+000 5.43281376e-001 8.58770907e-001
      5.32878518e-001 1.51259005e+000 1.03105688e+000 1.14487648e+000
      3.42531413e-001 3.40186000e-001 1.14447916e+000 2.53076822e-001
      3.75977218e-001 3.48257720e-001 3.01121205e-001 6.60999537e-001
      2.16506757e-002 6.31366789e-001 2.62252271e-001 1.93362117e-001
      7.71467507e-001 3.66361700e-002 7.85295725e-001 6.45529255e-002
      1.56757250e-001 1.10266395e-001 1.69089150e+000 4.78721201e-001
      7.05819190e-001 3.14714044e-001 8.05194616e-001 4.07659888e-001
      1.90944634e-002 3.04036111e-001 1.68770403e-001 1.87416226e-001
      6.05707645e-001 6.02522790e-001 9.46169198e-001 4.40922558e-001
      3.20541292e-001 4.26425129e-001 4.87127490e-002 2.57023484e-001
      1.48139095e+000 7.48232126e-001 3.85543197e-001 4.83827651e-001
      2.59103715e-001 7.72470832e-001 5.78734465e-003 3.86420429e-001
      1.16119146e+000 1.23951221e+000 5.43583836e-003 5.71411729e-001
      3.27006310e-001 2.49297559e-001 4.59429681e-001 7.04788446e-001
      3.78215432e-001 7.83736348e-001 3.77585322e-001 6.05416298e-001
      1.38235164e+000 5.29568315e-001 4.06364679e-001 2.61387259e-001
      3.90408076e-002 9.36287522e-001 3.14533442e-001 1.40096283e+000
      4.05034035e-001 5.18074811e-001 1.39294527e-002 1.39745861e-001
      1.26037562e+000 6.13296509e-001 2.20500939e-002 2.55570501e-001
      4.71779704e-001 9.57644999e-001 7.12321758e-001 2.22972199e-001
      7.24959522e-002 1.43478298e+000 6.78735018e-001 1.22662258e+000
      9.90800083e-001 3.56033832e-001 3.85579579e-002 2.92287081e-001
      1.61560619e+000 4.66181904e-001 1.49833277e-001 2.93796659e-001
      1.74517810e-001 5.78074217e-001 4.20680612e-001 4.95393761e-002
      8.54258239e-003 1.33553460e-001 3.15700352e-001 4.56740260e-001
      2.35831246e-001 1.50958014e+000 5.41643202e-002 2.39373874e-002
      1.82453200e-001 5.18809080e-001 7.74350110e-003 9.09035325e-001
      3.55640322e-001 3.21232617e-001 3.85573685e-001 6.44586282e-003
      2.07940161e-001 7.29959160e-002 6.74923718e-001 3.08240682e-001
      8.41912746e-001 6.12055182e-001 3.71570587e-002 1.98384389e-001
      2.15871111e-002 3.38030040e-001 1.94126070e-001 2.18796760e-001
      1.16136587e+000 3.64864208e-002 3.26462418e-001 4.27872539e-001
      5.08471549e-001 6.50551021e-001 3.45135838e-001 3.26043874e-001
      2.40323737e-001 1.38363346e-001 2.05977768e-001 4.82927352e-001
      2.18979150e-001 8.42235237e-002 7.14710236e-001 2.83692926e-001
      8.57443094e-001 1.16588402e+000 1.97216070e+000 2.89281428e-001
      3.56486619e-001 7.26683438e-001 3.35183442e-001 4.17899080e-002
      7.39124060e-001 3.61786336e-002 1.32817179e-001 1.29008305e+000
      7.87023678e-002 4.52115536e-001 4.09585178e-001 1.49105296e-001
      4.46397334e-001 8.72211158e-001 8.16235542e-001 3.37856084e-001
      7.15694189e-001 1.30168021e-001 7.15844810e-001 4.87643555e-002
      2.94765472e-001 1.39206648e+000 1.64043069e-001 5.25146760e-002
      1.82986204e-002 3.15037891e-002 1.25134480e+000 4.68570083e-001
      4.64208752e-001 2.00480193e-001 8.53989646e-002 7.62313664e-001
      5.05777359e-001 1.89694420e-001 1.57368690e-001 3.80095094e-001
      3.51622820e-001 5.66980302e-001 7.97431290e-001 5.56008797e-003
      2.53317077e-002 1.41705167e+000 7.01940417e-001 1.76511765e-001
      7.73030985e-003 2.02558115e-001 2.33001158e-001 7.60075226e-002
      6.81876123e-001 1.41032374e+000 3.00007463e-001 1.08045447e+000
      4.12445068e-001 1.33202085e-002 1.22558083e-002 7.21216083e-001
      1.56134851e-002 7.23084688e-001 4.70309891e-002 7.33083844e-001
      6.00391626e-001 5.34161985e-001 3.07568163e-001 1.00295842e+000
      1.32456645e-001 5.93221247e-001 4.58161801e-001 2.40397120e+000
      2.46625915e-001 9.41155553e-002 6.77333921e-002 4.19289023e-002
      1.33044228e-001 1.63460404e-001 3.22437406e+000 4.35690522e-001
      4.91753742e-002 1.94673166e-001 1.00944594e-001 3.77457947e-001
      2.26430178e+000 2.71867305e-001 1.66468754e-001 3.01147282e-001
      1.31238438e-002 3.88620496e-001 1.56089962e-001 1.98569521e-001
      6.64753556e-001 2.14402191e-002 3.96702945e-001 1.82748705e-001
      1.88806932e-002 5.85778505e-002 7.76690338e-003 6.46204948e-001
      9.66849178e-002 3.63336056e-001 6.11586452e-001 5.36696255e-001
      2.63557196e-001 1.76257361e-002 1.38022554e+000 6.24110773e-002
      1.02492675e-001 5.55954315e-002 8.10620248e-001 5.09004414e-001
      9.14986506e-002 3.33886445e-002 1.66629231e+000 1.70358682e+000
      7.96070158e-001 9.28897142e-001 2.76268691e-001 7.65775144e-001
      4.72835809e-001 7.34180212e-002 5.79707511e-002 5.02783239e-001
      4.77061272e-001 1.09433070e-001 2.32074186e-001 2.61857267e-002
      8.63082111e-001 1.19762495e-002 9.20862675e-001 4.72389162e-001
      1.06259704e+000 7.21223652e-001 1.49515018e-001 1.21572530e+000
      5.97210880e-003 1.74215101e-002 4.46026593e-001 3.68680149e-001
      9.59084511e-001 4.51444179e-001 1.27571356e+000 5.89581013e-001
      1.21902740e+000 1.27126741e+000 7.06773579e-001 2.95454890e-001 0.
      0. 0. 0. 0. 0. 0. 0. 0. 0. 0. 0. 0. 0. 0. 0. 0. 0. 0. 0. 0. 0. 0.
      0. 0. 0. 0. 0. 0. 0. 0. 0. 0. 0. 0. 0. 0. 0. 0. 0. 0. 0. 0. 0. 0.
      0. 0. 0. 0. 0. 0. 0. 0. 0. 0. 0. 0. 0. 0. 0. 0. 0. 0. 0. 0. 0. 0.
      0. 0. 0. 0. 0. 0. 0. 0. 0. 0. 0. 0. 0. 0. 0. 0. 0. 0. 0. 0. 0. 0.
      0. 0. 0. 0. 0. 0. 0. 0. 0. 0. 0.</_>
    <_>
      1.18618615e-001 8.21357787e-001 5.92951000e-001 6.50089383e-001
      2.01574266e-002 4.88184541e-001 6.92571878e-001 3.58735710e-001
      8.75906050e-002 1.85359919e+000 1.82015324e+000 2.26133823e+000
      1.88931203e+000 2.97494262e-001 1.60521436e+000 4.58420396e-001
      6.95953786e-001 5.52870989e-001 2.03845215e+000 6.15372837e-001
      6.52755499e-001 7.16253221e-001 1.60207081e+000 6.77538991e-001
      4.29543704e-002 1.57192218e+000 4.94616479e-001 8.64503980e-001
      3.04047883e-001 4.96491827e-002 2.85724610e-001 2.65366793e-001
      6.83165371e-001 1.09480642e-001 4.80136991e-001 4.71071064e-001
      3.26097369e-001 3.53816956e-001 3.56621683e-001 1.27777565e+000
      1.57694444e-002 1.11182678e+000 2.88399726e-001 1.16015650e-001
      1.27747416e+000 9.07135904e-001 6.49087071e-001 1.24786937e+000
      1.15832722e+000 5.10901511e-001 5.58753610e-002 1.93733394e+000
      1.97352290e+000 6.66492820e-001 7.20800221e-001 9.02629256e-001
      3.81637096e-001 5.90972126e-001 5.30151883e-003 6.73019707e-001
      5.14512122e-001 7.83940375e-001 4.95930016e-003 5.10736763e-001
      3.58089477e-001 1.94278514e+000 1.13959730e+000 4.40862000e-001
      3.71937156e-001 2.59326720e+000 1.35931396e+000 4.47685689e-001
      1.13119590e+000 1.00368452e+000 1.24967122e+000 2.71317393e-001
      5.77960499e-002 1.06358230e+000 6.79855168e-001 6.57527208e-001
      5.55512846e-001 7.84405291e-001 1.43685509e-002 1.32086352e-001
      2.50231576e+000 8.82985830e-001 1.76772010e-002 1.01523645e-001
      1.80063450e+000 1.92074287e+000 2.73903280e-001 2.76022226e-001
      6.28042519e-002 4.34923798e-001 1.88911963e+000 6.54122293e-001
      7.66658187e-001 2.24423552e+000 5.83339445e-002 4.59004432e-001
      2.18180227e+000 6.45826995e-001 1.44371122e-001 3.84060562e-001
      4.07798469e-001 8.94870698e-001 1.95682323e+000 5.01264893e-002
      7.67564308e-003 1.41382396e-001 1.00364959e+000 1.83152437e+000
      1.36569098e-001 7.73523927e-001 4.73223366e-002 1.01803625e-002
      2.41945505e-001 3.92648816e-001 4.48445138e-003 1.81408119e+000
      5.21448612e-001 5.62985003e-001 1.74395755e-001 4.85727750e-003
      9.67317224e-002 2.44667068e-001 1.69407213e+000 4.03116673e-001
      4.57214773e-001 3.23551327e-001 1.43640459e-001 9.12396789e-001
      2.75471397e-002 2.11710262e+000 1.57781467e-001 4.76951122e-001
      1.91723657e+000 4.94127348e-002 3.99646938e-001 7.27178276e-001
      2.57875919e-001 3.81151050e-001 6.51741207e-001 6.16206050e-001
      1.83862114e+000 2.10943103e-001 1.57683209e-001 1.26824009e+000
      1.92178562e-001 6.65984675e-002 1.02770460e+000 1.87016058e+000
      5.85850060e-001 1.82107985e+000 2.13804245e+000 4.79037970e-001
      4.69116926e-001 1.82344604e+000 5.27825177e-001 7.43802637e-002
      8.55469704e-001 3.06407809e-002 2.10423544e-001 1.03440750e+000
      2.30793610e-001 1.45945549e+000 1.32262635e+000 2.35533163e-001
      7.26311624e-001 6.97098613e-001 8.79786670e-001 1.82864487e-001
      3.04884464e-001 3.56945962e-001 6.06219530e-001 1.02025926e-001
      4.00650948e-001 6.61380112e-001 3.32458138e-001 4.99399155e-002
      2.23672707e-002 8.10323805e-002 2.46557474e-001 3.74896675e-001
      7.64542580e-001 6.57451153e-001 2.29886994e-001 1.36158073e+000
      8.50715995e-001 2.08392352e-001 1.22069210e-001 1.91277003e+000
      8.90252054e-001 2.34582216e-001 1.00904858e+000 5.30248228e-003
      1.31145297e-002 6.89878821e-001 1.16875970e+000 3.34818989e-001
      4.48629167e-003 4.04341817e-001 5.48822165e-001 1.99425429e-001
      2.25052381e+000 1.43731666e+000 2.14066815e+000 1.00719726e+000
      4.34271455e-001 1.35526219e-002 1.68760326e-002 1.85924864e+000
      1.47239063e-002 8.13796759e-001 1.02042407e-001 1.07220006e+000
      1.12541187e+000 6.90024436e-001 1.24853957e+000 1.32494628e+000
      8.40461329e-002 4.59359646e-001 1.15818870e+000 6.89649463e-001
      2.42500097e-001 2.66902447e-001 7.32179657e-002 4.51650843e-002
      4.51231450e-001 1.88154832e-001 8.38624954e-001 7.99543262e-001
      1.72793213e-002 5.30783355e-001 2.55637676e-001 8.11766446e-001
      1.78000069e+000 4.26384985e-001 1.34862244e-001 1.79525658e-001
      2.58391909e-002 6.14540219e-001 3.35632861e-001 1.98873982e-001
      5.21032333e-001 2.67131235e-002 8.10433209e-001 1.63249880e-001
      1.49711566e-002 5.99251501e-002 6.44382602e-003 2.21205401e+000
      2.18605161e-001 4.76202637e-001 5.66765964e-001 6.46375477e-001
      7.92434573e-001 2.57932749e-002 1.18435276e+000 7.21473694e-002
      2.41544321e-001 6.18650652e-002 7.45402932e-001 3.31260532e-001
      9.85791832e-002 3.45327593e-002 8.17238927e-001 9.06962335e-001
      1.37103653e+000 4.92373884e-001 6.30891502e-001 9.72609222e-001
      2.58426011e-001 6.46072850e-002 7.31019303e-002 8.49745393e-001
      8.13023388e-001 2.28040770e-001 2.57432699e-001 4.63570021e-002
      3.51773679e-001 8.18403438e-003 7.77777314e-001 2.65929878e-001
      8.38235438e-001 2.15553141e+000 2.18221232e-001 8.45089853e-001
      6.61946461e-003 2.11049654e-002 2.61799008e-001 6.94531024e-001
      5.43536663e-001 7.19278812e-001 3.96387964e-001 2.03413892e+000
      1.31276786e+000 1.80167437e+000 7.59966075e-001 2.01375985e+000 0.
      0. 0. 0. 0. 0. 0. 0. 0. 0. 0. 0. 0. 0. 0. 0. 0. 0. 0. 0. 0. 0. 0.
      0. 0. 0. 0. 0. 0. 0. 0. 0. 0. 0. 0. 0. 0. 0. 0. 0. 0. 0. 0. 0. 0.
      0. 0. 0. 0. 0. 0. 0. 0. 0. 0. 0. 0. 0. 0. 0. 0. 0. 0. 0. 0. 0. 0.
      0. 0. 0. 0. 0. 0. 0. 0. 0. 0. 0. 0. 0. 0. 0. 0. 0. 0. 0. 0. 0. 0.
      0. 0. 0. 0. 0. 0. 0. 0. 0. 0. 0.</_>
    <_>
      1.42230123e-001 4.60623652e-001 9.56068277e-001 1.45352435e+000
      1.54165272e-002 1.38457167e+000 3.16025198e-001 1.75757185e-001
      5.81643209e-002 1.14464796e+000 7.70455062e-001 5.90668380e-001
      1.31166339e+000 4.39973682e-001 6.76088393e-001 1.61208153e+000
      2.47442916e-001 3.82639527e-001 1.18977010e+000 4.82986838e-001
      3.82021457e-001 2.91190475e-001 6.04276717e-001 5.94584346e-001
      3.30528617e-002 1.06082535e+000 3.68620247e-001 9.43431497e-001
      4.81628031e-001 3.18029933e-002 7.43419528e-001 6.87537193e-002
      1.19156528e+000 1.56735405e-001 7.86444545e-001 8.64890218e-001
      4.91479337e-001 3.38487893e-001 3.24088752e-001 2.07500863e+000
      1.40114613e-002 8.65321696e-001 3.54685158e-001 1.15940757e-001
      9.64432776e-001 9.02778208e-001 7.55810142e-001 4.47289854e-001
      1.78822625e+000 8.46023023e-001 3.79270613e-002 8.80273640e-001
      9.38100338e-001 1.52822983e+000 4.89247024e-001 8.89735758e-001
      1.37177274e-001 1.76932469e-001 1.85079314e-002 1.08632827e+000
      1.37080872e+000 1.08915591e+000 1.68504473e-002 3.48214179e-001
      3.81254405e-001 7.97116399e-001 8.62523139e-001 5.64808249e-001
      6.97300315e-001 1.18135893e+000 2.80168819e+000 1.11217403e+000
      1.05519009e+000 8.54045451e-001 1.03145885e+000 1.32438630e-001
      7.06111342e-002 9.91951227e-001 4.46775615e-001 2.09538865e+000
      3.11059266e-001 8.03403795e-001 4.23794426e-002 1.30729273e-001
      1.12416720e+000 7.67759085e-001 1.78765394e-002 3.67430180e-001
      2.11627364e+000 7.59671211e-001 4.23211724e-001 4.95146871e-001
      9.75190997e-002 1.03879821e+000 8.69239748e-001 1.76329648e+000
      7.29826570e-001 1.04131973e+000 6.31826818e-002 3.97947878e-001
      8.09928656e-001 1.43722069e+000 9.55988318e-002 4.14818078e-001
      3.10197353e-001 8.12167764e-001 1.02383196e+000 5.47654666e-002
      6.86180498e-003 8.17956999e-002 3.04378420e-001 1.62766612e+000
      3.63366365e-001 5.92627764e-001 4.27801833e-002 3.50842960e-002
      1.44590437e-001 3.57819021e-001 1.16249537e-002 7.56706059e-001
      3.45450997e-001 4.96635407e-001 2.34021619e-001 4.14073188e-003
      2.00851247e-001 1.39983460e-001 8.17221224e-001 2.37200052e-001
      4.37407345e-001 8.19554806e-001 1.58750221e-001 8.53518724e-001
      1.87160317e-002 6.59882903e-001 1.62074953e-001 4.71993923e-001
      5.84329903e-001 5.07589467e-002 2.97775537e-001 1.27224278e+000
      4.66208518e-001 9.34704185e-001 3.15495104e-001 2.37422690e-001
      1.06754053e+000 1.22709110e-001 9.77078006e-002 9.97245967e-001
      1.38207525e-001 4.43621464e-002 4.30561572e-001 1.07298958e+000
      2.64896333e-001 4.38634992e-001 1.98418212e+000 2.14970767e-001
      3.93480688e-001 7.30508506e-001 2.67359763e-001 4.75102514e-002
      8.56367826e-001 2.47258339e-002 3.51884127e-001 1.30923641e+000
      8.73218849e-002 9.81148541e-001 1.99935865e+000 9.31394920e-002
      2.30630353e-001 3.02224576e-001 1.49973595e+000 2.12749481e-001
      3.77070189e-001 3.95499587e-001 1.80683821e-001 5.81201799e-002
      3.07733625e-001 5.72963834e-001 3.57291430e-001 5.35529330e-002
      1.19398367e-002 5.09278737e-002 4.75414813e-001 5.83791018e-001
      1.33634090e+000 4.74965036e-001 1.69242933e-001 8.21966708e-001
      5.76700211e-001 2.20378667e-001 1.03911802e-001 8.18415165e-001
      1.29150689e+000 5.08421659e-001 7.99966335e-001 1.85900442e-002
      3.36961970e-002 3.90841007e-001 9.44531977e-001 4.88945395e-001
      1.15781305e-002 4.32206184e-001 4.03978080e-001 1.71566382e-001
      3.36373925e-001 1.10008681e+000 3.71238917e-001 9.35979605e-001
      5.75895548e-001 4.32361737e-002 1.48686497e-002 2.02391815e+000
      2.62243729e-002 1.39651585e+000 5.81838824e-002 1.29135466e+000
      1.25958288e+000 1.35614467e+000 8.30385387e-001 1.30629611e+000
      1.42433673e-001 3.39036584e-001 3.36361706e-001 9.78256226e-001
      6.08195484e-001 1.10317796e-001 3.85003239e-002 3.90638374e-002
      3.34197313e-001 1.46310896e-001 1.06764543e+000 1.03411722e+000
      1.14880167e-002 2.97263384e-001 2.11664736e-001 3.17168117e-001
      1.19519365e+000 3.41450691e-001 1.17695779e-001 1.51397407e-001
      2.60061752e-002 1.43518269e+000 4.88101065e-001 4.44708914e-001
      4.12813634e-001 1.93525553e-002 1.22818196e+000 1.88390240e-001
      2.00483762e-002 9.58603397e-002 4.31106798e-003 4.43326175e-001
      1.46969348e-001 5.64870298e-001 8.65229309e-001 1.00688243e+000
      4.82227862e-001 1.55127076e-002 4.62291300e-001 1.75877839e-001
      1.10223062e-001 4.53562438e-002 4.60328460e-001 3.03349704e-001
      1.32810369e-001 7.86939189e-002 1.26101303e+000 4.64694321e-001
      1.53686762e+000 1.17412353e+000 4.16234583e-001 4.50744033e-001
      5.26053071e-001 1.03001885e-001 4.36259359e-002 1.10265851e+000
      4.18077439e-001 1.91873491e-001 2.08288789e-001 1.38491809e-001
      5.68771720e-001 5.23632998e-003 6.99204862e-001 4.02155310e-001
      3.41657907e-001 4.66798574e-001 1.14047833e-001 8.22404921e-001
      6.45786524e-003 1.60698462e-002 9.99498785e-001 6.13383949e-001
      1.47973871e+000 2.45163694e-001 7.41241217e-001 1.53039503e+000
      9.93923008e-001 1.18211091e+000 1.98859656e+000 7.57471025e-001 0.
      0. 0. 0. 0. 0. 0. 0. 0. 0. 0. 0. 0. 0. 0. 0. 0. 0. 0. 0. 0. 0. 0.
      0. 0. 0. 0. 0. 0. 0. 0. 0. 0. 0. 0. 0. 0. 0. 0. 0. 0. 0. 0. 0. 0.
      0. 0. 0. 0. 0. 0. 0. 0. 0. 0. 0. 0. 0. 0. 0. 0. 0. 0. 0. 0. 0. 0.
      0. 0. 0. 0. 0. 0. 0. 0. 0. 0. 0. 0. 0. 0. 0. 0. 0. 0. 0. 0. 0. 0.
      0. 0. 0. 0. 0. 0. 0. 0. 0. 0. 0.</_>
    <_>
      8.07606205e-002 5.68241954e-001 3.78062218e-001 8.86683702e-001
      1.64815877e-002 1.20498860e+000 1.66861758e-001 9.59395468e-002
      5.64551279e-002 1.57391012e+000 5.68105161e-001 3.95351022e-001
      3.91921610e-001 5.42936444e-001 1.26333237e+000 4.95813936e-001
      3.45632404e-001 1.66530252e-001 7.70862043e-001 4.15152669e-001
      1.21418154e+000 2.25122884e-001 2.90253282e-001 3.23902875e-001
      4.56169471e-002 4.00920480e-001 1.59391031e-001 5.79942882e-001
      1.52151927e-001 4.07887623e-002 4.19006705e-001 2.64312357e-001
      5.76231837e-001 1.51999786e-001 1.44263542e+000 7.59733558e-001
      4.87015188e-001 5.63993752e-001 2.95349866e-001 1.24181807e+000
      1.71266682e-002 6.54843390e-001 1.65276021e-001 1.74394339e-001
      7.74790645e-001 1.93280721e+000 5.18017471e-001 1.10069656e+000
      1.06481540e+000 4.98871177e-001 4.15413752e-002 5.80318213e-001
      1.77409780e+000 4.96525258e-001 3.82846773e-001 6.57253861e-001
      3.95079613e-001 5.19366503e-001 9.64294095e-003 4.41592932e-001
      1.51740062e+000 1.38771617e+000 1.44812316e-002 5.61356127e-001
      2.51859695e-001 1.35316288e+000 6.40545309e-001 5.17457485e-001
      7.08594739e-001 3.14830363e-001 1.27163482e+000 1.45930302e+000
      5.34874201e-001 1.91085446e+000 1.10423660e+000 9.86921340e-002
      9.83276814e-002 1.18932986e+000 5.22452891e-001 1.18382251e+000
      5.88952184e-001 1.34879917e-001 6.86385781e-002 6.21754564e-002
      7.52111077e-001 7.19583333e-001 1.35460803e-002 4.82835889e-001
      1.15601122e+000 4.93709207e-001 1.12590647e+000 3.43982071e-001
      1.05062813e-001 6.39878750e-001 6.99236035e-001 1.25003147e+000
      5.19940853e-001 1.02647555e+000 7.07396865e-002 2.06877813e-001
      1.21150541e+000 8.30638528e-001 1.29547775e-001 2.13959768e-001
      4.98182714e-001 1.45426893e+000 3.30472499e-001 3.91574688e-002
      5.75533230e-003 1.39898390e-001 9.73924547e-002 4.81467307e-001
      2.60951400e-001 1.25839722e+000 3.47591154e-002 3.13615389e-002
      7.09873363e-002 1.63445681e-001 8.55296757e-003 1.23944449e+000
      5.92182994e-001 5.42816043e-001 4.00236934e-001 5.72349550e-003
      1.97990492e-001 2.67842293e-001 5.81838250e-001 5.23624778e-001
      1.14033484e+000 7.09265172e-001 1.79990664e-001 3.90986443e-001
      1.28012272e-002 3.10928106e-001 1.67545184e-001 2.28578955e-001
      4.89051163e-001 3.53399366e-002 3.14764351e-001 4.67870623e-001
      4.72697794e-001 7.87630618e-001 4.60352242e-001 5.69969177e-001
      1.91064465e+000 9.10600126e-002 1.33539945e-001 2.53938532e+000
      1.58099353e-001 8.00845101e-002 7.84570873e-001 1.08171456e-001
      6.29836500e-001 5.22652984e-001 1.39276659e+000 2.82033771e-001
      3.76828372e-001 2.52714109e+000 2.89968342e-001 3.86518128e-002
      1.04622805e+000 1.55459978e-002 3.82206798e-001 4.61671263e-001
      3.33571762e-001 1.84395313e-001 9.66548979e-001 1.26250938e-001
      9.12966371e-001 1.56388238e-001 4.97382700e-001 8.46093297e-002
      5.12883186e-001 1.85208470e-001 9.88870025e-001 5.03943823e-002
      2.61530995e-001 1.04630733e+000 1.58794820e-001 5.03980555e-002
      1.15481419e-002 5.04990444e-002 7.91745007e-001 2.40818158e-001
      1.08749890e+000 1.09299707e+000 1.38867512e-001 5.09473383e-001
      3.79660726e-001 1.79448202e-001 1.26897559e-001 4.56675023e-001
      1.44517159e+000 8.37079465e-001 1.26371813e+000 1.00466469e-002
      3.16907763e-002 7.30069458e-001 1.64406109e+000 3.14406008e-001
      8.51071347e-003 2.79525906e-001 1.36122853e-001 1.62610143e-001
      5.79013348e-001 1.39344037e+000 4.08048838e-001 7.66475260e-001
      4.03916240e-001 7.10751116e-002 1.27238911e-002 5.18519521e-001
      2.48652417e-002 1.41033137e+000 4.89771254e-002 8.06841016e-001
      6.22316062e-001 7.59612560e-001 2.96907336e-001 1.21504891e+000
      1.21417210e-001 5.78283668e-001 9.40878868e-001 1.55045426e+000
      1.92178965e-001 1.60240561e-001 3.90423015e-002 2.77179424e-002
      5.74027479e-001 6.54552281e-002 1.40121460e+000 1.13167787e+000
      1.39005091e-002 1.08986342e+000 3.13139409e-001 4.30501521e-001
      1.60793161e+000 5.44786811e-001 1.58252433e-001 2.70830154e-001
      1.25083700e-002 3.90018761e-001 6.22704566e-001 1.75321639e-001
      3.68436515e-001 1.38885239e-002 7.04508662e-001 1.82540938e-001
      1.22705316e-002 1.92122445e-001 5.58895804e-003 3.38924736e-001
      1.78866670e-001 1.07662475e+000 2.22936225e+000 9.77960467e-001
      4.82444912e-001 1.21523365e-002 1.48636532e+000 1.24824017e-001
      1.41540647e-001 5.24900407e-002 1.01719201e+000 4.56461459e-001
      8.92837048e-002 5.55926599e-002 8.89016926e-001 5.79928398e-001
      9.12206411e-001 6.96058452e-001 4.70103562e-001 6.33938134e-001
      1.26433754e+000 1.14843279e-001 3.28251906e-002 3.35314870e-001
      8.56264234e-001 1.50134385e-001 3.31934005e-001 1.23239860e-001
      5.63014150e-001 6.45621214e-003 1.73152447e+000 7.03398287e-001
      7.27237761e-001 1.97589386e+000 7.65230358e-002 1.65201366e+000
      4.82204324e-003 1.64028779e-002 4.83003289e-001 8.50140452e-001
      4.62171912e-001 8.28269422e-001 4.47760195e-001 3.89985800e-001
      9.72422421e-001 3.94083828e-001 6.06110692e-001 3.46186996e-001 0.
      0. 0. 0. 0. 0. 0. 0. 0. 0. 0. 0. 0. 0. 0. 0. 0. 0. 0. 0. 0. 0. 0.
      0. 0. 0. 0. 0. 0. 0. 0. 0. 0. 0. 0. 0. 0. 0. 0. 0. 0. 0. 0. 0. 0.
      0. 0. 0. 0. 0. 0. 0. 0. 0. 0. 0. 0. 0. 0. 0. 0. 0. 0. 0. 0. 0. 0.
      0. 0. 0. 0. 0. 0. 0. 0. 0. 0. 0. 0. 0. 0. 0. 0. 0. 0. 0. 0. 0. 0.
      0. 0. 0. 0. 0. 0. 0. 0. 0. 0. 0.</_>
    <_>
      1.07109666e-001 8.32840860e-001 9.59320307e-001 4.27039564e-001
      2.24139877e-002 4.70965147e-001 2.52122194e-001 3.87680560e-001
      1.00600980e-001 1.61505830e+000 2.00541496e+000 2.10288024e+000
      1.34094810e+000 4.91137624e-001 1.85445058e+000 5.70801854e-001
      8.40961874e-001 4.68778759e-001 1.75773633e+000 6.32026434e-001
      4.38924372e-001 6.95749164e-001 1.48843420e+000 3.53523374e-001
      3.51814255e-002 9.64885056e-001 2.78125435e-001 1.89361787e+000
      6.21658027e-001 5.85569441e-002 3.64743918e-001 1.42774314e-001
      1.69712770e+000 1.91948876e-001 5.86538315e-001 5.44320464e-001
      3.24617952e-001 7.99710274e-001 3.04567665e-001 1.24402416e+000
      2.14727260e-002 4.44058865e-001 2.32886314e-001 1.38640597e-001
      9.38776612e-001 1.25011146e+000 3.65665525e-001 5.14154732e-001
      1.42222941e+000 1.03889430e+000 5.43418005e-002 8.08383167e-001
      1.80148780e+000 1.88056493e+000 8.91692877e-001 1.45202041e+000
      4.25480679e-002 5.22891998e-001 7.84892589e-003 8.94038320e-001
      2.31039479e-001 5.23783803e-001 5.64177753e-003 5.79163134e-001
      2.67520308e-001 6.97720647e-001 1.60173178e+000 4.11469191e-001
      1.01934981e+000 3.43992710e-001 1.66997957e+000 8.39213729e-001
      3.05116177e-001 2.19052410e+000 4.02361482e-001 3.14430863e-001
      1.62195444e-001 6.32267773e-001 4.22273427e-001 8.44352484e-001
      1.39916390e-001 9.49368119e-001 9.05911922e-002 9.57100689e-002
      2.98078513e+000 7.07984030e-001 2.11627446e-002 4.45925534e-001
      8.44637156e-001 1.03173256e+000 1.83730900e-001 3.33649844e-001
      5.92577048e-002 3.33602309e-001 2.23347855e+000 8.13458800e-001
      5.16951442e-001 1.04348350e+000 1.07279263e-001 6.04979992e-001
      2.34006786e+000 1.18396807e+000 1.56023264e-001 3.99341494e-001
      5.11306286e-001 1.23325145e+000 1.04158103e+000 4.22707722e-002
      9.46136471e-003 1.14935338e-001 3.50058228e-001 1.80988681e+000
      1.43457308e-001 3.56992364e-001 4.94242087e-002 4.26347330e-002
      2.58190870e-001 3.43443125e-001 1.02538401e-002 2.23757434e+000
      4.79132861e-001 5.66929519e-001 2.45980024e-001 7.92582799e-003
      1.09330401e-001 1.25259355e-001 1.34833717e+000 4.06654775e-001
      8.24624240e-001 1.30831242e-001 1.48047090e-001 7.11776793e-001
      3.09688766e-002 2.08295894e+000 1.26526162e-001 4.27526921e-001
      8.34155262e-001 4.66810986e-002 2.25854084e-001 5.22915423e-001
      3.23509902e-001 1.71219602e-001 7.49174833e-001 1.50536299e-001
      1.24349976e+000 8.10744315e-002 1.28625959e-001 7.43109584e-001
      1.09775342e-001 8.80545974e-002 3.85837615e-001 4.16688085e-001
      7.05654204e-001 1.25221717e+000 1.65578520e+000 2.13519394e-001
      6.59493804e-001 2.03023744e+000 4.51340616e-001 3.73859778e-002
      4.97542530e-001 4.44640219e-002 2.37506017e-001 1.93284214e+000
      1.38896927e-001 2.93862492e-001 1.24249601e+000 2.28029817e-001
      1.12208605e-001 5.10847092e-001 2.09148932e+000 3.92002672e-001
      3.02925855e-001 2.62448519e-001 7.65424430e-001 4.56720367e-002
      2.17618406e-001 4.84943748e-001 1.96369022e-001 4.60122041e-002
      2.18933485e-002 6.69020638e-002 2.22293377e-001 3.90153408e-001
      8.52830648e-001 3.49918306e-001 1.01701856e-001 2.04345989e+000
      6.81334794e-001 2.70470172e-001 1.52790964e-001 2.84714246e+000
      8.92125845e-001 7.62010694e-001 5.83376765e-001 7.71793956e-003
      4.02374752e-002 5.34155190e-001 1.51709032e+000 3.11933488e-001
      1.02475137e-002 3.85652632e-001 5.35723686e-001 2.02321440e-001
      1.16549408e+000 1.24847794e+000 3.23261833e+000 6.64412796e-001
      3.23740035e-001 9.16800797e-002 1.78708676e-002 8.68247390e-001
      5.24999686e-002 1.34381032e+000 4.48646694e-002 1.09001958e+000
      7.28456140e-001 4.97166395e-001 3.63198340e-001 1.78880358e+000
      5.74363589e-001 4.30493504e-001 1.74974883e+000 2.28590026e-001
      2.28294969e-001 1.52860656e-001 5.18364571e-002 4.41894382e-002
      6.19360328e-001 9.68925133e-002 8.33885372e-001 5.23550332e-001
      2.26123855e-002 5.17763138e-001 2.23103106e-001 8.68789971e-001
      3.65243137e-001 8.19856882e-001 1.01564005e-001 1.54879600e-001
      1.67281106e-002 7.44493783e-001 4.37230021e-001 4.39348936e-001
      3.10914218e-001 2.45136060e-002 9.00608718e-001 2.28583619e-001
      3.64150666e-002 2.20769554e-001 6.21821266e-003 7.63606608e-001
      1.77595675e-001 7.86262572e-001 9.19849873e-001 1.13602543e+000
      7.41362691e-001 1.74362697e-002 1.21551514e+000 4.29480411e-002
      1.67394370e-001 6.32062107e-002 3.66115928e-001 3.10842991e-001
      1.85906902e-001 8.68545249e-002 2.77095228e-001 8.89024794e-001
      2.53523517e+000 6.91989660e-001 3.79156172e-001 6.61918700e-001
      8.71465266e-001 5.81572466e-002 6.05799556e-002 5.41149259e-001
      8.12868953e-001 1.64323285e-001 3.47350359e-001 2.95617376e-002
      2.94811636e-001 8.57697241e-003 7.73473799e-001 4.54596013e-001
      4.68718767e-001 1.42435229e+000 8.17873552e-002 6.08545065e-001
      5.55554079e-003 2.33891904e-002 1.60614401e-001 6.39677823e-001
      1.05198622e+000 1.08924747e-001 1.52446020e+000 1.80757046e+000
      1.10060418e+000 1.31320429e+000 8.59252334e-001 1.80118144e+000 0.
      0. 0. 0. 0. 0. 0. 0. 0. 0. 0. 0. 0. 0. 0. 0. 0. 0. 0. 0. 0. 0. 0.
      0. 0. 0. 0. 0. 0. 0. 0. 0. 0. 0. 0. 0. 0. 0. 0. 0. 0. 0. 0. 0. 0.
      0. 0. 0. 0. 0. 0. 0. 0. 0. 0. 0. 0. 0. 0. 0. 0. 0. 0. 0. 0. 0. 0.
      0. 0. 0. 0. 0. 0. 0. 0. 0. 0. 0. 0. 0. 0. 0. 0. 0. 0. 0. 0. 0. 0.
      0. 0. 0. 0. 0. 0. 0. 0. 0. 0. 0.</_>
    <_>
      1.73458815e-001 8.21765184e-001 5.29951692e-001 8.94777656e-001
      1.74980462e-002 1.30052471e+000 4.50228423e-001 3.70623857e-001
      1.04896002e-001 6.06423736e-001 9.91515577e-001 1.01809061e+000
      8.74509752e-001 4.86414373e-001 7.87908792e-001 1.24831462e+000
      2.48483747e-001 1.98215842e-001 8.64830971e-001 3.22771192e-001
      4.83592212e-001 5.70989728e-001 9.04941380e-001 4.27824438e-001
      1.67260487e-002 1.05651236e+000 4.80376810e-001 3.69219035e-001
      4.99231845e-001 5.05750217e-002 2.95038193e-001 9.14231986e-002
      3.41193229e-001 7.75596276e-002 4.88367647e-001 6.13680720e-001
      3.43911201e-001 4.27800119e-001 2.00392216e-001 1.48279619e+000
      1.33037996e-002 8.79936516e-001 3.62712383e-001 1.24689035e-001
      1.35339868e+000 6.91729963e-001 1.41225278e+000 5.83781004e-001
      1.69217062e+000 8.10809731e-001 3.87327857e-002 8.16148221e-001
      1.03973532e+000 1.29868197e+000 3.92793089e-001 3.02874237e-001
      1.22836873e-001 3.47890943e-001 1.01934066e-002 9.28402722e-001
      5.22963345e-001 6.67483747e-001 1.15779946e-002 1.78878441e-001
      3.27543527e-001 8.43285561e-001 3.22821319e-001 1.95775464e-001
      1.44494021e+000 1.17519963e+000 2.09482694e+000 6.14388168e-001
      5.31677485e-001 1.38125730e+000 4.75198030e-001 2.80338198e-001
      4.90752868e-002 1.36777914e+000 5.21886170e-001 4.69456971e-001
      2.14314908e-001 4.02327687e-001 1.90139022e-002 1.06953830e-001
      1.28763390e+000 9.11359966e-001 2.05661077e-002 3.10161263e-001
      1.19044876e+000 1.98217916e+000 2.34386921e-001 3.14773887e-001
      3.05859838e-002 1.13005257e+000 8.22178960e-001 3.98685843e-001
      1.49981368e+000 1.97246826e+000 1.16680332e-001 4.85777825e-001
      1.21506917e+000 5.15640855e-001 1.13319933e-001 3.32154870e-001
      2.04620734e-001 1.06065583e+000 1.37346792e+000 3.25792432e-002
      9.45062283e-003 9.97994170e-002 3.76478255e-001 1.48264360e+000
      2.58553088e-001 3.47479880e-001 4.53833900e-002 3.47009338e-002
      1.44455105e-001 6.48585796e-001 1.41849210e-002 1.03709984e+000
      3.45223725e-001 1.07831013e+000 1.06312841e-001 5.54652466e-003
      1.87953293e-001 6.72909468e-002 1.17286944e+000 4.46979553e-001
      2.56466657e-001 3.67952645e-001 9.43114832e-002 8.16002190e-001
      3.63806337e-002 2.94211835e-001 1.58637896e-001 3.65447938e-001
      7.44319081e-001 4.49734107e-002 3.18993181e-001 7.38551676e-001
      2.84041494e-001 2.86355704e-001 5.21625161e-001 1.94526121e-001
      1.11323857e+000 2.25309372e-001 8.24771374e-002 1.04269397e+000
      1.84728101e-001 5.29882647e-002 4.61832583e-001 1.48393905e+000
      3.79100382e-001 1.08577967e+000 1.30325234e+000 3.12061846e-001
      3.70686412e-001 6.77330256e-001 6.50264323e-001 5.20115048e-002
      2.26718128e-001 5.69903553e-002 1.92516983e-001 9.05101240e-001
      1.33836061e-001 7.72893548e-001 1.34006786e+000 1.44505516e-001
      2.47124150e-001 5.26356280e-001 1.01746500e+000 2.60455132e-001
      2.65851945e-001 7.54725695e-001 2.33493865e-001 5.19449487e-002
      2.88642406e-001 4.59547162e-001 3.44503105e-001 4.93236259e-002
      1.29455244e-002 4.76060957e-002 3.37351352e-001 4.29028213e-001
      6.90285563e-001 3.64048034e-001 1.24699414e-001 7.16922104e-001
      7.64331758e-001 2.65369773e-001 1.19867548e-001 1.29359746e+000
      8.16220880e-001 4.87819254e-001 1.52524149e+000 1.01166107e-002
      3.77692282e-002 7.40605116e-001 1.32321227e+000 3.46575081e-001
      1.41994599e-002 4.45231706e-001 3.93797874e-001 2.03708619e-001
      6.74124956e-001 8.43013525e-001 6.10532224e-001 4.57767129e-001
      3.26492757e-001 1.89335961e-002 1.86853837e-002 1.25629008e+000
      1.63053349e-002 1.54194188e+000 5.31074777e-002 1.39485002e+000
      1.15466607e+000 1.02828658e+000 8.41134846e-001 1.13044691e+000
      2.56394953e-001 3.56379539e-001 7.18375266e-001 7.48790264e-001
      5.88965774e-001 2.47069821e-001 4.53300923e-002 4.21731323e-002
      6.55104637e-001 1.91228181e-001 5.65183520e-001 7.94173479e-001
      5.40774129e-003 3.49237621e-001 1.25017866e-001 3.51343393e-001
      7.33301938e-001 2.55531877e-001 1.39702335e-001 2.09751308e-001
      2.44464222e-002 7.79269636e-001 2.61261612e-001 1.82132483e-001
      2.49284118e-001 2.99934130e-002 7.07881749e-001 1.54097006e-001
      1.96340960e-002 4.84479181e-002 5.24450419e-003 7.22870648e-001
      1.52494594e-001 6.68807566e-001 7.13648200e-001 1.09802151e+000
      1.43326735e+000 2.69662887e-002 1.09945011e+000 5.87996766e-002
      2.45879292e-001 6.06667288e-002 4.51590657e-001 4.45634693e-001
      1.33186713e-001 6.14096485e-002 7.46184051e-001 8.84700000e-001
      1.83138061e+000 1.01269436e+000 2.41715863e-001 4.17408317e-001
      4.79027987e-001 3.17591093e-002 4.69081812e-002 1.48455787e+000
      4.05341387e-001 8.96348208e-002 2.78722227e-001 4.52796705e-002
      1.07097685e+000 1.09388465e-002 5.97773731e-001 5.25920987e-001
      6.17099404e-001 1.09966886e+000 1.57537371e-001 7.73073554e-001
      5.35169570e-003 1.87075827e-002 4.44447398e-001 5.79314411e-001
      9.81177270e-001 2.31545180e-001 1.60122967e+000 1.95622432e+000
      1.00651085e+000 1.21026123e+000 9.76411164e-001 2.62162089e-001 0.
      0. 0. 0. 0. 0. 0. 0. 0. 0. 0. 0. 0. 0. 0. 0. 0. 0. 0. 0. 0. 0. 0.
      0. 0. 0. 0. 0. 0. 0. 0. 0. 0. 0. 0. 0. 0. 0. 0. 0. 0. 0. 0. 0. 0.
      0. 0. 0. 0. 0. 0. 0. 0. 0. 0. 0. 0. 0. 0. 0. 0. 0. 0. 0. 0. 0. 0.
      0. 0. 0. 0. 0. 0. 0. 0. 0. 0. 0. 0. 0. 0. 0. 0. 0. 0. 0. 0. 0. 0.
      0. 0. 0. 0. 0. 0. 0. 0. 0. 0. 0.</_>
    <_>
      2.28453964e-001 1.07990134e+000 5.37322640e-001 2.09142923e+000
      2.61267517e-002 1.11261094e+000 4.70011324e-001 2.73467988e-001
      9.42955613e-002 1.07102466e+000 2.70153999e-001 3.90653729e-001
      2.27797532e+000 1.26391828e+000 1.04675353e+000 8.55824828e-001
      3.48892421e-001 3.35857093e-001 9.62951601e-001 4.27397728e-001
      3.27157885e-001 2.77734220e-001 1.11296546e+000 4.28957969e-001
      4.66714576e-002 1.03619730e+000 5.74747324e-001 8.70076478e-001
      4.37262416e-001 6.19600564e-002 6.27705991e-001 1.70275807e-001
      9.12828505e-001 1.68323070e-001 1.41500449e+000 1.13274717e+000
      3.16553116e-001 4.18840080e-001 4.21094328e-001 7.30167747e-001
      2.30414364e-002 1.07545495e+000 3.39477122e-001 1.23748846e-001
      9.42736626e-001 8.22696984e-001 2.10728979e+000 8.02619457e-001
      1.13675904e+000 1.31801784e+000 8.28621089e-002 1.25242400e+000
      8.75127614e-001 4.60062653e-001 5.62222004e-001 4.58503753e-001
      9.67329443e-002 2.91117817e-001 5.22942841e-002 1.32132959e+000
      1.22868919e+000 9.59320486e-001 3.39961611e-002 4.43944663e-001
      5.89368403e-001 8.56137931e-001 4.19008076e-001 4.55227137e-001
      1.71844637e+000 3.43475986e+000 9.04930413e-001 8.38204026e-001
      1.93561900e+000 9.27408338e-001 8.78324270e-001 1.81598887e-001
      2.71358192e-001 8.64898860e-001 5.42902410e-001 7.80211091e-001
      2.21928090e-001 6.52022123e-001 8.70008692e-002 1.41632602e-001
      2.38765669e+000 1.18886387e+000 1.63634960e-002 1.41771078e-001
      8.91194940e-001 1.08904397e+000 1.07029819e+000 3.67500961e-001
      5.89877963e-002 1.14816403e+000 6.33734226e-001 8.62634897e-001
      2.24489999e+000 1.31776941e+000 2.35218793e-001 5.15625179e-001
      1.77320075e+000 5.42433083e-001 3.32376391e-001 4.14162457e-001
      4.57792819e-001 1.10362852e+000 9.11492229e-001 4.21327427e-002
      6.46438263e-003 1.92622915e-001 5.92629731e-001 1.63961995e+000
      6.71888053e-001 3.58636945e-001 4.60102111e-002 6.35733828e-002
      1.72946617e-001 2.99224585e-001 2.58342046e-002 1.09784234e+000
      8.94447982e-001 4.69115943e-001 6.77608252e-001 7.07239425e-003
      1.66432276e-001 1.82053462e-001 1.10569465e+000 3.52951288e-001
      8.29577267e-001 8.69642198e-001 2.02467337e-001 7.81894624e-001
      1.45399887e-002 7.50088394e-001 1.32721826e-001 9.97029364e-001
      5.50821126e-001 7.10395426e-002 9.33760881e-001 9.42640960e-001
      4.18227404e-001 6.40448272e-001 3.67614090e-001 2.31400087e-001
      1.42789614e+000 2.60357946e-001 1.59925312e-001 7.88948536e-001
      2.21918181e-001 6.17086813e-002 4.80654240e-001 1.35916793e+000
      2.32973427e-001 7.09529996e-001 1.03720033e+000 3.41347873e-001
      4.51156676e-001 1.72936213e+000 1.57738459e+000 4.88918759e-002
      5.89085996e-001 6.73249364e-002 3.70716035e-001 3.92073989e-001
      1.06257379e-001 2.49354601e+000 7.55000651e-001 2.07178295e-001
      1.46328181e-001 4.13338751e-001 1.01205528e+000 2.76112139e-001
      4.51231867e-001 9.77028370e-001 7.66542494e-001 7.70048350e-002
      5.87292314e-001 6.03657484e-001 5.17288029e-001 6.38458878e-002
      1.68357603e-002 5.28862737e-002 1.94030356e+000 5.00562370e-001
      6.88603222e-001 6.31639659e-001 2.43135303e-001 2.92658895e-001
      8.38775516e-001 2.47310936e-001 3.86752129e-001 1.83227789e+000
      1.42450899e-001 3.35357279e-001 9.31277633e-001 5.25638647e-002
      5.31184450e-002 2.57394266e+000 1.47137439e+000 3.72209311e-001
      2.61243805e-002 3.66631746e-001 3.46209526e-001 4.49356377e-001
      5.82765698e-001 1.01366067e+000 1.13457143e+000 1.60155201e+000
      3.96427423e-001 8.23734477e-002 4.00690436e-002 1.03416026e+000
      1.43787026e-001 1.36603045e+000 9.01558101e-002 9.05057847e-001
      1.71856797e+000 2.50266218e+000 4.88204211e-001 8.58542681e-001
      2.25010991e-001 3.37454647e-001 1.01793206e+000 1.79422414e+000
      1.23756456e+000 3.65996212e-001 6.35994598e-002 4.27517779e-002
      5.96383750e-001 2.25301474e-001 7.43152142e-001 1.76652062e+000
      1.36171533e-002 4.32874471e-001 2.97137499e-001 4.19386536e-001
      2.61740494e+000 2.56242335e-001 2.03660548e-001 1.21901274e-001
      3.07773929e-002 4.02715981e-001 3.66340160e-001 3.11536044e-001
      3.60033095e-001 1.55933173e-002 5.22840440e-001 2.28020206e-001
      2.13807542e-002 1.32559583e-001 8.20529554e-003 1.17826807e+000
      1.09940268e-001 8.43796134e-001 1.27215278e+000 2.79466224e+000
      1.36988759e+000 2.21458748e-002 7.42765427e-001 2.38082945e-001
      3.76752049e-001 7.06279129e-002 9.53456759e-001 6.24844790e-001
      1.56351924e-001 3.77413690e-001 1.45719802e+000 1.16822934e+000
      7.57698596e-001 8.48676562e-001 7.93843329e-001 4.64235812e-001
      8.69995117e-001 5.75687215e-002 3.71794663e-002 2.25618267e+000
      3.41674954e-001 2.26636469e-001 2.77786225e-001 6.58272728e-002
      2.05728960e+000 4.76956647e-003 6.46117747e-001 2.99690306e-001
      9.37335253e-001 8.33493292e-001 1.64677739e-001 7.70831168e-001
      8.15233123e-003 2.65965071e-002 8.82340848e-001 3.62209916e-001
      1.04357672e+000 1.52213663e-001 1.93756592e+000 2.50343800e+000
      1.37338912e+000 9.84733284e-001 1.21678638e+000 7.20217466e-001 0.
      0. 0. 0. 0. 0. 0. 0. 0. 0. 0. 0. 0. 0. 0. 0. 0. 0. 0. 0. 0. 0. 0.
      0. 0. 0. 0. 0. 0. 0. 0. 0. 0. 0. 0. 0. 0. 0. 0. 0. 0. 0. 0. 0. 0.
      0. 0. 0. 0. 0. 0. 0. 0. 0. 0. 0. 0. 0. 0. 0. 0. 0. 0. 0. 0. 0. 0.
      0. 0. 0. 0. 0. 0. 0. 0. 0. 0. 0. 0. 0. 0. 0. 0. 0. 0. 0. 0. 0. 0.
      0. 0. 0. 0. 0. 0. 0. 0. 0. 0. 0.</_>
    <_>
      6.97381869e-002 3.84957612e-001 3.71866465e-001 3.09615493e-001
      2.29208171e-002 1.32991955e-001 2.83180267e-001 1.91977993e-001
      5.62307946e-002 1.13794494e+000 7.74784386e-001 1.01293325e+000
      1.79963505e+000 2.10033312e-001 3.78121883e-001 2.12584838e-001
      3.04478556e-001 3.24880600e-001 4.56145018e-001 3.29289287e-001
      2.62941569e-001 2.53743410e-001 4.40655738e-001 2.34934852e-001
      2.34793480e-002 1.57783926e+000 1.97391316e-001 3.03983808e-001
      3.58327091e-001 3.70880030e-002 2.35742941e-001 5.23762219e-002
      3.54200631e-001 1.47434220e-001 3.22319984e-001 5.22535920e-001
      1.78144783e-001 4.72963333e-001 1.33314252e-001 2.01653194e+000
      9.45969950e-003 4.81651545e-001 4.49276090e-001 5.29750101e-002
      6.47112727e-001 2.67394632e-001 9.16452259e-002 2.48096824e-001
      1.88742471e+000 1.09878731e+000 5.64299673e-002 1.10425782e+000
      7.68134356e-001 9.05863166e-001 5.86876631e-001 4.19720054e-001
      1.98666915e-001 5.77283323e-001 2.88678054e-003 1.72579777e+000
      2.48491857e-002 0. 2.86859390e-003 2.96373606e-001 1.81240231e-001
      1.05276263e+000 4.87268686e-001 3.02485406e-001 7.26278186e-001
      7.22580969e-001 2.22318316e+000 8.37354302e-001 0. 2.37517715e+000
      1.06157273e-001 1.64290190e-001 1.55660212e-001 1.89233291e+000
      3.20461273e-001 2.50044465e-001 3.95164788e-001 1.06969094e+000
      6.82230741e-002 1.47342801e-001 1.74119258e+000 5.29783666e-001
      1.38667701e-002 4.90015745e-001 5.61390221e-001 4.36603874e-001
      1.13687180e-001 6.52615368e-001 3.79945561e-002 2.73863137e-001
      1.15540445e+000 2.55504191e-001 9.48109627e-002 1.23518586e+000
      5.07878326e-002 3.37690443e-001 1.10764909e+000 5.92346072e-001
      1.61771715e-001 4.50893402e-001 1.65432692e-001 6.01185739e-001
      2.30311707e-001 4.17909771e-002 4.81119286e-003 3.61061096e-002
      6.05857968e-001 2.29678011e+000 1.10324889e-001 1.19935781e-001
      2.91328300e-002 3.18603888e-002 9.49719995e-002 2.21712589e-001
      8.15125834e-003 4.93169814e-001 7.00168550e-001 1.03831458e+000
      8.87610689e-002 4.65212483e-003 5.26920632e-002 7.69279301e-002
      9.19298470e-001 2.34971970e-001 1.03370614e-001 2.03480706e-001
      2.23154545e-001 4.05143797e-001 8.97442456e-003 1.31233561e+000
      7.16772601e-002 3.98095757e-001 7.07624495e-001 2.66147554e-002
      3.00114244e-001 5.98208427e-001 1.91612065e-001 2.81453043e-001
      4.33927089e-001 1.20851070e-001 2.38879466e+000 1.09533004e-001
      7.25612715e-002 5.52206099e-001 6.91947266e-002 7.27778673e-002
      1.49513319e-001 1.29494596e+000 2.79132873e-001 9.46634531e-001
      1.15129817e+000 1.11386955e-001 3.96975905e-001 1.18688977e+000
      5.51662326e-001 3.07015553e-002 1.02853537e-001 1.67875234e-002
      2.76343495e-001 1.58468544e+000 2.16199860e-001 5.91251254e-001
      1.71270955e+000 1.42260715e-001 6.95646822e-001 5.42830646e-001
      1.30958200e+000 1.10586576e-001 2.58659691e-001 3.32787663e-001
      1.59260392e-001 2.21115090e-002 2.00361699e-001 1.48379773e-001
      4.13357109e-001 2.42684558e-002 1.27664432e-002 4.93703149e-002
      1.57992020e-001 1.75938860e-001 8.68186474e-001 4.75247562e-001
      1.49231255e-001 1.06873679e+000 9.77186203e-001 1.47901699e-001
      1.84107170e-001 1.66019881e+000 8.97405028e-001 5.58078825e-001
      1.73614645e+000 2.75152922e-003 3.17592621e-002 3.49513352e-001
      2.22707343e+000 3.14995587e-001 8.07492249e-003 1.72494084e-001
      3.22757691e-001 1.38156474e-001 4.59395468e-001 8.91711056e-001
      1.02427840e+000 2.68117636e-001 1.91131324e-001 6.90185949e-002
      2.37459783e-002 1.74787867e+000 4.24128510e-002 3.12570035e-001
      3.62208486e-002 6.01474524e-001 8.06046784e-001 6.18601322e-001
      3.65185201e-001 7.79997408e-001 3.27015370e-001 2.40790501e-001
      4.98841673e-001 0. 4.12715167e-001 1.25964388e-001 3.11846342e-002
      1.71322487e-002 5.87982357e-001 1.31921753e-001 5.10995805e-001
      5.32729685e-001 1.20024821e-002 1.15503085e+000 2.04306915e-001
      3.57714295e-001 0. 2.08323568e-001 7.95939490e-002 2.81403363e-001
      9.84808430e-003 3.44985187e-001 3.26159030e-001 3.77466500e-001
      1.17442973e-001 1.18972259e-002 2.62548655e-001 1.10876828e-001
      2.06438527e-002 2.14152843e-001 5.33118611e-003 9.54156995e-001
      1.46335617e-001 8.59884545e-002 9.55024838e-001 1.76004303e+000
      1.01797819e+000 1.09119527e-002 9.12714481e-001 2.90502012e-002
      9.73972157e-002 3.10889669e-002 3.30199569e-001 2.41584510e-001
      1.22047044e-001 7.54320845e-002 0. 3.97881269e-001 1.32106972e+000
      0. 2.47839540e-001 4.87693667e-001 7.34760389e-002 4.23115790e-002
      4.41888869e-002 7.55080521e-001 3.46176118e-001 1.95855141e-001
      4.06131595e-001 2.51864679e-002 4.34703708e-001 6.59551239e-003
      2.26097256e-001 7.91943252e-001 2.62075961e-001 8.60362709e-001
      9.91315991e-002 1.32749811e-001 3.65314446e-003 2.45252009e-002
      2.34843306e-002 5.03546834e-001 4.53848541e-001 6.02602720e-001
      1.53202450e+000 2.07446361e+000 4.74885076e-001 9.55356598e-001
      4.60258186e-001 1.18071330e+000 0. 0. 0. 0. 0. 0. 0. 0. 0. 0. 0.
      0. 0. 0. 0. 0. 0. 0. 0. 0. 0. 0. 0. 0. 0. 0. 0. 0. 0. 0. 0. 0. 0.
      0. 0. 0. 0. 0. 0. 0. 0. 0. 0. 0. 0. 0. 0. 0. 0. 0. 0. 0. 0. 0. 0.
      0. 0. 0. 0. 0. 0. 0. 0. 0. 0. 0. 0. 0. 0. 0. 0. 0. 0. 0. 0. 0. 0.
      0. 0. 0. 0. 0. 0. 0. 0. 0. 0. 0. 0. 0. 0. 0. 0. 0. 0. 0. 0. 0. 0.
      0.</_>
    <_>
      7.06655309e-002 6.62642598e-001 1.04431367e+000 5.02211809e-001
      2.92758420e-002 4.69723672e-001 4.68427360e-001 2.11308196e-001
      4.12339494e-002 1.87672544e+000 1.08099651e+000 1.19089162e+000
      4.74590242e-001 2.80819535e-001 9.91437078e-001 2.91422457e-001
      2.77263641e-001 6.78702295e-001 2.17349792e+000 6.03777885e-001
      5.52353859e-001 2.98195332e-001 1.85079253e+000 7.11465359e-001
      2.96216253e-002 2.52094698e+000 5.85106134e-001 9.21543241e-001
      8.77738595e-001 6.28353357e-002 2.73897946e-001 8.50184411e-002
      1.08705437e+000 1.16456419e-001 5.95601857e-001 3.18352014e-001
      3.54563534e-001 3.46693009e-001 5.57726681e-001 1.51299930e+000
      2.25157123e-002 1.07340264e+000 1.59426317e-001 9.04361755e-002
      9.66822267e-001 3.52176137e-008 1.18406498e+000 1.04629266e+000
      1.91738462e+000 5.10077596e-001 3.61601710e-002 2.48370099e+000
      1.54539871e+000 2.95522600e-001 7.42619514e-001 1.52706873e+000
      1.69573680e-001 6.08346879e-001 3.30208545e-003 1.40166855e+000
      9.48449552e-001 0. 2.97466386e-003 5.59831858e-001 2.08223253e-001
      1.89795923e+000 1.12793314e+000 4.76755410e-001 7.79864907e-001
      1.85125625e+000 1.48090708e+000 1.19460130e+000 7.59122789e-001
      3.43417108e-001 1.48647916e+000 2.53423840e-001 3.70140448e-002
      2.20110464e+000 6.77625716e-001 4.24599051e-001 3.58869225e-001
      3.39793265e-001 8.07813555e-003 1.84566110e-001 2.01168108e+000
      8.94251823e-001 1.81573052e-002 1.87756598e-001 3.45582891e+000
      1.05268514e+000 1.88764066e-001 2.97670394e-001 4.31255139e-002
      2.12382698e+000 9.22379255e-001 3.88545245e-001 1.41630852e+000
      1.93275642e+000 4.60341573e-002 4.35553521e-001 1.57647002e+000
      2.29854256e-001 1.54958710e-001 2.84477800e-001 3.99625272e-001
      7.27527618e-001 2.59152198e+000 3.53388712e-002 5.26911719e-003
      8.20066333e-002 1.08130002e+000 2.03522801e+000 1.85009524e-001
      7.64357448e-001 3.44440825e-002 1.57660581e-002 1.38042450e-001
      2.78515965e-001 7.26036681e-003 7.35175550e-001 3.63859594e-001
      4.06441391e-001 2.93691933e-001 8.28555971e-003 1.31266549e-001
      1.10199995e-001 1.16071486e+000 2.58989781e-001 1.61589220e-001
      5.72454929e-001 1.75011978e-001 6.15255356e-001 1.19058648e-002
      2.19947052e+000 8.95577595e-002 7.71890357e-002 2.25163341e+000
      5.05512804e-002 2.31391296e-001 2.26894781e-001 2.91068494e-001
      5.13518810e-001 6.84759617e-001 3.26681226e-001 1.16066313e+000
      2.09037602e-001 1.27611801e-001 8.26663315e-001 2.53540218e-001
      9.43380445e-002 5.44182420e-001 1.59590626e+000 4.92886156e-001
      2.13939810e+000 1.60439444e+000 1.84701279e-001 4.07168508e-001
      1.20158899e+000 1.30601466e-001 2.86485758e-002 1.03808367e+000
      2.67275609e-002 2.70787627e-001 1.72705710e+000 1.01613201e-001
      1.50348961e+000 2.05097079e+000 2.10973039e-001 5.73504567e-001
      7.22151279e-001 2.82993883e-001 3.05042624e-001 4.01393294e-001
      3.59560400e-001 2.70962387e-001 4.15303633e-002 1.74059510e-001
      2.53794938e-001 2.74151295e-001 6.43778220e-002 1.55884707e-002
      4.20756713e-002 3.73102546e-001 1.98523834e-001 2.49495894e-001
      4.57696855e-001 2.29445368e-001 1.30537724e+000 8.87149394e-001
      1.55286789e-001 1.73985898e-001 2.16380048e+000 1.29118812e+000
      4.21275645e-001 2.25309539e+000 3.38542741e-003 1.42148873e-002
      9.52813745e-001 8.87316883e-001 1.23595834e-001 7.27660256e-003
      2.03470945e-001 5.42774439e-001 8.46298933e-002 1.05201352e+000
      1.48184991e+000 1.76824582e+000 3.34793448e-001 8.00478935e-001
      8.39471072e-003 1.67373624e-002 2.92957783e+000 1.03923185e-002
      5.15726089e-001 4.70781066e-002 9.10444438e-001 2.82308340e-001
      2.89651871e-001 1.98298764e+000 1.43374670e+000 1.05868556e-001
      3.83666247e-001 3.95506233e-001 8.89956713e-001 3.18051815e-001
      1.21719643e-001 5.81430495e-002 4.68568206e-002 5.90341091e-001
      2.55444527e-001 1.00816703e+000 3.39463085e-001 1.34326583e-002
      4.93283153e-001 8.44416097e-002 2.51493812e-001 8.94800127e-001
      2.85308272e-001 1.11416645e-001 8.84095281e-002 1.62584409e-002
      1.22423208e+000 1.86178565e-001 1.37614444e-001 5.84970057e-001
      1.53066488e-002 1.43561840e-001 1.22836471e-001 1.20738521e-002
      3.81197073e-002 7.68028013e-003 2.26762724e+000 1.30592868e-001
      6.96652055e-001 1.30284381e+000 1.27941072e+000 2.99174488e-001
      2.52161101e-002 1.40809453e+000 4.72724847e-002 1.10442340e-001
      7.26346672e-002 2.77801454e-001 4.14231241e-001 1.26514107e-001
      3.56020145e-002 3.99411500e-001 7.68503964e-001 1.32458580e+000
      4.72397894e-001 5.83450496e-001 9.07988012e-001 1.02926984e-001
      4.34777811e-002 4.55644540e-002 7.77094603e-001 6.81260824e-001
      1.58641398e-001 3.04556698e-001 4.25629877e-002 5.47679782e-001
      3.25539662e-003 2.77574992e+000 3.07391375e-001 5.40270090e-001
      1.32581639e+000 1.06950797e-001 6.05162024e-001 4.21510078e-003
      3.10174730e-002 4.16100591e-001 4.76487398e-001 5.20654678e-001
      5.99567711e-001 1.50879300e+000 2.25078821e+000 6.20036125e-001
      3.86157930e-001 6.24374688e-001 2.33727837e+000 0. 0. 0. 0. 0. 0.
      0. 0. 0. 0. 0. 0. 0. 0. 0. 0. 0. 0. 0. 0. 0. 0. 0. 0. 0. 0. 0. 0.
      0. 0. 0. 0. 0. 0. 0. 0. 0. 0. 0. 0. 0. 0. 0. 0. 0. 0. 0. 0. 0. 0.
      0. 0. 0. 0. 0. 0. 0. 0. 0. 0. 0. 0. 0. 0. 0. 0. 0. 0. 0. 0. 0. 0.
      0. 0. 0. 0. 0. 0. 0. 0. 0. 0. 0. 0. 0. 0. 0. 0. 0. 0. 0. 0. 0. 0.
      0. 0. 0. 0. 0. 0.</_>
    <_>
      1.36106357e-001 1.05002606e+000 4.58086133e-001 1.01843023e+000
      1.40259359e-002 1.22356260e+000 2.36257106e-001 1.32619336e-001
      9.94649380e-002 1.60041463e+000 9.50813770e-001 1.12987554e+000
      1.19662559e+000 4.80046928e-001 1.73173380e+000 8.80653381e-001
      6.98229849e-001 3.38845819e-001 8.77360046e-001 5.26232958e-001
      3.87712151e-001 4.72463012e-001 2.97192812e-001 2.75926352e-001
      1.82059091e-002 9.76306975e-001 4.81620908e-001 3.50694805e-001
      3.63594711e-001 5.48403710e-002 5.35031497e-001 8.03950876e-002
      3.53307068e-001 5.69012724e-002 1.36826146e+000 7.88052261e-001
      3.59826744e-001 4.42767978e-001 4.29356813e-001 7.25089192e-001
      1.64233502e-002 1.10575986e+000 3.46880466e-001 1.64937496e-001
      1.68107307e+000 5.73694348e-001 1.09154570e+000 8.39337289e-001
      1.21644759e+000 1.20538449e+000 5.38239665e-002 8.68755937e-001
      1.04218626e+000 9.67859983e-001 4.57247853e-001 1.28041208e+000
      1.16526403e-001 2.59250402e-001 1.23918811e-002 7.56727695e-001
      1.22886729e+000 6.89097762e-001 1.52589576e-002 1.86698005e-001
      2.82919526e-001 1.04804552e+000 1.27203834e+000 6.65124953e-001
      9.67943311e-001 9.78361487e-001 5.79781175e-001 6.95100904e-001
      1.11840379e+000 1.13197577e+000 3.60301256e-001 1.79934889e-001
      2.47729972e-001 4.68803555e-001 3.21297795e-001 7.99518883e-001
      1.65946648e-001 5.00716507e-001 1.83995038e-001 1.23815902e-001
      1.64894319e+000 1.42348456e+000 2.59006564e-002 9.93106782e-001
      9.36987102e-001 2.07820344e+000 3.98391753e-001 2.47706547e-001
      9.16056186e-002 5.81647277e-001 1.25206888e+000 6.50925279e-001
      1.05609465e+000 1.64373434e+000 4.82335985e-002 5.81957936e-001
      2.14159250e+000 8.17819476e-001 1.32366315e-001 6.05634689e-001
      5.15872538e-001 1.00490499e+000 1.29563117e+000 3.46475765e-002
      1.00671658e-002 7.64755011e-002 4.02568847e-001 1.10477567e+000
      1.47486925e-001 8.20647538e-001 3.54587808e-002 4.85773012e-002
      1.69230014e-001 7.35760510e-001 8.04443378e-003 1.99746215e+000
      3.43480617e-001 9.49929535e-001 3.27824771e-001 4.93052788e-003
      2.29566798e-001 9.48261470e-002 1.58454561e+000 2.52999842e-001
      2.12022948e+000 4.36252475e-001 6.33972138e-002 5.90752006e-001
      2.75501423e-002 3.46174061e-001 1.51267081e-001 3.61454397e-001
      1.41107750e+000 4.60170433e-002 4.34117466e-001 7.85486221e-001
      2.31366768e-001 3.03310037e-001 2.38117442e-001 2.73891211e-001
      1.09609878e+000 1.93092912e-001 1.13050140e-001 1.07842386e+000
      1.66381672e-001 6.48716167e-002 8.57329905e-001 1.23731971e+000
      7.25335777e-001 1.04682100e+000 1.55318236e+000 2.51894325e-001
      3.08278054e-001 7.57299006e-001 3.38036001e-001 3.83024700e-002
      4.19783086e-001 1.95118468e-002 2.90320724e-001 1.60940385e+000
      8.67851526e-002 5.35003603e-001 7.91084826e-001 1.43300802e-001
      2.62277275e-001 4.93760467e-001 1.17050207e+000 1.24211162e-001
      3.69320661e-001 2.81775504e-001 1.84171438e+000 5.99574819e-002
      4.06618804e-001 5.74265122e-001 6.89117014e-001 4.80189398e-002
      1.23482766e-002 3.53245549e-002 4.33092088e-001 7.20083416e-001
      8.47060084e-001 2.54337490e-001 1.38725504e-001 1.00029004e+000
      4.47170347e-001 2.22260505e-001 1.52891412e-001 7.62753487e-001
      1.17562604e+000 1.23600388e+000 5.22672117e-001 1.27001340e-002
      4.62604798e-002 6.00736678e-001 9.03407156e-001 2.00360447e-001
      7.98051711e-003 3.40179592e-001 3.92909259e-001 1.35410935e-001
      1.83411014e+000 1.36479712e+000 3.46589208e-001 6.38896883e-001
      2.22807601e-001 1.89838573e-001 1.65524986e-002 1.40996611e+000
      8.67368057e-002 1.12150991e+000 5.42699695e-002 1.73466122e+000
      8.32130373e-001 7.43521333e-001 6.59467041e-001 1.11582470e+000
      1.11883618e-001 3.96996588e-001 1.21900201e+000 1.32925236e+000
      2.94412702e-001 1.53427839e-001 3.81465927e-002 3.51242460e-002
      5.85541487e-001 1.51371524e-001 7.60912597e-001 6.50537252e-001
      1.63475461e-002 3.11990768e-001 1.81234106e-001 6.51026726e-001
      2.04217362e+000 6.01099014e-001 1.45986289e-001 1.09086923e-001
      1.43989930e-002 9.32750642e-001 3.24710280e-001 1.97637796e-001
      3.71641576e-001 3.00025195e-002 9.04610157e-001 1.84867933e-001
      1.68734044e-002 4.54328418e-001 4.78352420e-003 5.36910832e-001
      8.21147636e-002 1.30918968e+000 6.68425918e-001 9.50115204e-001
      9.68443990e-001 1.76701751e-002 7.92411029e-001 5.93878925e-002
      1.69210836e-001 5.06008863e-002 3.70810956e-001 4.45208728e-001
      1.60106018e-001 5.80318384e-002 1.49251103e+000 1.24422479e+000
      9.28200126e-001 9.19292212e-001 2.29088083e-001 2.78396845e-001
      1.02578628e+000 8.67592096e-002 4.21666652e-002 1.30610240e+000
      8.41708839e-001 1.39726102e-001 7.72297800e-001 8.82215798e-002
      3.22713971e-001 7.77377561e-003 1.22772300e+000 2.32776910e-001
      5.66675365e-001 1.16778755e+000 1.21219859e-001 1.05025828e+000
      5.52327558e-003 1.39073124e-002 6.05234802e-001 4.14772987e-001
      1.19979596e+000 2.48176008e-001 1.10691833e+000 1.01973379e+000
      9.89377260e-001 1.25300169e+000 1.15948784e+000 3.16838741e-001 0.
      0. 0. 0. 0. 0. 0. 0. 0. 0. 0. 0. 0. 0. 0. 0. 0. 0. 0. 0. 0. 0. 0.
      0. 0. 0. 0. 0. 0. 0. 0. 0. 0. 0. 0. 0. 0. 0. 0. 0. 0. 0. 0. 0. 0.
      0. 0. 0. 0. 0. 0. 0. 0. 0. 0. 0. 0. 0. 0. 0. 0. 0. 0. 0. 0. 0. 0.
      0. 0. 0. 0. 0. 0. 0. 0. 0. 0. 0. 0. 0. 0. 0. 0. 0. 0. 0. 0. 0. 0.
      0. 0. 0. 0. 0. 0. 0. 0. 0. 0. 0.</_>
    <_>
      1.37214229e-001 7.96749532e-001 7.69019246e-001 7.44086146e-001
      1.46988463e-002 6.94952071e-001 3.74285191e-001 1.96005359e-001
      1.55528232e-001 1.44176829e+000 1.10068870e+000 9.82428253e-001
      1.68140459e+000 5.24354160e-001 1.93018481e-001 4.73527819e-001
      1.92399800e-001 3.39577168e-001 1.85602558e+000 3.96519393e-001
      4.98543680e-001 4.77334470e-001 1.36900508e+000 4.36802447e-001
      2.91151460e-002 2.13704205e+000 5.75575054e-001 1.09034097e+000
      6.88754082e-001 2.96881311e-002 3.95889193e-001 1.35567829e-001
      8.86190474e-001 1.21734507e-001 1.18398297e+000 1.18740880e+000
      3.20111424e-001 4.46551889e-001 2.75132418e-001 1.92068768e+000
      1.82050224e-002 1.50204480e+000 2.57511675e-001 1.10956140e-001
      8.92232716e-001 3.81136447e-001 7.74616420e-001 5.67583442e-001
      1.10566962e+000 1.52652049e+000 4.84445244e-002 2.31652880e+000
      1.50643516e+000 1.13869488e+000 6.19223595e-001 9.09383595e-001
      7.63065889e-002 3.35652649e-001 1.16279880e-002 1.03958738e+000
      6.32980585e-001 1.13048971e+000 1.34445056e-002 4.12442535e-001
      2.97801286e-001 2.42667603e+000 8.17207932e-001 5.23039699e-001
      1.00561333e+000 1.15322220e+000 1.40484226e+000 1.20752633e+000
      7.65074193e-001 1.45366812e+000 2.03130937e+000 1.49695873e-001
      4.72166128e-002 3.17381203e-001 4.09860551e-001 1.00436783e+000
      1.32599801e-001 5.93063831e-001 2.14629173e-002 1.31359100e-001
      1.11199164e+000 9.20743704e-001 2.88000833e-002 2.58687109e-001
      1.63002872e+000 3.07523280e-001 5.03822923e-001 4.19275045e-001
      1.41084805e-001 1.65434146e+000 3.11855286e-001 8.71313572e-001
      7.58421361e-001 1.77011979e+000 7.00707957e-002 4.62272495e-001
      7.93935835e-001 1.31700885e+000 1.21865183e-001 5.56073487e-001
      2.07462519e-001 1.25363505e+000 1.90266371e+000 3.19378413e-002
      1.60528608e-002 1.31948218e-001 7.78355539e-001 1.44100642e+000
      1.38312802e-001 8.39453399e-001 4.86723371e-002 3.78658921e-002
      1.69801578e-001 3.74648869e-001 1.02596367e-002 3.01321328e-001
      3.63355964e-001 1.15333545e+000 2.46128723e-001 4.48315963e-003
      3.88824761e-001 1.20545611e-001 5.21014094e-001 3.67027164e-001
      3.58255267e-001 4.38111424e-001 2.84105033e-001 8.46834481e-001
      2.91936621e-002 2.83256602e+000 1.42473355e-001 7.07880735e-001
      2.99439698e-001 3.14672031e-002 6.37801111e-001 1.67465556e+000
      2.52949297e-001 5.27941227e-001 2.05074668e-001 7.65239298e-001
      2.43872643e+000 2.08208561e-001 1.47487059e-001 9.53347921e-001
      2.24488586e-001 6.66066930e-002 6.16837680e-001 1.70925689e+000
      2.83182323e-001 3.45452398e-001 1.22990513e+000 2.65091926e-001
      4.09513801e-001 1.17729354e+000 1.07690454e+000 5.26283868e-002
      1.19298029e+000 3.12158614e-002 4.04873759e-001 5.62925160e-001
      1.85962766e-001 1.00545490e+000 1.81940055e+000 1.25934854e-001
      1.45607784e-001 4.37157899e-001 9.53846037e-001 2.77107596e-001
      3.58105779e-001 4.05363590e-001 2.89917052e-001 7.81732053e-002
      5.25822461e-001 6.00265920e-001 2.82656193e-001 5.76238893e-002
